%YAML:1.0
cogntree: !!opencv-ml-boost-tree
   boosting_type: GentleAdaboost
   splitting_criteria: Misclassification
   ntrees: 1000
   weight_trimming_rate: 0.9500000000000000
   is_classifier: 1
   var_all: 60
   var_count: 60
   ord_var_count: 60
   cat_var_count: 0
   training_params:
      use_surrogates: 0
      max_categories: 10
      max_depth: 2
      min_sample_count: 10
      cross_validation_folds: 0
      priors: !!opencv-matrix
         rows: 1
         cols: 2
         dt: d
         data: [ 1., 1. ]
   var_type: [ 0, 0, 0, 0, 0, 0, 0, 0, 0, 0, 0, 0, 0, 0, 0, 0, 0, 0, 0,
       0, 0, 0, 0, 0, 0, 0, 0, 0, 0, 0, 0, 0, 0, 0, 0, 0, 0, 0, 0, 0, 0,
       0, 0, 0, 0, 0, 0, 0, 0, 0, 0, 0, 0, 0, 0, 0, 0, 0, 0, 0 ]
   cat_count: !!opencv-matrix
      rows: 1
      cols: 1
      dt: i
      data: [ 2 ]
   cat_map: !!opencv-matrix
      rows: 1
      cols: 2
      dt: i
      data: [ 0, 1 ]
   trees:
      -
         best_tree_idx: -1
         nodes:
            -
               depth: 0
               sample_count: 46359
               value: -0.9867555382989150
               norm_class_idx: 0
               Tn: 0
               complexity: 0
               alpha: 0.
               node_risk: 5.6551856000020437e+07
               tree_risk: 0.
               tree_error: 0.
               splits:
                  - { var:0, quality:9.7006894710784000e+13,
                      le:0.9654753208160400 }
            -
               depth: 1
               sample_count: 46358
               value: -0.9867552525993226
               norm_class_idx: 0
               Tn: 0
               complexity: 0
               alpha: 0.
               node_risk: 5.6551847867745847e+07
               tree_risk: 0.
               tree_error: 0.
               splits:
                  - { var:0, quality:9.7002650075136000e+13,
                      le:0.9592331647872925 }
            -
               depth: 2
               sample_count: 46357
               value: -0.9867549668874042
               norm_class_idx: 0
               Tn: 0
               complexity: 0
               alpha: 0.
               node_risk: 5.6551839735120267e+07
               tree_risk: 0.
               tree_error: 0.
            -
               depth: 2
               sample_count: 1
               value: -1.
               norm_class_idx: 0
               Tn: 0
               complexity: 0
               alpha: 0.
               node_risk: 0.
               tree_risk: 0.
               tree_error: 0.
            -
               depth: 1
               sample_count: 1
               value: -1.
               norm_class_idx: 0
               Tn: 0
               complexity: 0
               alpha: 0.
               node_risk: 0.
               tree_risk: 0.
               tree_error: 0.
      -
         best_tree_idx: -1
         nodes:
            -
               depth: 0
               sample_count: 46357
               value: -0.9084468513607555
               norm_class_idx: 0
               Tn: 0
               complexity: 0
               alpha: 0.
               node_risk: 3.7549292751558900e+08
               tree_risk: 0.
               tree_error: 0.
               splits:
                  - { var:0, quality:8.5587096764416000e+13,
                      le:0.9551804065704346 }
            -
               depth: 1
               sample_count: 46356
               value: -0.9084449542061531
               norm_class_idx: 0
               Tn: 0
               complexity: 0
               alpha: 0.
               node_risk: 3.7549191570566070e+08
               tree_risk: 0.
               tree_error: 0.
               splits:
                  - { var:0, quality:8.5583045066752000e+13,
                      le:0.9523359537124634 }
            -
               depth: 2
               sample_count: 46355
               value: -0.9084430569729239
               norm_class_idx: 0
               Tn: 0
               complexity: 0
               alpha: 0.
               node_risk: 3.7549090385561073e+08
               tree_risk: 0.
               tree_error: 0.
            -
               depth: 2
               sample_count: 1
               value: -1.
               norm_class_idx: 0
               Tn: 0
               complexity: 0
               alpha: 0.
               node_risk: 0.
               tree_risk: 0.
               tree_error: 0.
            -
               depth: 1
               sample_count: 1
               value: -1.
               norm_class_idx: 0
               Tn: 0
               complexity: 0
               alpha: 0.
               node_risk: 0.
               tree_risk: 0.
               tree_error: 0.
      -
         best_tree_idx: -1
         nodes:
            -
               depth: 0
               sample_count: 46357
               value: -0.5442099619867252
               norm_class_idx: 0
               Tn: 0
               complexity: 0
               alpha: 0.
               node_risk: 1.5125681050182061e+09
               tree_risk: 0.
               tree_error: 0.
               splits:
                  - { var:0, quality:4.1597987192832000e+13,
                      le:0.9551804065704346 }
            -
               depth: 1
               sample_count: 46356
               value: -0.5442029883845541
               norm_class_idx: 0
               Tn: 0
               complexity: 0
               alpha: 0.
               node_risk: 1.5125423007605643e+09
               tree_risk: 0.
               tree_error: 0.
               splits:
                  - { var:0, quality:4.1595126677504000e+13,
                      le:0.9523359537124634 }
            -
               depth: 2
               sample_count: 46355
               value: -0.5441960145689867
               norm_class_idx: 0
               Tn: 0
               complexity: 0
               alpha: 0.
               node_risk: 1.5125164960036833e+09
               tree_risk: 0.
               tree_error: 0.
            -
               depth: 2
               sample_count: 1
               value: -1.
               norm_class_idx: 0
               Tn: 0
               complexity: 0
               alpha: 0.
               node_risk: 0.
               tree_risk: 0.
               tree_error: 0.
            -
               depth: 1
               sample_count: 1
               value: -1.
               norm_class_idx: 0
               Tn: 0
               complexity: 0
               alpha: 0.
               node_risk: 0.
               tree_risk: 0.
               tree_error: 0.
      -
         best_tree_idx: -1
         nodes:
            -
               depth: 0
               sample_count: 46357
               value: -0.0658191606438632
               norm_class_idx: 0
               Tn: 0
               complexity: 0
               alpha: 0.
               node_risk: 2.1396900275981874e+09
               tree_risk: 0.
               tree_error: 0.
               splits:
                  - { var:0, quality:1.3906131025920000e+12,
                      le:0.9551804065704346 }
            -
               depth: 1
               sample_count: 46356
               value: -0.0658129067590778
               norm_class_idx: 0
               Tn: 0
               complexity: 0
               alpha: 0.
               node_risk: 2.1396138076061943e+09
               tree_risk: 0.
               tree_error: 0.
               splits:
                  - { var:0, quality:1.3902888304640000e+12,
                      le:0.9523359537124634 }
            -
               depth: 2
               sample_count: 46355
               value: -0.0658066527905585
               norm_class_idx: 0
               Tn: 0
               complexity: 0
               alpha: 0.
               node_risk: 2.1395375882880185e+09
               tree_risk: 0.
               tree_error: 0.
            -
               depth: 2
               sample_count: 1
               value: -1.
               norm_class_idx: 0
               Tn: 0
               complexity: 0
               alpha: 0.
               node_risk: 0.
               tree_risk: 0.
               tree_error: 0.
            -
               depth: 1
               sample_count: 1
               value: -1.
               norm_class_idx: 0
               Tn: 0
               complexity: 0
               alpha: 0.
               node_risk: 0.
               tree_risk: 0.
               tree_error: 0.
      -
         best_tree_idx: -1
         nodes:
            -
               depth: 0
               sample_count: 46357
               value: -1.0017561452354938e-04
               norm_class_idx: 0
               Tn: 0
               complexity: 0
               alpha: 0.
               node_risk: 2.1489818957245350e+09
               tree_risk: 0.
               tree_error: 0.
               splits:
                  - { var:0, quality:8737167., le:0.9551804065704346 }
            -
               depth: 1
               sample_count: 46356
               value: -9.7707728116748377e-05
               norm_class_idx: 0
               Tn: 0
               complexity: 0
               alpha: 0.
               node_risk: 2.1488944870689616e+09
               tree_risk: 0.
               tree_error: 0.
               splits:
                  - { var:0, quality:8311621., le:0.9523359537124634 }
            -
               depth: 2
               sample_count: 46355
               value: -9.5239829527770314e-05
               norm_class_idx: 0
               Tn: 0
               complexity: 0
               alpha: 0.
               node_risk: 2.1488070799556737e+09
               tree_risk: 0.
               tree_error: 0.
            -
               depth: 2
               sample_count: 1
               value: -1.
               norm_class_idx: 0
               Tn: 0
               complexity: 0
               alpha: 0.
               node_risk: 0.
               tree_risk: 0.
               tree_error: 0.
            -
               depth: 1
               sample_count: 1
               value: -1.
               norm_class_idx: 0
               Tn: 0
               complexity: 0
               alpha: 0.
               node_risk: 0.
               tree_risk: 0.
               tree_error: 0.
      -
         best_tree_idx: -1
         nodes:
            -
               depth: 0
               sample_count: 46357
               value: -1.8159526536474982e-06
               norm_class_idx: 0
               Tn: 0
               complexity: 0
               alpha: 0.
               node_risk: 2.1489753000731702e+09
               tree_risk: 0.
               tree_error: 0.
               splits:
                  - { var:0, quality:7.8047109375000000e+03,
                      le:0.9551804065704346 }
            -
               depth: 1
               sample_count: 46356
               value: -9.0797725253020778e-07
               norm_class_idx: 0
               Tn: 0
               complexity: 0
               alpha: 0.
               node_risk: 2.1488845380484099e+09
               tree_risk: 0.
               tree_error: 0.
               splits:
                  - { var:0, quality:1.9511395263671875e+03,
                      le:0.9523359537124634 }
            -
               depth: 2
               sample_count: 46355
               value: -2.0256971391707245e-13
               norm_class_idx: 0
               Tn: 0
               complexity: 0
               alpha: 0.
               node_risk: 2.1487937778552952e+09
               tree_risk: 0.
               tree_error: 0.
            -
               depth: 2
               sample_count: 1
               value: -0.9999999999999999
               norm_class_idx: 0
               Tn: 0
               complexity: 0
               alpha: 0.
               node_risk: 1.2842894616100532e-10
               tree_risk: 0.
               tree_error: 0.
            -
               depth: 1
               sample_count: 1
               value: -0.9999999999999999
               norm_class_idx: 0
               Tn: 0
               complexity: 0
               alpha: 0.
               node_risk: 1.2842894616100532e-10
               tree_risk: 0.
               tree_error: 0.
      -
         best_tree_idx: -1
         nodes:
            -
               depth: 0
               sample_count: 46357
               value: -6.6805311213880315e-07
               norm_class_idx: 0
               Tn: 0
               complexity: 0
               alpha: 0.
               node_risk: 2.1489728657310948e+09
               tree_risk: 0.
               tree_error: 0.
               splits:
                  - { var:0, quality:2.8711931152343750e+03,
                      le:0.9551804065704346 }
            -
               depth: 1
               sample_count: 46356
               value: -3.3402705382488191e-07
               norm_class_idx: 0
               Tn: 0
               complexity: 0
               alpha: 0.
               node_risk: 2.1488808704531384e+09
               tree_risk: 0.
               tree_error: 0.
               splits:
                  - { var:0, quality:717.7849731445312500,
                      le:0.9523359537124634 }
            -
               depth: 2
               sample_count: 46355
               value: -7.7236392187039779e-13
               norm_class_idx: 0
               Tn: 0
               complexity: 0
               alpha: 0.
               node_risk: 2.1487888771132483e+09
               tree_risk: 0.
               tree_error: 0.
            -
               depth: 2
               sample_count: 1
               value: -1.
               norm_class_idx: 0
               Tn: 0
               complexity: 0
               alpha: 0.
               node_risk: 0.
               tree_risk: 0.
               tree_error: 0.
            -
               depth: 1
               sample_count: 1
               value: -1.
               norm_class_idx: 0
               Tn: 0
               complexity: 0
               alpha: 0.
               node_risk: 0.
               tree_risk: 0.
               tree_error: 0.
      -
         best_tree_idx: -1
         nodes:
            -
               depth: 0
               sample_count: 46357
               value: -2.4576292513900681e-07
               norm_class_idx: 0
               Tn: 0
               complexity: 0
               alpha: 0.
               node_risk: 2.1489719701886148e+09
               tree_risk: 0.
               tree_error: 0.
               splits:
                  - { var:0, quality:1.0562484130859375e+03,
                      le:0.9551804065704346 }
            -
               depth: 1
               sample_count: 46356
               value: -1.2288152764514183e-07
               norm_class_idx: 0
               Tn: 0
               complexity: 0
               alpha: 0.
               node_risk: 2.1488795212235789e+09
               tree_risk: 0.
               tree_error: 0.
               splits:
                  - { var:0, quality:264.0567016601562500,
                      le:0.9523359537124634 }
            -
               depth: 2
               sample_count: 46355
               value: -9.9951589989892430e-14
               norm_class_idx: 0
               Tn: 0
               complexity: 0
               alpha: 0.
               node_risk: 2.1487870742357569e+09
               tree_risk: 0.
               tree_error: 0.
            -
               depth: 2
               sample_count: 1
               value: -1.
               norm_class_idx: 0
               Tn: 0
               complexity: 0
               alpha: 0.
               node_risk: 0.
               tree_risk: 0.
               tree_error: 0.
            -
               depth: 1
               sample_count: 1
               value: -1.
               norm_class_idx: 0
               Tn: 0
               complexity: 0
               alpha: 0.
               node_risk: 0.
               tree_risk: 0.
               tree_error: 0.
      -
         best_tree_idx: -1
         nodes:
            -
               depth: 0
               sample_count: 46357
               value: -9.0410789179617456e-08
               norm_class_idx: 0
               Tn: 0
               complexity: 0
               alpha: 0.
               node_risk: 2.1489716407409916e+09
               tree_risk: 0.
               tree_error: 0.
               splits:
                  - { var:0, quality:388.5808410644531250,
                      le:0.9551804065704346 }
            -
               depth: 1
               sample_count: 46356
               value: -4.5205238829517348e-08
               norm_class_idx: 0
               Tn: 0
               complexity: 0
               alpha: 0.
               node_risk: 2.1488790248739953e+09
               tree_risk: 0.
               tree_error: 0.
               splits:
                  - { var:0, quality:97.1424484252929688,
                      le:0.9523359537124634 }
            -
               depth: 2
               sample_count: 46355
               value: 3.1560766686324184e-13
               norm_class_idx: 0
               Tn: 0
               complexity: 0
               alpha: 0.
               node_risk: 2.1487864109986181e+09
               tree_risk: 0.
               tree_error: 0.
            -
               depth: 2
               sample_count: 1
               value: -1.
               norm_class_idx: 0
               Tn: 0
               complexity: 0
               alpha: 0.
               node_risk: 0.
               tree_risk: 0.
               tree_error: 0.
            -
               depth: 1
               sample_count: 1
               value: -1.
               norm_class_idx: 0
               Tn: 0
               complexity: 0
               alpha: 0.
               node_risk: 0.
               tree_risk: 0.
               tree_error: 0.
      -
         best_tree_idx: -1
         nodes:
            -
               depth: 0
               sample_count: 46357
               value: -3.3259808534856201e-08
               norm_class_idx: 0
               Tn: 0
               complexity: 0
               alpha: 0.
               node_risk: 2.1489715195319958e+09
               tree_risk: 0.
               tree_error: 0.
               splits:
                  - { var:0, quality:142.9443969726562500,
                      le:0.9551804065704346 }
            -
               depth: 1
               sample_count: 46356
               value: -1.6629614487963101e-08
               norm_class_idx: 0
               Tn: 0
               complexity: 0
               alpha: 0.
               node_risk: 2.1488788422652278e+09
               tree_risk: 0.
               tree_error: 0.
               splits:
                  - { var:0, quality:35.7340850830078125,
                      le:0.9523359537124634 }
            -
               depth: 2
               sample_count: 46355
               value: 5.8011205673434516e-13
               norm_class_idx: 0
               Tn: 0
               complexity: 0
               alpha: 0.
               node_risk: 2.1487861669953752e+09
               tree_risk: 0.
               tree_error: 0.
            -
               depth: 2
               sample_count: 1
               value: -1.
               norm_class_idx: 0
               Tn: 0
               complexity: 0
               alpha: 0.
               node_risk: 0.
               tree_risk: 0.
               tree_error: 0.
            -
               depth: 1
               sample_count: 1
               value: -1.
               norm_class_idx: 0
               Tn: 0
               complexity: 0
               alpha: 0.
               node_risk: 0.
               tree_risk: 0.
               tree_error: 0.
      -
         best_tree_idx: -1
         nodes:
            -
               depth: 0
               sample_count: 46357
               value: -1.2236230265292420e-08
               norm_class_idx: 0
               Tn: 0
               complexity: 0
               alpha: 0.
               node_risk: 2.1489714749520550e+09
               tree_risk: 0.
               tree_error: 0.
               splits:
                  - { var:0, quality:52.6047210693359375,
                      le:0.9551804065704346 }
            -
               depth: 1
               sample_count: 46356
               value: -6.1183236030942200e-09
               norm_class_idx: 0
               Tn: 0
               complexity: 0
               alpha: 0.
               node_risk: 2.1488787750975747e+09
               tree_risk: 0.
               tree_error: 0.
               splits:
                  - { var:0, quality:13.1517925262451172,
                      le:0.9523359537124634 }
            -
               depth: 2
               sample_count: 46355
               value: -4.1686603845807887e-13
               norm_class_idx: 0
               Tn: 0
               complexity: 0
               alpha: 0.
               node_risk: 2.1487860772419615e+09
               tree_risk: 0.
               tree_error: 0.
            -
               depth: 2
               sample_count: 1
               value: -1.
               norm_class_idx: 0
               Tn: 0
               complexity: 0
               alpha: 0.
               node_risk: 0.
               tree_risk: 0.
               tree_error: 0.
            -
               depth: 1
               sample_count: 1
               value: -1.
               norm_class_idx: 0
               Tn: 0
               complexity: 0
               alpha: 0.
               node_risk: 0.
               tree_risk: 0.
               tree_error: 0.
      -
         best_tree_idx: -1
         nodes:
            -
               depth: 0
               sample_count: 46357
               value: -4.5010536142271407e-09
               norm_class_idx: 0
               Tn: 0
               complexity: 0
               alpha: 0.
               node_risk: 2.1489714585360303e+09
               tree_risk: 0.
               tree_error: 0.
               splits:
                  - { var:0, quality:19.3305778503417969,
                      le:0.9551804065704346 }
            -
               depth: 1
               sample_count: 46356
               value: -2.2504015001788804e-09
               norm_class_idx: 0
               Tn: 0
               complexity: 0
               alpha: 0.
               node_risk: 2.1488787503719974e+09
               tree_risk: 0.
               tree_error: 0.
               splits:
                  - { var:0, quality:4.8320021629333496,
                      le:0.9523359537124634 }
            -
               depth: 2
               sample_count: 46355
               value: 2.5062400024917138e-13
               norm_class_idx: 0
               Tn: 0
               complexity: 0
               alpha: 0.
               node_risk: 2.1487860442075462e+09
               tree_risk: 0.
               tree_error: 0.
            -
               depth: 2
               sample_count: 1
               value: -1.
               norm_class_idx: 0
               Tn: 0
               complexity: 0
               alpha: 0.
               node_risk: 0.
               tree_risk: 0.
               tree_error: 0.
            -
               depth: 1
               sample_count: 1
               value: -1.
               norm_class_idx: 0
               Tn: 0
               complexity: 0
               alpha: 0.
               node_risk: 0.
               tree_risk: 0.
               tree_error: 0.
      -
         best_tree_idx: -1
         nodes:
            -
               depth: 0
               sample_count: 46357
               value: -1.6559714427072058e-09
               norm_class_idx: 0
               Tn: 0
               complexity: 0
               alpha: 0.
               node_risk: 2.1489714525168467e+09
               tree_risk: 0.
               tree_error: 0.
               splits:
                  - { var:0, quality:7.1174364089965820,
                      le:0.9551804065704346 }
            -
               depth: 1
               sample_count: 46356
               value: -8.2800280394257451e-10
               norm_class_idx: 0
               Tn: 0
               complexity: 0
               alpha: 0.
               node_risk: 2.1488787412958999e+09
               tree_risk: 0.
               tree_error: 0.
               splits:
                  - { var:0, quality:1.7793942689895630,
                      le:0.9523359537124634 }
            -
               depth: 2
               sample_count: 46355
               value: -3.4163806878696182e-14
               norm_class_idx: 0
               Tn: 0
               complexity: 0
               alpha: 0.
               node_risk: 2.1487860320747986e+09
               tree_risk: 0.
               tree_error: 0.
            -
               depth: 2
               sample_count: 1
               value: -1.
               norm_class_idx: 0
               Tn: 0
               complexity: 0
               alpha: 0.
               node_risk: 0.
               tree_risk: 0.
               tree_error: 0.
            -
               depth: 1
               sample_count: 1
               value: -1.
               norm_class_idx: 0
               Tn: 0
               complexity: 0
               alpha: 0.
               node_risk: 0.
               tree_risk: 0.
               tree_error: 0.
      -
         best_tree_idx: -1
         nodes:
            -
               depth: 0
               sample_count: 46357
               value: -6.0900732609129300e-10
               norm_class_idx: 0
               Tn: 0
               complexity: 0
               alpha: 0.
               node_risk: 2.1489714502878985e+09
               tree_risk: 0.
               tree_error: 0.
               splits:
                  - { var:0, quality:2.6069011688232422,
                      le:0.9551804065704346 }
            -
               depth: 1
               sample_count: 46356
               value: -3.0441469710454338e-10
               norm_class_idx: 0
               Tn: 0
               complexity: 0
               alpha: 0.
               node_risk: 2.1488787379423752e+09
               tree_risk: 0.
               tree_error: 0.
               splits:
                  - { var:0, quality:0.6513305306434631,
                      le:0.9523359537124634 }
            -
               depth: 2
               sample_count: 46355
               value: 1.7793206775956281e-13
               norm_class_idx: 0
               Tn: 0
               complexity: 0
               alpha: 0.
               node_risk: 2.1487860275967965e+09
               tree_risk: 0.
               tree_error: 0.
            -
               depth: 2
               sample_count: 1
               value: -0.9999999999999999
               norm_class_idx: 0
               Tn: 0
               complexity: 0
               alpha: 0.
               node_risk: 5.5723905139015770e-07
               tree_risk: 0.
               tree_error: 0.
            -
               depth: 1
               sample_count: 1
               value: -0.9999999999999999
               norm_class_idx: 0
               Tn: 0
               complexity: 0
               alpha: 0.
               node_risk: 5.5723905139015770e-07
               tree_risk: 0.
               tree_error: 0.
      -
         best_tree_idx: -1
         nodes:
            -
               depth: 0
               sample_count: 46357
               value: -2.2475479387387431e-10
               norm_class_idx: 0
               Tn: 0
               complexity: 0
               alpha: 0.
               node_risk: 2.1489714494824061e+09
               tree_risk: 0.
               tree_error: 0.
               splits:
                  - { var:0, quality:0.9788661003112793,
                      le:0.9551804065704346 }
            -
               depth: 1
               sample_count: 46356
               value: -1.1270142727586385e-10
               norm_class_idx: 0
               Tn: 0
               complexity: 0
               alpha: 0.
               node_risk: 2.1488787367231755e+09
               tree_risk: 0.
               tree_error: 0.
               splits:
                  - { var:0, quality:0.2461244463920593,
                      le:0.9523359537124634 }
            -
               depth: 2
               sample_count: 46355
               value: -6.4806065274145117e-13
               norm_class_idx: 0
               Tn: 0
               complexity: 0
               alpha: 0.
               node_risk: 2.1487860259639220e+09
               tree_risk: 0.
               tree_error: 0.
            -
               depth: 2
               sample_count: 1
               value: -1.
               norm_class_idx: 0
               Tn: 0
               complexity: 0
               alpha: 0.
               node_risk: 0.
               tree_risk: 0.
               tree_error: 0.
            -
               depth: 1
               sample_count: 1
               value: -1.
               norm_class_idx: 0
               Tn: 0
               complexity: 0
               alpha: 0.
               node_risk: 0.
               tree_risk: 0.
               tree_error: 0.
      -
         best_tree_idx: -1
         nodes:
            -
               depth: 0
               sample_count: 46357
               value: -8.1794455516369477e-11
               norm_class_idx: 0
               Tn: 0
               complexity: 0
               alpha: 0.
               node_risk: 2.1489714491728873e+09
               tree_risk: 0.
               tree_error: 0.
               splits:
                  - { var:0, quality:0.3499587178230286,
                      le:0.9551804065704346 }
            -
               depth: 1
               sample_count: 46356
               value: -4.0572318699603366e-11
               norm_class_idx: 0
               Tn: 0
               complexity: 0
               alpha: 0.
               node_risk: 2.1488787362614613e+09
               tree_risk: 0.
               tree_error: 0.
               splits:
                  - { var:50, quality:0.2308478355407715,
                      le:0.1434338688850403 }
            -
               depth: 2
               sample_count: 25218
               value: 0.2777963716478238
               norm_class_idx: 0
               Tn: 0
               complexity: 0
               alpha: 0.
               node_risk: 7.8306045627635694e+08
               tree_risk: 0.
               tree_error: 0.
            -
               depth: 2
               sample_count: 21138
               value: -0.8309853110774738
               norm_class_idx: 0
               Tn: 0
               complexity: 0
               alpha: 0.
               node_risk: 5.5189514222982848e+08
               tree_risk: 0.
               tree_error: 0.
            -
               depth: 1
               sample_count: 1
               value: -0.9999999999999999
               norm_class_idx: 0
               Tn: 0
               complexity: 0
               alpha: 0.
               node_risk: 3.8030276585463680e-06
               tree_risk: 0.
               tree_error: 0.
      -
         best_tree_idx: -1
         nodes:
            -
               depth: 0
               sample_count: 46357
               value: -0.0528696712570814
               norm_class_idx: 0
               Tn: 0
               complexity: 0
               alpha: 0.
               node_risk: 2.1429646394857609e+09
               tree_risk: 0.
               tree_error: 0.
               splits:
                  - { var:0, quality:3.5074922578234573e+17,
                      le:0.9551804065704346 }
            -
               depth: 1
               sample_count: 46356
               value: -0.0528696712405437
               norm_class_idx: 0
               Tn: 0
               complexity: 0
               alpha: 0.
               node_risk: 2.1428721856785076e+09
               tree_risk: 0.
               tree_error: 0.
               splits:
                  - { var:0, quality:2.9529212702005658e+17,
                      le:0.9523359537124634 }
            -
               depth: 2
               sample_count: 46355
               value: -0.0528696712209608
               norm_class_idx: 0
               Tn: 0
               complexity: 0
               alpha: 0.
               node_risk: 2.1427797338732412e+09
               tree_risk: 0.
               tree_error: 0.
            -
               depth: 2
               sample_count: 1
               value: -1.
               norm_class_idx: 0
               Tn: 0
               complexity: 0
               alpha: 0.
               node_risk: 0.
               tree_risk: 0.
               tree_error: 0.
            -
               depth: 1
               sample_count: 1
               value: -1.
               norm_class_idx: 0
               Tn: 0
               complexity: 0
               alpha: 0.
               node_risk: 0.
               tree_risk: 0.
               tree_error: 0.
      -
         best_tree_idx: -1
         nodes:
            -
               depth: 0
               sample_count: 46357
               value: -4.9343267520410594e-05
               norm_class_idx: 0
               Tn: 0
               complexity: 0
               alpha: 0.
               node_risk: 2.1489714437952533e+09
               tree_risk: 0.
               tree_error: 0.
               splits:
                  - { var:0, quality:7.7480361984000000e+11,
                      le:0.9551804065704346 }
            -
               depth: 1
               sample_count: 46356
               value: -4.9343261088262323e-05
               norm_class_idx: 0
               Tn: 0
               complexity: 0
               alpha: 0.
               node_risk: 2.1488787308093014e+09
               tree_risk: 0.
               tree_error: 0.
               splits:
                  - { var:0, quality:6.5915348582400000e+11,
                      le:0.9523359537124634 }
            -
               depth: 2
               sample_count: 46355
               value: -4.9343253471675552e-05
               norm_class_idx: 0
               Tn: 0
               complexity: 0
               alpha: 0.
               node_risk: 2.1487860198258948e+09
               tree_risk: 0.
               tree_error: 0.
            -
               depth: 2
               sample_count: 1
               value: -1.
               norm_class_idx: 0
               Tn: 0
               complexity: 0
               alpha: 0.
               node_risk: 0.
               tree_risk: 0.
               tree_error: 0.
            -
               depth: 1
               sample_count: 1
               value: -1.
               norm_class_idx: 0
               Tn: 0
               complexity: 0
               alpha: 0.
               node_risk: 0.
               tree_risk: 0.
               tree_error: 0.
      -
         best_tree_idx: -1
         nodes:
            -
               depth: 0
               sample_count: 46357
               value: -5.2551330258109542e-12
               norm_class_idx: 0
               Tn: 0
               complexity: 0
               alpha: 0.
               node_risk: 2.1489714490096116e+09
               tree_risk: 0.
               tree_error: 0.
               splits:
                  - { var:43, quality:0.2705009877681732,
                      le:0.0239621214568615 }
            -
               depth: 1
               sample_count: 20747
               value: -0.8467148157238279
               norm_class_idx: 0
               Tn: 0
               complexity: 0
               alpha: 0.
               node_risk: 4.4478136462699282e+08
               tree_risk: 0.
               tree_error: 0.
               splits:
                  - { var:0, quality:5.9655631929344000e+13,
                      le:0.9415888786315918 }
            -
               depth: 2
               sample_count: 20746
               value: -0.8467119212717916
               norm_class_idx: 0
               Tn: 0
               complexity: 0
               alpha: 0.
               node_risk: 4.4475458784633523e+08
               tree_risk: 0.
               tree_error: 0.
            -
               depth: 2
               sample_count: 1
               value: -1.
               norm_class_idx: 0
               Tn: 0
               complexity: 0
               alpha: 0.
               node_risk: 0.
               tree_risk: 0.
               tree_error: 0.
            -
               depth: 1
               sample_count: 25610
               value: 0.3194713630185608
               norm_class_idx: 0
               Tn: 0
               complexity: 0
               alpha: 0.
               node_risk: 8.1114082868716800e+08
               tree_risk: 0.
               tree_error: 0.
               splits:
                  - { var:0, quality:3.9412570441723675e+19,
                      le:0.9551804065704346 }
            -
               depth: 2
               sample_count: 25609
               value: 0.3194713630228612
               norm_class_idx: 0
               Tn: 0
               complexity: 0
               alpha: 0.
               node_risk: 8.1107748429121220e+08
               tree_risk: 0.
               tree_error: 0.
            -
               depth: 2
               sample_count: 1
               value: -1.
               norm_class_idx: 0
               Tn: 0
               complexity: 0
               alpha: 0.
               node_risk: 0.
               tree_risk: 0.
               tree_error: 0.
      -
         best_tree_idx: -1
         nodes:
            -
               depth: 0
               sample_count: 46357
               value: -0.0609548928825416
               norm_class_idx: 0
               Tn: 0
               complexity: 0
               alpha: 0.
               node_risk: 2.1409869478108337e+09
               tree_risk: 0.
               tree_error: 0.
               splits:
                  - { var:0, quality:3.9821909824651657e+19,
                      le:0.9551804065704346 }
            -
               depth: 1
               sample_count: 46356
               value: -0.0609548928815747
               norm_class_idx: 0
               Tn: 0
               complexity: 0
               alpha: 0.
               node_risk: 2.1408945792883465e+09
               tree_risk: 0.
               tree_error: 0.
               splits:
                  - { var:0, quality:2.1389610584952013e+18,
                      le:0.9523359537124634 }
            -
               depth: 2
               sample_count: 46355
               value: -0.0609548928772910
               norm_class_idx: 0
               Tn: 0
               complexity: 0
               alpha: 0.
               node_risk: 2.1408022127668588e+09
               tree_risk: 0.
               tree_error: 0.
            -
               depth: 2
               sample_count: 1
               value: -1.
               norm_class_idx: 0
               Tn: 0
               complexity: 0
               alpha: 0.
               node_risk: 0.
               tree_risk: 0.
               tree_error: 0.
            -
               depth: 1
               sample_count: 1
               value: -0.9999999999999999
               norm_class_idx: 0
               Tn: 0
               complexity: 0
               alpha: 0.
               node_risk: 1.9048968410903758e-04
               tree_risk: 0.
               tree_error: 0.
      -
         best_tree_idx: -1
         nodes:
            -
               depth: 0
               sample_count: 46357
               value: -7.5661359182575439e-05
               norm_class_idx: 0
               Tn: 0
               complexity: 0
               alpha: 0.
               node_risk: 2.1489714366960979e+09
               tree_risk: 0.
               tree_error: 0.
               splits:
                  - { var:0, quality:1.1712632717312000e+13,
                      le:0.9551804065704346 }
            -
               depth: 1
               sample_count: 46356
               value: -7.5661358803129927e-05
               norm_class_idx: 0
               Tn: 0
               complexity: 0
               alpha: 0.
               node_risk: 2.1488787236974449e+09
               tree_risk: 0.
               tree_error: 0.
               splits:
                  - { var:0, quality:5.2298393845760000e+12,
                      le:0.9523359537124634 }
            -
               depth: 2
               sample_count: 46355
               value: -7.5661357121990894e-05
               norm_class_idx: 0
               Tn: 0
               complexity: 0
               alpha: 0.
               node_risk: 2.1487860127015886e+09
               tree_risk: 0.
               tree_error: 0.
            -
               depth: 2
               sample_count: 1
               value: -1.
               norm_class_idx: 0
               Tn: 0
               complexity: 0
               alpha: 0.
               node_risk: 0.
               tree_risk: 0.
               tree_error: 0.
            -
               depth: 1
               sample_count: 1
               value: -1.
               norm_class_idx: 0
               Tn: 0
               complexity: 0
               alpha: 0.
               node_risk: 0.
               tree_risk: 0.
               tree_error: 0.
      -
         best_tree_idx: -1
         nodes:
            -
               depth: 0
               sample_count: 46357
               value: -8.2870748430855673e-13
               norm_class_idx: 0
               Tn: 0
               complexity: 0
               alpha: 0.
               node_risk: 2.1489714490010715e+09
               tree_risk: 0.
               tree_error: 0.
               splits:
                  - { var:21, quality:0.2375045865774155,
                      le:0.0242982134222984 }
            -
               depth: 1
               sample_count: 22081
               value: 0.3197720388237058
               norm_class_idx: 0
               Tn: 0
               complexity: 0
               alpha: 0.
               node_risk: 6.2616609399987566e+08
               tree_risk: 0.
               tree_error: 0.
               splits:
                  - { var:0, quality:5.2622904461898862e+20,
                      le:0.9551804065704346 }
            -
               depth: 2
               sample_count: 22080
               value: 0.3197720388239693
               norm_class_idx: 0
               Tn: 0
               complexity: 0
               alpha: 0.
               node_risk: 6.2610937990947449e+08
               tree_risk: 0.
               tree_error: 0.
            -
               depth: 2
               sample_count: 1
               value: -1.
               norm_class_idx: 0
               Tn: 0
               complexity: 0
               alpha: 0.
               node_risk: 0.
               tree_risk: 0.
               tree_error: 0.
            -
               depth: 1
               sample_count: 24276
               value: -0.7427307779162058
               norm_class_idx: 0
               Tn: 0
               complexity: 0
               alpha: 0.
               node_risk: 8.7793425855373299e+08
               tree_risk: 0.
               tree_error: 0.
               splits:
                  - { var:2, quality:1.3146469590630400e+14,
                      le:0.8722206354141235 }
            -
               depth: 2
               sample_count: 24275
               value: -0.7427286640466639
               norm_class_idx: 0
               Tn: 0
               complexity: 0
               alpha: 0.
               node_risk: 8.7787529189125454e+08
               tree_risk: 0.
               tree_error: 0.
            -
               depth: 2
               sample_count: 1
               value: -1.
               norm_class_idx: 0
               Tn: 0
               complexity: 0
               alpha: 0.
               node_risk: 0.
               tree_risk: 0.
               tree_error: 0.
      -
         best_tree_idx: -1
         nodes:
            -
               depth: 0
               sample_count: 46357
               value: -0.0411266166757963
               norm_class_idx: 0
               Tn: 0
               complexity: 0
               alpha: 0.
               node_risk: 2.1453366817033131e+09
               tree_risk: 0.
               tree_error: 0.
               splits:
                  - { var:0, quality:5.3203938302964531e+18,
                      le:0.9523359537124634 }
            -
               depth: 1
               sample_count: 46355
               value: -0.0411266166747994
               norm_class_idx: 0
               Tn: 0
               complexity: 0
               alpha: 0.
               node_risk: 2.1451515713316135e+09
               tree_risk: 0.
               tree_error: 0.
               splits:
                  - { var:3, quality:2.6826768384000000e+12,
                      le:0.9825143218040466 }
            -
               depth: 2
               sample_count: 46354
               value: -0.0411253176603830
               norm_class_idx: 0
               Tn: 0
               complexity: 0
               alpha: 0.
               node_risk: 2.1450621546955783e+09
               tree_risk: 0.
               tree_error: 0.
            -
               depth: 2
               sample_count: 1
               value: -1.
               norm_class_idx: 0
               Tn: 0
               complexity: 0
               alpha: 0.
               node_risk: 0.
               tree_risk: 0.
               tree_error: 0.
            -
               depth: 1
               sample_count: 2
               value: -1.
               norm_class_idx: 0
               Tn: 0
               complexity: 0
               alpha: 0.
               node_risk: 0.
               tree_risk: 0.
               tree_error: 0.
      -
         best_tree_idx: -1
         nodes:
            -
               depth: 0
               sample_count: 46357
               value: -2.3707314045279346e-05
               norm_class_idx: 0
               Tn: 0
               complexity: 0
               alpha: 0.
               node_risk: 2.1489714477946100e+09
               tree_risk: 0.
               tree_error: 0.
               splits:
                  - { var:3, quality:2.4213177500000000e+06,
                      le:0.9825143218040466 }
            -
               depth: 1
               sample_count: 46356
               value: -2.3208526616124946e-05
               norm_class_idx: 0
               Tn: 0
               complexity: 0
               alpha: 0.
               node_risk: 2.1488798067040586e+09
               tree_risk: 0.
               tree_error: 0.
               splits:
                  - { var:27, quality:8.8946731250000000e+05,
                      le:0.9777733683586121 }
            -
               depth: 2
               sample_count: 46355
               value: -2.1907308009914569e-05
               norm_class_idx: 0
               Tn: 0
               complexity: 0
               alpha: 0.
               node_risk: 2.1487898918906531e+09
               tree_risk: 0.
               tree_error: 0.
            -
               depth: 2
               sample_count: 1
               value: -1.
               norm_class_idx: 0
               Tn: 0
               complexity: 0
               alpha: 0.
               node_risk: 0.
               tree_risk: 0.
               tree_error: 0.
            -
               depth: 1
               sample_count: 1
               value: -1.
               norm_class_idx: 0
               Tn: 0
               complexity: 0
               alpha: 0.
               node_risk: 0.
               tree_risk: 0.
               tree_error: 0.
      -
         best_tree_idx: -1
         nodes:
            -
               depth: 0
               sample_count: 46357
               value: -6.6220053921289404e-07
               norm_class_idx: 0
               Tn: 0
               complexity: 0
               alpha: 0.
               node_risk: 2.1489714490016918e+09
               tree_risk: 0.
               tree_error: 0.
               splits:
                  - { var:0, quality:1.5432231936000000e+10,
                      le:0.9523359537124634 }
            -
               depth: 1
               sample_count: 46355
               value: -6.6220015646375977e-07
               norm_class_idx: 0
               Tn: 0
               complexity: 0
               alpha: 0.
               node_risk: 2.1487860250025144e+09
               tree_risk: 0.
               tree_error: 0.
               splits:
                  - { var:4, quality:5.1348491210937500e+03,
                      le:0.9804409146308899 }
            -
               depth: 2
               sample_count: 46354
               value: -4.7870213604060992e-07
               norm_class_idx: 0
               Tn: 0
               complexity: 0
               alpha: 0.
               node_risk: 2.1486937102841945e+09
               tree_risk: 0.
               tree_error: 0.
            -
               depth: 2
               sample_count: 1
               value: -1.
               norm_class_idx: 0
               Tn: 0
               complexity: 0
               alpha: 0.
               node_risk: 0.
               tree_risk: 0.
               tree_error: 0.
            -
               depth: 1
               sample_count: 2
               value: -1.
               norm_class_idx: 0
               Tn: 0
               complexity: 0
               alpha: 0.
               node_risk: 0.
               tree_risk: 0.
               tree_error: 0.
      -
         best_tree_idx: -1
         nodes:
            -
               depth: 0
               sample_count: 46357
               value: -6.7505235204014979e-08
               norm_class_idx: 0
               Tn: 0
               complexity: 0
               alpha: 0.
               node_risk: 2.1489714489962711e+09
               tree_risk: 0.
               tree_error: 0.
               splits:
                  - { var:0, quality:24448358., le:0.9551804065704346 }
            -
               depth: 1
               sample_count: 46356
               value: -6.7505227210409745e-08
               norm_class_idx: 0
               Tn: 0
               complexity: 0
               alpha: 0.
               node_risk: 2.1488787359962888e+09
               tree_risk: 0.
               tree_error: 0.
               splits:
                  - { var:0, quality:18639160., le:0.9523359537124634 }
            -
               depth: 2
               sample_count: 46355
               value: -6.7505094427744960e-08
               norm_class_idx: 0
               Tn: 0
               complexity: 0
               alpha: 0.
               node_risk: 2.1487860249965744e+09
               tree_risk: 0.
               tree_error: 0.
            -
               depth: 2
               sample_count: 1
               value: -1.
               norm_class_idx: 0
               Tn: 0
               complexity: 0
               alpha: 0.
               node_risk: 0.
               tree_risk: 0.
               tree_error: 0.
            -
               depth: 1
               sample_count: 1
               value: -1.
               norm_class_idx: 0
               Tn: 0
               complexity: 0
               alpha: 0.
               node_risk: 0.
               tree_risk: 0.
               tree_error: 0.
      -
         best_tree_idx: -1
         nodes:
            -
               depth: 0
               sample_count: 46357
               value: 2.6183235131905176e-14
               norm_class_idx: 0
               Tn: 0
               complexity: 0
               alpha: 0.
               node_risk: 2.1489714490000691e+09
               tree_risk: 0.
               tree_error: 0.
               splits:
                  - { var:35, quality:0.1674443036317825,
                      le:0.0431493632495403 }
            -
               depth: 1
               sample_count: 24640
               value: 0.2708161319137877
               norm_class_idx: 0
               Tn: 0
               complexity: 0
               alpha: 0.
               node_risk: 8.0902409041775429e+08
               tree_risk: 0.
               tree_error: 0.
               splits:
                  - { var:27, quality:9.3012357021696000e+13,
                      le:0.9777733683586121 }
            -
               depth: 2
               sample_count: 24639
               value: 0.2708170067136009
               norm_class_idx: 0
               Tn: 0
               complexity: 0
               alpha: 0.
               node_risk: 8.0895856744016206e+08
               tree_risk: 0.
               tree_error: 0.
            -
               depth: 2
               sample_count: 1
               value: -1.
               norm_class_idx: 0
               Tn: 0
               complexity: 0
               alpha: 0.
               node_risk: 0.
               tree_risk: 0.
               tree_error: 0.
            -
               depth: 1
               sample_count: 21717
               value: -0.6182951761618374
               norm_class_idx: 0
               Tn: 0
               complexity: 0
               alpha: 0.
               node_risk: 9.5645965118233287e+08
               tree_risk: 0.
               tree_error: 0.
               splits:
                  - { var:0, quality:5.1030681442702485e+21,
                      le:0.9551804065704346 }
            -
               depth: 2
               sample_count: 21716
               value: -0.6182951761618337
               norm_class_idx: 0
               Tn: 0
               complexity: 0
               alpha: 0.
               node_risk: 9.5637156925296700e+08
               tree_risk: 0.
               tree_error: 0.
            -
               depth: 2
               sample_count: 1
               value: -0.9999999999999999
               norm_class_idx: 0
               Tn: 0
               complexity: 0
               alpha: 0.
               node_risk: 0.0454323189949388
               tree_risk: 0.
               tree_error: 0.
      -
         best_tree_idx: -1
         nodes:
            -
               depth: 0
               sample_count: 46358
               value: -0.0222945307177067
               norm_class_idx: 0
               Tn: 0
               complexity: 0
               alpha: 0.
               node_risk: 2.1479959800378199e+09
               tree_risk: 0.
               tree_error: 0.
               splits:
                  - { var:0, quality:3.4906748151597629e+18,
                      le:0.9638160467147827 }
            -
               depth: 1
               sample_count: 46357
               value: -0.0222945307177027
               norm_class_idx: 0
               Tn: 0
               complexity: 0
               alpha: 0.
               node_risk: 2.1479033111214590e+09
               tree_risk: 0.
               tree_error: 0.
               splits:
                  - { var:0, quality:3.5254083874812068e+18,
                      le:0.9551804065704346 }
            -
               depth: 2
               sample_count: 46356
               value: -0.0222945307177015
               norm_class_idx: 0
               Tn: 0
               complexity: 0
               alpha: 0.
               node_risk: 2.1478106442040968e+09
               tree_risk: 0.
               tree_error: 0.
            -
               depth: 2
               sample_count: 1
               value: -1.
               norm_class_idx: 0
               Tn: 0
               complexity: 0
               alpha: 0.
               node_risk: 0.
               tree_risk: 0.
               tree_error: 0.
            -
               depth: 1
               sample_count: 1
               value: -1.
               norm_class_idx: 0
               Tn: 0
               complexity: 0
               alpha: 0.
               node_risk: 0.
               tree_risk: 0.
               tree_error: 0.
      -
         best_tree_idx: -1
         nodes:
            -
               depth: 0
               sample_count: 46358
               value: -3.6949051608018472e-06
               norm_class_idx: 0
               Tn: 0
               complexity: 0
               alpha: 0.
               node_risk: 2.1490641639687123e+09
               tree_risk: 0.
               tree_error: 0.
               splits:
                  - { var:0, quality:6.9492899840000000e+10,
                      le:0.9638160467147827 }
            -
               depth: 1
               sample_count: 46357
               value: -3.6949051592475409e-06
               norm_class_idx: 0
               Tn: 0
               complexity: 0
               alpha: 0.
               node_risk: 2.1489714489687171e+09
               tree_risk: 0.
               tree_error: 0.
               splits:
                  - { var:0, quality:6.9674090496000000e+10,
                      le:0.9551804065704346 }
            -
               depth: 2
               sample_count: 46356
               value: -3.6949051588034534e-06
               norm_class_idx: 0
               Tn: 0
               complexity: 0
               alpha: 0.
               node_risk: 2.1488787359687190e+09
               tree_risk: 0.
               tree_error: 0.
            -
               depth: 2
               sample_count: 1
               value: -1.
               norm_class_idx: 0
               Tn: 0
               complexity: 0
               alpha: 0.
               node_risk: 0.
               tree_risk: 0.
               tree_error: 0.
            -
               depth: 1
               sample_count: 1
               value: -0.9999999999999999
               norm_class_idx: 0
               Tn: 0
               complexity: 0
               alpha: 0.
               node_risk: 0.0830204692991223
               tree_risk: 0.
               tree_error: 0.
      -
         best_tree_idx: -1
         nodes:
            -
               depth: 0
               sample_count: 46358
               value: -1.7447299674607049e-13
               norm_class_idx: 0
               Tn: 0
               complexity: 0
               alpha: 0.
               node_risk: 2.1490641639986124e+09
               tree_risk: 0.
               tree_error: 0.
               splits:
                  - { var:58, quality:0.1806968748569489,
                      le:20.5000000000000000 }
            -
               depth: 1
               sample_count: 12330
               value: -0.8805722746062954
               norm_class_idx: 0
               Tn: 0
               complexity: 0
               alpha: 0.
               node_risk: 1.8066582692433000e+08
               tree_risk: 0.
               tree_error: 0.
               splits:
                  - { var:0, quality:4.2867192171652616e+21,
                      le:0.9523359537124634 }
            -
               depth: 2
               sample_count: 12328
               value: -0.8805722746062771
               norm_class_idx: 0
               Tn: 0
               complexity: 0
               alpha: 0.
               node_risk: 1.8060722151501325e+08
               tree_risk: 0.
               tree_error: 0.
            -
               depth: 2
               sample_count: 2
               value: -1.
               norm_class_idx: 0
               Tn: 0
               complexity: 0
               alpha: 0.
               node_risk: 0.
               tree_risk: 0.
               tree_error: 0.
            -
               depth: 1
               sample_count: 34028
               value: 0.2052039157061268
               norm_class_idx: 0
               Tn: 0
               complexity: 0
               alpha: 0.
               node_risk: 1.3676167389664178e+09
               tree_risk: 0.
               tree_error: 0.
               splits:
                  - { var:0, quality:1.6361084865027768e+20,
                      le:0.9547072649002075 }
            -
               depth: 2
               sample_count: 34027
               value: 0.2052039157061271
               norm_class_idx: 0
               Tn: 0
               complexity: 0
               alpha: 0.
               node_risk: 1.3675363583008773e+09
               tree_risk: 0.
               tree_error: 0.
            -
               depth: 2
               sample_count: 1
               value: -1.
               norm_class_idx: 0
               Tn: 0
               complexity: 0
               alpha: 0.
               node_risk: 0.
               tree_risk: 0.
               tree_error: 0.
      -
         best_tree_idx: -1
         nodes:
            -
               depth: 0
               sample_count: 46358
               value: -0.0492914287160667
               norm_class_idx: 0
               Tn: 0
               complexity: 0
               alpha: 0.
               node_risk: 2.1438427011183696e+09
               tree_risk: 0.
               tree_error: 0.
               splits:
                  - { var:0, quality:3.6026636698517714e+20,
                      le:0.9638160467147827 }
            -
               depth: 1
               sample_count: 46357
               value: -0.0492914287160665
               norm_class_idx: 0
               Tn: 0
               complexity: 0
               alpha: 0.
               node_risk: 2.1437502113829014e+09
               tree_risk: 0.
               tree_error: 0.
               splits:
                  - { var:0, quality:3.6416440838452675e+20,
                      le:0.9551804065704346 }
            -
               depth: 2
               sample_count: 46356
               value: -0.0492914287160664
               norm_class_idx: 0
               Tn: 0
               complexity: 0
               alpha: 0.
               node_risk: 2.1436577236425741e+09
               tree_risk: 0.
               tree_error: 0.
            -
               depth: 2
               sample_count: 1
               value: -1.
               norm_class_idx: 0
               Tn: 0
               complexity: 0
               alpha: 0.
               node_risk: 0.
               tree_risk: 0.
               tree_error: 0.
            -
               depth: 1
               sample_count: 1
               value: -1.
               norm_class_idx: 0
               Tn: 0
               complexity: 0
               alpha: 0.
               node_risk: 0.
               tree_risk: 0.
               tree_error: 0.
      -
         best_tree_idx: -1
         nodes:
            -
               depth: 0
               sample_count: 46358
               value: -3.9978519953604765e-05
               norm_class_idx: 0
               Tn: 0
               complexity: 0
               alpha: 0.
               node_risk: 2.1490641605662012e+09
               tree_risk: 0.
               tree_error: 0.
               splits:
                  - { var:4, quality:198935792., le:0.9804409146308899 }
            -
               depth: 1
               sample_count: 46357
               value: -3.9961255037504068e-05
               norm_class_idx: 0
               Tn: 0
               complexity: 0
               alpha: 0.
               node_risk: 2.1489714826726093e+09
               tree_risk: 0.
               tree_error: 0.
               splits:
                  - { var:27, quality:13861387., le:0.9777733683586121 }
            -
               depth: 2
               sample_count: 46356
               value: -3.9713702629853230e-05
               norm_class_idx: 0
               Tn: 0
               complexity: 0
               alpha: 0.
               node_risk: 2.1488793016949129e+09
               tree_risk: 0.
               tree_error: 0.
            -
               depth: 2
               sample_count: 1
               value: -1.
               norm_class_idx: 0
               Tn: 0
               complexity: 0
               alpha: 0.
               node_risk: 0.
               tree_risk: 0.
               tree_error: 0.
            -
               depth: 1
               sample_count: 1
               value: -1.
               norm_class_idx: 0
               Tn: 0
               complexity: 0
               alpha: 0.
               node_risk: 0.
               tree_risk: 0.
               tree_error: 0.
      -
         best_tree_idx: -1
         nodes:
            -
               depth: 0
               sample_count: 46358
               value: -9.7424488643649586e-08
               norm_class_idx: 0
               Tn: 0
               complexity: 0
               alpha: 0.
               node_risk: 2.1490641639980979e+09
               tree_risk: 0.
               tree_error: 0.
               splits:
                  - { var:0, quality:57953312., le:0.9638160467147827 }
            -
               depth: 1
               sample_count: 46357
               value: -9.7424488532627284e-08
               norm_class_idx: 0
               Tn: 0
               complexity: 0
               alpha: 0.
               node_risk: 2.1489714489980979e+09
               tree_risk: 0.
               tree_error: 0.
               splits:
                  - { var:0, quality:57946788., le:0.9551804065704346 }
            -
               depth: 2
               sample_count: 46356
               value: -9.7424488532627284e-08
               norm_class_idx: 0
               Tn: 0
               complexity: 0
               alpha: 0.
               node_risk: 2.1488787359980979e+09
               tree_risk: 0.
               tree_error: 0.
            -
               depth: 2
               sample_count: 1
               value: -1.
               norm_class_idx: 0
               Tn: 0
               complexity: 0
               alpha: 0.
               node_risk: 0.
               tree_risk: 0.
               tree_error: 0.
            -
               depth: 1
               sample_count: 1
               value: -1.
               norm_class_idx: 0
               Tn: 0
               complexity: 0
               alpha: 0.
               node_risk: 0.
               tree_risk: 0.
               tree_error: 0.
      -
         best_tree_idx: -1
         nodes:
            -
               depth: 0
               sample_count: 46358
               value: -1.7883398822676050e-13
               norm_class_idx: 0
               Tn: 0
               complexity: 0
               alpha: 0.
               node_risk: 2.1490641639998946e+09
               tree_risk: 0.
               tree_error: 0.
               splits:
                  - { var:53, quality:0.1519075781106949,
                      le:0.4753665924072266 }
            -
               depth: 1
               sample_count: 20750
               value: 0.3194981507192144
               norm_class_idx: 0
               Tn: 0
               complexity: 0
               alpha: 0.
               node_risk: 6.4640654902940583e+08
               tree_risk: 0.
               tree_error: 0.
               splits:
                  - { var:4, quality:6.9193474695495680e+15,
                      le:0.9765677452087402 }
            -
               depth: 2
               sample_count: 20749
               value: 0.3194981647321014
               norm_class_idx: 0
               Tn: 0
               complexity: 0
               alpha: 0.
               node_risk: 6.4634424670368123e+08
               tree_risk: 0.
               tree_error: 0.
            -
               depth: 2
               sample_count: 1
               value: -1.
               norm_class_idx: 0
               Tn: 0
               complexity: 0
               alpha: 0.
               node_risk: 0.
               tree_risk: 0.
               tree_error: 0.
            -
               depth: 1
               sample_count: 25608
               value: -0.4754568140965058
               norm_class_idx: 0
               Tn: 0
               complexity: 0
               alpha: 0.
               node_risk: 1.2627961572747512e+09
               tree_risk: 0.
               tree_error: 0.
               splits:
                  - { var:27, quality:1.6276836203888640e+15,
                      le:0.9745455980300903 }
            -
               depth: 2
               sample_count: 25607
               value: -0.4754566952338393
               norm_class_idx: 0
               Tn: 0
               complexity: 0
               alpha: 0.
               node_risk: 1.2626980046084146e+09
               tree_risk: 0.
               tree_error: 0.
            -
               depth: 2
               sample_count: 1
               value: -1.
               norm_class_idx: 0
               Tn: 0
               complexity: 0
               alpha: 0.
               node_risk: 0.
               tree_risk: 0.
               tree_error: 0.
      -
         best_tree_idx: -1
         nodes:
            -
               depth: 0
               sample_count: 46358
               value: -8.8617137588199914e-03
               norm_class_idx: 0
               Tn: 0
               complexity: 0
               alpha: 0.
               node_risk: 2.1488953980550194e+09
               tree_risk: 0.
               tree_error: 0.
               splits:
                  - { var:0, quality:6.9683314126466580e+18,
                      le:0.9638160467147827 }
            -
               depth: 1
               sample_count: 46357
               value: -8.8617137588199359e-03
               norm_class_idx: 0
               Tn: 0
               complexity: 0
               alpha: 0.
               node_risk: 2.1488026903359256e+09
               tree_risk: 0.
               tree_error: 0.
               splits:
                  - { var:0, quality:6.9641686616238981e+18,
                      le:0.9551804065704346 }
            -
               depth: 2
               sample_count: 46356
               value: -8.8617137588199359e-03
               norm_class_idx: 0
               Tn: 0
               complexity: 0
               alpha: 0.
               node_risk: 2.1487099846166749e+09
               tree_risk: 0.
               tree_error: 0.
            -
               depth: 2
               sample_count: 1
               value: -1.
               norm_class_idx: 0
               Tn: 0
               complexity: 0
               alpha: 0.
               node_risk: 0.
               tree_risk: 0.
               tree_error: 0.
            -
               depth: 1
               sample_count: 1
               value: -1.
               norm_class_idx: 0
               Tn: 0
               complexity: 0
               alpha: 0.
               node_risk: 0.
               tree_risk: 0.
               tree_error: 0.
      -
         best_tree_idx: -1
         nodes:
            -
               depth: 0
               sample_count: 46358
               value: -2.3198099740864083e-07
               norm_class_idx: 0
               Tn: 0
               complexity: 0
               alpha: 0.
               node_risk: 2.1490641639998126e+09
               tree_risk: 0.
               tree_error: 0.
               splits:
                  - { var:4, quality:4.5971046875000000e+04,
                      le:0.9804409146308899 }
            -
               depth: 1
               sample_count: 46357
               value: -2.2946528742937040e-07
               norm_class_idx: 0
               Tn: 0
               complexity: 0
               alpha: 0.
               node_risk: 2.1489714544060059e+09
               tree_risk: 0.
               tree_error: 0.
               splits:
                  - { var:27, quality:3.1367937011718750e+03,
                      le:0.9777733683586121 }
            -
               depth: 2
               sample_count: 46356
               value: -1.9339387429701534e-07
               norm_class_idx: 0
               Tn: 0
               complexity: 0
               alpha: 0.
               node_risk: 2.1488788189189153e+09
               tree_risk: 0.
               tree_error: 0.
            -
               depth: 2
               sample_count: 1
               value: -0.9999999999999999
               norm_class_idx: 0
               Tn: 0
               complexity: 0
               alpha: 0.
               node_risk: 5.0858536125159314e-09
               tree_risk: 0.
               tree_error: 0.
            -
               depth: 1
               sample_count: 1
               value: -1.
               norm_class_idx: 0
               Tn: 0
               complexity: 0
               alpha: 0.
               node_risk: 0.
               tree_risk: 0.
               tree_error: 0.
      -
         best_tree_idx: -1
         nodes:
            -
               depth: 0
               sample_count: 46358
               value: -1.4195523555735918e-08
               norm_class_idx: 0
               Tn: 0
               complexity: 0
               alpha: 0.
               node_risk: 2.1490641640008278e+09
               tree_risk: 0.
               tree_error: 0.
               splits:
                  - { var:3, quality:467.9274902343750000,
                      le:0.9825143218040466 }
            -
               depth: 1
               sample_count: 46357
               value: -1.3270045346180725e-08
               norm_class_idx: 0
               Tn: 0
               complexity: 0
               alpha: 0.
               node_risk: 2.1489714509896536e+09
               tree_risk: 0.
               tree_error: 0.
               splits:
                  - { var:27, quality:28.5172271728515625,
                      le:0.9777733683586121 }
            -
               depth: 2
               sample_count: 46356
               value: -1.1118237971534210e-13
               norm_class_idx: 0
               Tn: 0
               complexity: 0
               alpha: 0.
               node_risk: 2.1488787665050478e+09
               tree_risk: 0.
               tree_error: 0.
            -
               depth: 2
               sample_count: 1
               value: -1.
               norm_class_idx: 0
               Tn: 0
               complexity: 0
               alpha: 0.
               node_risk: 0.
               tree_risk: 0.
               tree_error: 0.
            -
               depth: 1
               sample_count: 1
               value: -1.
               norm_class_idx: 0
               Tn: 0
               complexity: 0
               alpha: 0.
               node_risk: 0.
               tree_risk: 0.
               tree_error: 0.
      -
         best_tree_idx: -1
         nodes:
            -
               depth: 0
               sample_count: 46358
               value: -5.2222234457134653e-09
               norm_class_idx: 0
               Tn: 0
               complexity: 0
               alpha: 0.
               node_risk: 2.1490641640004621e+09
               tree_risk: 0.
               tree_error: 0.
               splits:
                  - { var:4, quality:172.2293853759765625,
                      le:0.9804409146308899 }
            -
               depth: 1
               sample_count: 46357
               value: -4.8817590407081052e-09
               norm_class_idx: 0
               Tn: 0
               complexity: 0
               alpha: 0.
               node_risk: 2.1489714497321095e+09
               tree_risk: 0.
               tree_error: 0.
               splits:
                  - { var:27, quality:10.4912929534912109,
                      le:0.9777733683586121 }
            -
               depth: 2
               sample_count: 46356
               value: -2.3023617705702181e-14
               norm_class_idx: 0
               Tn: 0
               complexity: 0
               alpha: 0.
               node_risk: 2.1488787472223368e+09
               tree_risk: 0.
               tree_error: 0.
            -
               depth: 2
               sample_count: 1
               value: -0.9999999999999999
               norm_class_idx: 0
               Tn: 0
               complexity: 0
               alpha: 0.
               node_risk: 3.4709772506672045e-08
               tree_risk: 0.
               tree_error: 0.
            -
               depth: 1
               sample_count: 1
               value: -1.
               norm_class_idx: 0
               Tn: 0
               complexity: 0
               alpha: 0.
               node_risk: 0.
               tree_risk: 0.
               tree_error: 0.
      -
         best_tree_idx: -1
         nodes:
            -
               depth: 0
               sample_count: 46358
               value: -1.9209368190768210e-09
               norm_class_idx: 0
               Tn: 0
               complexity: 0
               alpha: 0.
               node_risk: 2.1490641639996710e+09
               tree_risk: 0.
               tree_error: 0.
               splits:
                  - { var:4, quality:63.2871360778808594,
                      le:0.9804409146308899 }
            -
               depth: 1
               sample_count: 46357
               value: -1.7956869532675116e-09
               norm_class_idx: 0
               Tn: 0
               complexity: 0
               alpha: 0.
               node_risk: 2.1489714492688293e+09
               tree_risk: 0.
               tree_error: 0.
               splits:
                  - { var:27, quality:3.8584115505218506,
                      le:0.9777733683586121 }
            -
               depth: 2
               sample_count: 46356
               value: 2.0337229762424260e-13
               norm_class_idx: 0
               Tn: 0
               complexity: 0
               alpha: 0.
               node_risk: 2.1488787401279683e+09
               tree_risk: 0.
               tree_error: 0.
            -
               depth: 2
               sample_count: 1
               value: -0.9999999999999999
               norm_class_idx: 0
               Tn: 0
               complexity: 0
               alpha: 0.
               node_risk: 6.4118113634888296e-08
               tree_risk: 0.
               tree_error: 0.
            -
               depth: 1
               sample_count: 1
               value: -1.
               norm_class_idx: 0
               Tn: 0
               complexity: 0
               alpha: 0.
               node_risk: 0.
               tree_risk: 0.
               tree_error: 0.
      -
         best_tree_idx: -1
         nodes:
            -
               depth: 0
               sample_count: 46358
               value: -7.0674847331624708e-10
               norm_class_idx: 0
               Tn: 0
               complexity: 0
               alpha: 0.
               node_risk: 2.1490641639999595e+09
               tree_risk: 0.
               tree_error: 0.
               splits:
                  - { var:0, quality:809775., le:0.9523359537124634 }
            -
               depth: 1
               sample_count: 46355
               value: -7.0673201425991859e-10
               norm_class_idx: 0
               Tn: 0
               complexity: 0
               alpha: 0.
               node_risk: 2.1487860249999948e+09
               tree_risk: 0.
               tree_error: 0.
               splits:
                  - { var:4, quality:23.2611370086669922,
                      le:0.9804409146308899 }
            -
               depth: 2
               sample_count: 46354
               value: -6.6065517749988341e-10
               norm_class_idx: 0
               Tn: 0
               complexity: 0
               alpha: 0.
               node_risk: 2.1486933160990005e+09
               tree_risk: 0.
               tree_error: 0.
            -
               depth: 2
               sample_count: 1
               value: -1.
               norm_class_idx: 0
               Tn: 0
               complexity: 0
               alpha: 0.
               node_risk: 0.
               tree_risk: 0.
               tree_error: 0.
            -
               depth: 1
               sample_count: 3
               value: -1.
               norm_class_idx: 0
               Tn: 0
               complexity: 0
               alpha: 0.
               node_risk: 0.
               tree_risk: 0.
               tree_error: 0.
      -
         best_tree_idx: -1
         nodes:
            -
               depth: 0
               sample_count: 46358
               value: -1.7116193389320127e-11
               norm_class_idx: 0
               Tn: 0
               complexity: 0
               alpha: 0.
               node_risk: 2.1490641640010734e+09
               tree_risk: 0.
               tree_error: 0.
               splits:
                  - { var:32, quality:0.1294450610876083,
                      le:0.0518156960606575 }
            -
               depth: 1
               sample_count: 25522
               value: 0.2290070855042111
               norm_class_idx: 0
               Tn: 0
               complexity: 0
               alpha: 0.
               node_risk: 8.6727480644964695e+08
               tree_risk: 0.
               tree_error: 0.
               splits:
                  - { var:3, quality:2.0100341117285827e+18,
                      le:0.9809982776641846 }
            -
               depth: 2
               sample_count: 25521
               value: 0.2290070855334840
               norm_class_idx: 0
               Tn: 0
               complexity: 0
               alpha: 0.
               node_risk: 8.6720684487071753e+08
               tree_risk: 0.
               tree_error: 0.
            -
               depth: 2
               sample_count: 1
               value: -1.
               norm_class_idx: 0
               Tn: 0
               complexity: 0
               alpha: 0.
               node_risk: 0.
               tree_risk: 0.
               tree_error: 0.
            -
               depth: 1
               sample_count: 20836
               value: -0.5652408741743465
               norm_class_idx: 0
               Tn: 0
               complexity: 0
               alpha: 0.
               node_risk: 1.0246269459921277e+09
               tree_risk: 0.
               tree_error: 0.
               splits:
                  - { var:0, quality:2.6365024729948072e+22,
                      le:0.9523359537124634 }
            -
               depth: 2
               sample_count: 20833
               value: -0.5652408741743374
               norm_class_idx: 0
               Tn: 0
               complexity: 0
               alpha: 0.
               node_risk: 1.0243319124399587e+09
               tree_risk: 0.
               tree_error: 0.
            -
               depth: 2
               sample_count: 3
               value: -1.
               norm_class_idx: 0
               Tn: 0
               complexity: 0
               alpha: 0.
               node_risk: 0.
               tree_risk: 0.
               tree_error: 0.
      -
         best_tree_idx: -1
         nodes:
            -
               depth: 0
               sample_count: 46358
               value: -0.0161644771912720
               norm_class_idx: 0
               Tn: 0
               complexity: 0
               alpha: 0.
               node_risk: 2.1485026343309503e+09
               tree_risk: 0.
               tree_error: 0.
               splits:
                  - { var:3, quality:8.6335396769693696e+16,
                      le:0.9825143218040466 }
            -
               depth: 1
               sample_count: 46357
               value: -0.0161644771846843
               norm_class_idx: 0
               Tn: 0
               complexity: 0
               alpha: 0.
               node_risk: 2.1484099435713248e+09
               tree_risk: 0.
               tree_error: 0.
               splits:
                  - { var:27, quality:1.3936751458385920e+15,
                      le:0.9777733683586121 }
            -
               depth: 2
               sample_count: 46356
               value: -0.0161644767880932
               norm_class_idx: 0
               Tn: 0
               complexity: 0
               alpha: 0.
               node_risk: 2.1483172556898875e+09
               tree_risk: 0.
               tree_error: 0.
            -
               depth: 2
               sample_count: 1
               value: -1.
               norm_class_idx: 0
               Tn: 0
               complexity: 0
               alpha: 0.
               node_risk: 0.
               tree_risk: 0.
               tree_error: 0.
            -
               depth: 1
               sample_count: 1
               value: -1.
               norm_class_idx: 0
               Tn: 0
               complexity: 0
               alpha: 0.
               node_risk: 0.
               tree_risk: 0.
               tree_error: 0.
      -
         best_tree_idx: -1
         nodes:
            -
               depth: 0
               sample_count: 46358
               value: -1.4082450283817918e-06
               norm_class_idx: 0
               Tn: 0
               complexity: 0
               alpha: 0.
               node_risk: 2.1490641639965243e+09
               tree_risk: 0.
               tree_error: 0.
               splits:
                  - { var:0, quality:2.2589788160000000e+10,
                      le:0.9654753208160400 }
            -
               depth: 1
               sample_count: 46357
               value: -1.4082450283817918e-06
               norm_class_idx: 0
               Tn: 0
               complexity: 0
               alpha: 0.
               node_risk: 2.1489714489965248e+09
               tree_risk: 0.
               tree_error: 0.
               splits:
                  - { var:0, quality:2.2588528640000000e+10,
                      le:0.9568397998809814 }
            -
               depth: 2
               sample_count: 46356
               value: -1.4082450283817918e-06
               norm_class_idx: 0
               Tn: 0
               complexity: 0
               alpha: 0.
               node_risk: 2.1488787359965248e+09
               tree_risk: 0.
               tree_error: 0.
            -
               depth: 2
               sample_count: 1
               value: -1.
               norm_class_idx: 0
               Tn: 0
               complexity: 0
               alpha: 0.
               node_risk: 0.
               tree_risk: 0.
               tree_error: 0.
            -
               depth: 1
               sample_count: 1
               value: -1.
               norm_class_idx: 0
               Tn: 0
               complexity: 0
               alpha: 0.
               node_risk: 0.
               tree_risk: 0.
               tree_error: 0.
      -
         best_tree_idx: -1
         nodes:
            -
               depth: 0
               sample_count: 46358
               value: -2.0409999170875907e-14
               norm_class_idx: 0
               Tn: 0
               complexity: 0
               alpha: 0.
               node_risk: 2.1490641639986987e+09
               tree_risk: 0.
               tree_error: 0.
               splits:
                  - { var:9, quality:0.1370389610528946,
                      le:0.0128327403217554 }
            -
               depth: 1
               sample_count: 16663
               value: -0.5917039850018155
               norm_class_idx: 0
               Tn: 0
               complexity: 0
               alpha: 0.
               node_risk: 6.4145291553784120e+08
               tree_risk: 0.
               tree_error: 0.
               splits:
                  - { var:50, quality:3.2826737033216000e+14,
                      le:0.9064544439315796 }
            -
               depth: 2
               sample_count: 16662
               value: -0.5917035551987169
               norm_class_idx: 0
               Tn: 0
               complexity: 0
               alpha: 0.
               node_risk: 6.4137710369274318e+08
               tree_risk: 0.
               tree_error: 0.
            -
               depth: 2
               sample_count: 1
               value: -1.
               norm_class_idx: 0
               Tn: 0
               complexity: 0
               alpha: 0.
               node_risk: 0.
               tree_risk: 0.
               tree_error: 0.
            -
               depth: 1
               sample_count: 29695
               value: 0.2316005286359062
               norm_class_idx: 0
               Tn: 0
               complexity: 0
               alpha: 0.
               node_risk: 1.1611266297938914e+09
               tree_risk: 0.
               tree_error: 0.
               splits:
                  - { var:0, quality:3.2548411708494840e+20,
                      le:0.9654753208160400 }
            -
               depth: 2
               sample_count: 29694
               value: 0.2316005286359062
               norm_class_idx: 0
               Tn: 0
               complexity: 0
               alpha: 0.
               node_risk: 1.1610484275996561e+09
               tree_risk: 0.
               tree_error: 0.
            -
               depth: 2
               sample_count: 1
               value: -1.
               norm_class_idx: 0
               Tn: 0
               complexity: 0
               alpha: 0.
               node_risk: 0.
               tree_risk: 0.
               tree_error: 0.
      -
         best_tree_idx: -1
         nodes:
            -
               depth: 0
               sample_count: 46358
               value: -0.0184739251878464
               norm_class_idx: 0
               Tn: 0
               complexity: 0
               alpha: 0.
               node_risk: 2.1483307186775336e+09
               tree_risk: 0.
               tree_error: 0.
               splits:
                  - { var:0, quality:8.4047301046383411e+18,
                      le:0.9654753208160400 }
            -
               depth: 1
               sample_count: 46357
               value: -0.0184739251878464
               norm_class_idx: 0
               Tn: 0
               complexity: 0
               alpha: 0.
               node_risk: 2.1482380353198571e+09
               tree_risk: 0.
               tree_error: 0.
               splits:
                  - { var:0, quality:8.4042523668360724e+18,
                      le:0.9568397998809814 }
            -
               depth: 2
               sample_count: 46356
               value: -0.0184739251878464
               norm_class_idx: 0
               Tn: 0
               complexity: 0
               alpha: 0.
               node_risk: 2.1481453539614973e+09
               tree_risk: 0.
               tree_error: 0.
            -
               depth: 2
               sample_count: 1
               value: -1.
               norm_class_idx: 0
               Tn: 0
               complexity: 0
               alpha: 0.
               node_risk: 0.
               tree_risk: 0.
               tree_error: 0.
            -
               depth: 1
               sample_count: 1
               value: -1.
               norm_class_idx: 0
               Tn: 0
               complexity: 0
               alpha: 0.
               node_risk: 0.
               tree_risk: 0.
               tree_error: 0.
      -
         best_tree_idx: -1
         nodes:
            -
               depth: 0
               sample_count: 46358
               value: -2.1020606970409267e-06
               norm_class_idx: 0
               Tn: 0
               complexity: 0
               alpha: 0.
               node_risk: 2.1490641639908667e+09
               tree_risk: 0.
               tree_error: 0.
               splits:
                  - { var:3, quality:2.9602076160000000e+09,
                      le:0.9825143218040466 }
            -
               depth: 1
               sample_count: 46357
               value: -2.1020574069574200e-06
               norm_class_idx: 0
               Tn: 0
               complexity: 0
               alpha: 0.
               node_risk: 2.1489714489979377e+09
               tree_risk: 0.
               tree_error: 0.
               splits:
                  - { var:27, quality:47957272., le:0.9777733683586121 }
            -
               depth: 2
               sample_count: 46356
               value: -2.1018593378684916e-06
               norm_class_idx: 0
               Tn: 0
               complexity: 0
               alpha: 0.
               node_risk: 2.1488787364235663e+09
               tree_risk: 0.
               tree_error: 0.
            -
               depth: 2
               sample_count: 1
               value: -1.
               norm_class_idx: 0
               Tn: 0
               complexity: 0
               alpha: 0.
               node_risk: 0.
               tree_risk: 0.
               tree_error: 0.
            -
               depth: 1
               sample_count: 1
               value: -0.9999999999999999
               norm_class_idx: 0
               Tn: 0
               complexity: 0
               alpha: 0.
               node_risk: 3.7312665331498511e-05
               tree_risk: 0.
               tree_error: 0.
      -
         best_tree_idx: -1
         nodes:
            -
               depth: 0
               sample_count: 46358
               value: -7.4031968462459155e-11
               norm_class_idx: 0
               Tn: 0
               complexity: 0
               alpha: 0.
               node_risk: 2.1490641639998755e+09
               tree_risk: 0.
               tree_error: 0.
               splits:
                  - { var:0, quality:68.5530548095703125,
                      le:0.9654753208160400 }
            -
               depth: 1
               sample_count: 46357
               value: -7.4031968462459155e-11
               norm_class_idx: 0
               Tn: 0
               complexity: 0
               alpha: 0.
               node_risk: 2.1489714489998755e+09
               tree_risk: 0.
               tree_error: 0.
               splits:
                  - { var:0, quality:68.5499191284179688,
                      le:0.9568397998809814 }
            -
               depth: 2
               sample_count: 46356
               value: -7.4031968462459155e-11
               norm_class_idx: 0
               Tn: 0
               complexity: 0
               alpha: 0.
               node_risk: 2.1488787359998755e+09
               tree_risk: 0.
               tree_error: 0.
            -
               depth: 2
               sample_count: 1
               value: -1.
               norm_class_idx: 0
               Tn: 0
               complexity: 0
               alpha: 0.
               node_risk: 0.
               tree_risk: 0.
               tree_error: 0.
            -
               depth: 1
               sample_count: 1
               value: -1.
               norm_class_idx: 0
               Tn: 0
               complexity: 0
               alpha: 0.
               node_risk: 0.
               tree_risk: 0.
               tree_error: 0.
      -
         best_tree_idx: -1
         nodes:
            -
               depth: 0
               sample_count: 46358
               value: 1.6278126714401926e-15
               norm_class_idx: 0
               Tn: 0
               complexity: 0
               alpha: 0.
               node_risk: 2.1490641639999061e+09
               tree_risk: 0.
               tree_error: 0.
               splits:
                  - { var:52, quality:0.1163916289806366,
                      le:0.1196664124727249 }
            -
               depth: 1
               sample_count: 35157
               value: 0.1317573170086897
               norm_class_idx: 0
               Tn: 0
               complexity: 0
               alpha: 0.
               node_risk: 1.3957105564853292e+09
               tree_risk: 0.
               tree_error: 0.
               splits:
                  - { var:3, quality:2.0054766635192418e+19,
                      le:0.9825143218040466 }
            -
               depth: 2
               sample_count: 35156
               value: 0.1317573170102638
               norm_class_idx: 0
               Tn: 0
               complexity: 0
               alpha: 0.
               node_risk: 1.3956311588869545e+09
               tree_risk: 0.
               tree_error: 0.
            -
               depth: 2
               sample_count: 1
               value: -1.
               norm_class_idx: 0
               Tn: 0
               complexity: 0
               alpha: 0.
               node_risk: 0.
               tree_risk: 0.
               tree_error: 0.
            -
               depth: 1
               sample_count: 11201
               value: -0.8833788740589836
               norm_class_idx: 0
               Tn: 0
               complexity: 0
               alpha: 0.
               node_risk: 2.1231373369255427e+08
               tree_risk: 0.
               tree_error: 0.
               splits:
                  - { var:0, quality:4.5011523713329829e+22,
                      le:0.9523359537124634 }
            -
               depth: 2
               sample_count: 11199
               value: -0.8833788740589809
               norm_class_idx: 0
               Tn: 0
               complexity: 0
               alpha: 0.
               node_risk: 2.1223792089770600e+08
               tree_risk: 0.
               tree_error: 0.
            -
               depth: 2
               sample_count: 2
               value: -1.
               norm_class_idx: 0
               Tn: 0
               complexity: 0
               alpha: 0.
               node_risk: 0.
               tree_risk: 0.
               tree_error: 0.
      -
         best_tree_idx: -1
         nodes:
            -
               depth: 0
               sample_count: 46358
               value: -0.0338747944810622
               norm_class_idx: 0
               Tn: 0
               complexity: 0
               alpha: 0.
               node_risk: 2.1465981092160788e+09
               tree_risk: 0.
               tree_error: 0.
               splits:
                  - { var:0, quality:3.0734893062608545e+20,
                      le:0.9654753208160400 }
            -
               depth: 1
               sample_count: 46357
               value: -0.0338747944810622
               norm_class_idx: 0
               Tn: 0
               complexity: 0
               alpha: 0.
               node_risk: 2.1465055006066990e+09
               tree_risk: 0.
               tree_error: 0.
               splits:
                  - { var:0, quality:3.0733323839613383e+20,
                      le:0.9568397998809814 }
            -
               depth: 2
               sample_count: 46356
               value: -0.0338747944810622
               norm_class_idx: 0
               Tn: 0
               complexity: 0
               alpha: 0.
               node_risk: 2.1464128939950242e+09
               tree_risk: 0.
               tree_error: 0.
            -
               depth: 2
               sample_count: 1
               value: -1.
               norm_class_idx: 0
               Tn: 0
               complexity: 0
               alpha: 0.
               node_risk: 0.
               tree_risk: 0.
               tree_error: 0.
            -
               depth: 1
               sample_count: 1
               value: -1.
               norm_class_idx: 0
               Tn: 0
               complexity: 0
               alpha: 0.
               node_risk: 0.
