%YAML:1.0
cogntree: !!opencv-ml-boost-tree
   boosting_type: GentleAdaboost
   splitting_criteria: Misclassification
   ntrees: 1000
   weight_trimming_rate: 0.9500000000000000
   is_classifier: 1
   var_all: 60
   var_count: 60
   ord_var_count: 60
   cat_var_count: 0
   training_params:
      use_surrogates: 0
      max_categories: 10
      max_depth: 2
      min_sample_count: 10
      cross_validation_folds: 0
      priors: !!opencv-matrix
         rows: 1
         cols: 2
         dt: d
         data: [ 1., 1. ]
   var_type: [ 0, 0, 0, 0, 0, 0, 0, 0, 0, 0, 0, 0, 0, 0, 0, 0, 0, 0, 0,
       0, 0, 0, 0, 0, 0, 0, 0, 0, 0, 0, 0, 0, 0, 0, 0, 0, 0, 0, 0, 0, 0,
       0, 0, 0, 0, 0, 0, 0, 0, 0, 0, 0, 0, 0, 0, 0, 0, 0, 0, 0 ]
   cat_count: !!opencv-matrix
      rows: 1
      cols: 1
      dt: i
      data: [ 2 ]
   cat_map: !!opencv-matrix
      rows: 1
      cols: 2
      dt: i
      data: [ 0, 1 ]
   trees:
      -
         best_tree_idx: -1
         nodes:
            -
               depth: 0
               sample_count: 46359
               value: -0.9830453633598488
               norm_class_idx: 0
               Tn: 0
               complexity: 0
               alpha: 0.
               node_risk: 7.2258552000026092e+07
               tree_risk: 0.
               tree_error: 0.
               splits:
                  - { var:0, quality:9.6278771924992000e+13,
                      le:0.9654753208160400 }
            -
               depth: 1
               sample_count: 46358
               value: -0.9830449976271458
               norm_class_idx: 0
               Tn: 0
               complexity: 0
               alpha: 0.
               node_risk: 7.2258538673394784e+07
               tree_risk: 0.
               tree_error: 0.
               splits:
                  - { var:0, quality:9.6274552455168000e+13,
                      le:0.9592331647872925 }
            -
               depth: 2
               sample_count: 46357
               value: -0.9830446318786640
               norm_class_idx: 0
               Tn: 0
               complexity: 0
               alpha: 0.
               node_risk: 7.2258525346187979e+07
               tree_risk: 0.
               tree_error: 0.
            -
               depth: 2
               sample_count: 1
               value: -1.
               norm_class_idx: 0
               Tn: 0
               complexity: 0
               alpha: 0.
               node_risk: 0.
               tree_risk: 0.
               tree_error: 0.
            -
               depth: 1
               sample_count: 1
               value: -1.
               norm_class_idx: 0
               Tn: 0
               complexity: 0
               alpha: 0.
               node_risk: 0.
               tree_risk: 0.
               tree_error: 0.
      -
         best_tree_idx: -1
         nodes:
            -
               depth: 0
               sample_count: 46357
               value: -0.8848876496464491
               norm_class_idx: 0
               Tn: 0
               complexity: 0
               alpha: 0.
               node_risk: 4.6628940278166050e+08
               tree_risk: 0.
               tree_error: 0.
               splits:
                  - { var:0, quality:8.2066901303296000e+13,
                      le:0.9551804065704346 }
            -
               depth: 1
               sample_count: 46356
               value: -0.8848852893395086
               norm_class_idx: 0
               Tn: 0
               complexity: 0
               alpha: 0.
               node_risk: 4.6628782309316099e+08
               tree_risk: 0.
               tree_error: 0.
               splits:
                  - { var:0, quality:8.2062925103104000e+13,
                      le:0.9523359537124634 }
            -
               depth: 2
               sample_count: 46355
               value: -0.8848829289357730
               norm_class_idx: 0
               Tn: 0
               complexity: 0
               alpha: 0.
               node_risk: 4.6628624334343672e+08
               tree_risk: 0.
               tree_error: 0.
            -
               depth: 2
               sample_count: 1
               value: -0.9999999999999999
               norm_class_idx: 0
               Tn: 0
               complexity: 0
               alpha: 0.
               node_risk: 8.0597208458838002e-12
               tree_risk: 0.
               tree_error: 0.
            -
               depth: 1
               sample_count: 1
               value: -0.9999999999999999
               norm_class_idx: 0
               Tn: 0
               complexity: 0
               alpha: 0.
               node_risk: 8.0597208458838002e-12
               tree_risk: 0.
               tree_error: 0.
      -
         best_tree_idx: -1
         nodes:
            -
               depth: 0
               sample_count: 46357
               value: -0.4722577154999341
               norm_class_idx: 0
               Tn: 0
               complexity: 0
               alpha: 0.
               node_risk: 1.6697389065602996e+09
               tree_risk: 0.
               tree_error: 0.
               splits:
                  - { var:0, quality:3.3576764571648000e+13,
                      le:0.9551804065704346 }
            -
               depth: 1
               sample_count: 46356
               value: -0.4722501824392625
               norm_class_idx: 0
               Tn: 0
               complexity: 0
               alpha: 0.
               node_risk: 1.6697059921063735e+09
               tree_risk: 0.
               tree_error: 0.
               splits:
                  - { var:0, quality:3.3574245892096000e+13,
                      le:0.9523359537124634 }
            -
               depth: 2
               sample_count: 46355
               value: -0.4722426491635320
               norm_class_idx: 0
               Tn: 0
               complexity: 0
               alpha: 0.
               node_risk: 1.6696730771400566e+09
               tree_risk: 0.
               tree_error: 0.
            -
               depth: 2
               sample_count: 1
               value: -1.
               norm_class_idx: 0
               Tn: 0
               complexity: 0
               alpha: 0.
               node_risk: 0.
               tree_risk: 0.
               tree_error: 0.
            -
               depth: 1
               sample_count: 1
               value: -1.
               norm_class_idx: 0
               Tn: 0
               complexity: 0
               alpha: 0.
               node_risk: 0.
               tree_risk: 0.
               tree_error: 0.
      -
         best_tree_idx: -1
         nodes:
            -
               depth: 0
               sample_count: 46357
               value: -0.0406990531027567
               norm_class_idx: 0
               Tn: 0
               complexity: 0
               alpha: 0.
               node_risk: 2.1454369760595956e+09
               tree_risk: 0.
               tree_error: 0.
               splits:
                  - { var:0, quality:5.9799293132800000e+11,
                      le:0.9551804065704346 }
            -
               depth: 1
               sample_count: 46356
               value: -0.0406933429601636
               norm_class_idx: 0
               Tn: 0
               complexity: 0
               alpha: 0.
               node_risk: 2.1453581842297409e+09
               tree_risk: 0.
               tree_error: 0.
               splits:
                  - { var:0, quality:5.9779933798400000e+11,
                      le:0.9523359537124634 }
            -
               depth: 2
               sample_count: 46355
               value: -0.0406876327495919
               norm_class_idx: 0
               Tn: 0
               complexity: 0
               alpha: 0.
               node_risk: 2.1452793932441943e+09
               tree_risk: 0.
               tree_error: 0.
            -
               depth: 2
               sample_count: 1
               value: -0.9999999999999999
               norm_class_idx: 0
               Tn: 0
               complexity: 0
               alpha: 0.
               node_risk: 2.3907352186608248e-11
               tree_risk: 0.
               tree_error: 0.
            -
               depth: 1
               sample_count: 1
               value: -0.9999999999999999
               norm_class_idx: 0
               Tn: 0
               complexity: 0
               alpha: 0.
               node_risk: 2.3907352186608248e-11
               tree_risk: 0.
               tree_error: 0.
      -
         best_tree_idx: -1
         nodes:
            -
               depth: 0
               sample_count: 46357
               value: -2.6857965071025709e-05
               norm_class_idx: 0
               Tn: 0
               complexity: 0
               alpha: 0.
               node_risk: 2.1489807083917241e+09
               tree_risk: 0.
               tree_error: 0.
               splits:
                  - { var:0, quality:7.0729968750000000e+05,
                      le:0.9551804065704346 }
            -
               depth: 1
               sample_count: 46356
               value: -2.4666435430806053e-05
               norm_class_idx: 0
               Tn: 0
               complexity: 0
               alpha: 0.
               node_risk: 2.1488927047131147e+09
               tree_risk: 0.
               tree_error: 0.
               splits:
                  - { var:0, quality:5.9655631250000000e+05,
                      le:0.9523359537124634 }
            -
               depth: 2
               sample_count: 46355
               value: -2.2474896184702805e-05
               norm_class_idx: 0
               Tn: 0
               complexity: 0
               alpha: 0.
               node_risk: 2.1488047026281261e+09
               tree_risk: 0.
               tree_error: 0.
            -
               depth: 2
               sample_count: 1
               value: -1.
               norm_class_idx: 0
               Tn: 0
               complexity: 0
               alpha: 0.
               node_risk: 0.
               tree_risk: 0.
               tree_error: 0.
            -
               depth: 1
               sample_count: 1
               value: -1.
               norm_class_idx: 0
               Tn: 0
               complexity: 0
               alpha: 0.
               node_risk: 0.
               tree_risk: 0.
               tree_error: 0.
      -
         best_tree_idx: -1
         nodes:
            -
               depth: 0
               sample_count: 46357
               value: -1.6124814933125858e-06
               norm_class_idx: 0
               Tn: 0
               complexity: 0
               alpha: 0.
               node_risk: 2.1489748559059687e+09
               tree_risk: 0.
               tree_error: 0.
               splits:
                  - { var:0, quality:6.9302055664062500e+03,
                      le:0.9551804065704346 }
            -
               depth: 1
               sample_count: 46356
               value: -8.0624132291132442e-07
               norm_class_idx: 0
               Tn: 0
               complexity: 0
               alpha: 0.
               node_risk: 2.1488838752810750e+09
               tree_risk: 0.
               tree_error: 0.
               splits:
                  - { var:0, quality:1.7325164794921875e+03,
                      le:0.9523359537124634 }
            -
               depth: 2
               sample_count: 46355
               value: 1.4753956063782095e-13
               norm_class_idx: 0
               Tn: 0
               complexity: 0
               alpha: 0.
               node_risk: 2.1487928965066872e+09
               tree_risk: 0.
               tree_error: 0.
            -
               depth: 2
               sample_count: 1
               value: -0.9999999999999999
               norm_class_idx: 0
               Tn: 0
               complexity: 0
               alpha: 0.
               node_risk: 1.6288538836437468e-10
               tree_risk: 0.
               tree_error: 0.
            -
               depth: 1
               sample_count: 1
               value: -0.9999999999999999
               norm_class_idx: 0
               Tn: 0
               complexity: 0
               alpha: 0.
               node_risk: 1.6288538836437468e-10
               tree_risk: 0.
               tree_error: 0.
      -
         best_tree_idx: -1
         nodes:
            -
               depth: 0
               sample_count: 46357
               value: -5.9319944482296174e-07
               norm_class_idx: 0
               Tn: 0
               complexity: 0
               alpha: 0.
               node_risk: 2.1489727023404455e+09
               tree_risk: 0.
               tree_error: 0.
               splits:
                  - { var:0, quality:2.5494843750000000e+03,
                      le:0.9551804065704346 }
            -
               depth: 1
               sample_count: 46356
               value: -2.9659980800126794e-07
               norm_class_idx: 0
               Tn: 0
               complexity: 0
               alpha: 0.
               node_risk: 2.1488806266443434e+09
               tree_risk: 0.
               tree_error: 0.
               splits:
                  - { var:0, quality:637.3577270507812500,
                      le:0.9523359537124634 }
            -
               depth: 2
               sample_count: 46355
               value: 4.7632716656042591e-15
               norm_class_idx: 0
               Tn: 0
               complexity: 0
               alpha: 0.
               node_risk: 2.1487885528932443e+09
               tree_risk: 0.
               tree_error: 0.
            -
               depth: 2
               sample_count: 1
               value: -0.9999999999999999
               norm_class_idx: 0
               Tn: 0
               complexity: 0
               alpha: 0.
               node_risk: 6.0178220324081583e-10
               tree_risk: 0.
               tree_error: 0.
            -
               depth: 1
               sample_count: 1
               value: -0.9999999999999999
               norm_class_idx: 0
               Tn: 0
               complexity: 0
               alpha: 0.
               node_risk: 6.0178220324081583e-10
               tree_risk: 0.
               tree_error: 0.
      -
         best_tree_idx: -1
         nodes:
            -
               depth: 0
               sample_count: 46357
               value: -2.1822674573833711e-07
               norm_class_idx: 0
               Tn: 0
               complexity: 0
               alpha: 0.
               node_risk: 2.1489719100789609e+09
               tree_risk: 0.
               tree_error: 0.
               splits:
                  - { var:0, quality:937.9172973632812500,
                      le:0.9551804065704346 }
            -
               depth: 1
               sample_count: 46356
               value: -1.0911377573120578e-07
               norm_class_idx: 0
               Tn: 0
               complexity: 0
               alpha: 0.
               node_risk: 2.1488794315297875e+09
               tree_risk: 0.
               tree_error: 0.
               splits:
                  - { var:0, quality:234.4759979248046875,
                      le:0.9523359537124634 }
            -
               depth: 2
               sample_count: 46355
               value: -7.8191278619305891e-13
               norm_class_idx: 0
               Tn: 0
               complexity: 0
               alpha: 0.
               node_risk: 2.1487869549603829e+09
               tree_risk: 0.
               tree_error: 0.
            -
               depth: 2
               sample_count: 1
               value: -1.
               norm_class_idx: 0
               Tn: 0
               complexity: 0
               alpha: 0.
               node_risk: 0.
               tree_risk: 0.
               tree_error: 0.
            -
               depth: 1
               sample_count: 1
               value: -1.
               norm_class_idx: 0
               Tn: 0
               complexity: 0
               alpha: 0.
               node_risk: 0.
               tree_risk: 0.
               tree_error: 0.
      -
         best_tree_idx: -1
         nodes:
            -
               depth: 0
               sample_count: 46357
               value: -8.0279955954700996e-08
               norm_class_idx: 0
               Tn: 0
               complexity: 0
               alpha: 0.
               node_risk: 2.1489716186205759e+09
               tree_risk: 0.
               tree_error: 0.
               splits:
                  - { var:0, quality:345.0301208496093750,
                      le:0.9551804065704346 }
            -
               depth: 1
               sample_count: 46356
               value: -4.0139529191644817e-08
               norm_class_idx: 0
               Tn: 0
               complexity: 0
               alpha: 0.
               node_risk: 2.1488789918701911e+09
               tree_risk: 0.
               tree_error: 0.
               splits:
                  - { var:0, quality:86.2537384033203125,
                      le:0.9523359537124634 }
            -
               depth: 2
               sample_count: 46355
               value: 9.0079391946793803e-13
               norm_class_idx: 0
               Tn: 0
               complexity: 0
               alpha: 0.
               node_risk: 2.1487863671123648e+09
               tree_risk: 0.
               tree_error: 0.
            -
               depth: 2
               sample_count: 1
               value: -1.
               norm_class_idx: 0
               Tn: 0
               complexity: 0
               alpha: 0.
               node_risk: 0.
               tree_risk: 0.
               tree_error: 0.
            -
               depth: 1
               sample_count: 1
               value: -1.
               norm_class_idx: 0
               Tn: 0
               complexity: 0
               alpha: 0.
               node_risk: 0.
               tree_risk: 0.
               tree_error: 0.
      -
         best_tree_idx: -1
         nodes:
            -
               depth: 0
               sample_count: 46357
               value: -2.9533769292880545e-08
               norm_class_idx: 0
               Tn: 0
               complexity: 0
               alpha: 0.
               node_risk: 2.1489715113933706e+09
               tree_risk: 0.
               tree_error: 0.
               splits:
                  - { var:0, quality:126.9232559204101562,
                      le:0.9551804065704346 }
            -
               depth: 1
               sample_count: 46356
               value: -1.4766930385921619e-08
               norm_class_idx: 0
               Tn: 0
               complexity: 0
               alpha: 0.
               node_risk: 2.1488788301228280e+09
               tree_risk: 0.
               tree_error: 0.
               splits:
                  - { var:0, quality:31.7303256988525391,
                      le:0.9523359537124634 }
            -
               depth: 2
               sample_count: 46355
               value: -9.1042843612429054e-14
               norm_class_idx: 0
               Tn: 0
               complexity: 0
               alpha: 0.
               node_risk: 2.1487861508495483e+09
               tree_risk: 0.
               tree_error: 0.
            -
               depth: 2
               sample_count: 1
               value: -1.
               norm_class_idx: 0
               Tn: 0
               complexity: 0
               alpha: 0.
               node_risk: 0.
               tree_risk: 0.
               tree_error: 0.
            -
               depth: 1
               sample_count: 1
               value: -1.
               norm_class_idx: 0
               Tn: 0
               complexity: 0
               alpha: 0.
               node_risk: 0.
               tree_risk: 0.
               tree_error: 0.
      -
         best_tree_idx: -1
         nodes:
            -
               depth: 0
               sample_count: 46357
               value: -1.0864639050056811e-08
               norm_class_idx: 0
               Tn: 0
               complexity: 0
               alpha: 0.
               node_risk: 2.1489714719609113e+09
               tree_risk: 0.
               tree_error: 0.
               splits:
                  - { var:0, quality:46.6948204040527344,
                      le:0.9551804065704346 }
            -
               depth: 1
               sample_count: 46356
               value: -5.4322224493861237e-09
               norm_class_idx: 0
               Tn: 0
               complexity: 0
               alpha: 0.
               node_risk: 2.1488787706335263e+09
               tree_risk: 0.
               tree_error: 0.
               splits:
                  - { var:0, quality:11.6730356216430664,
                      le:0.9523359537124634 }
            -
               depth: 2
               sample_count: 46355
               value: 1.9421030686427585e-13
               norm_class_idx: 0
               Tn: 0
               complexity: 0
               alpha: 0.
               node_risk: 2.1487860713051333e+09
               tree_risk: 0.
               tree_error: 0.
            -
               depth: 2
               sample_count: 1
               value: -1.
               norm_class_idx: 0
               Tn: 0
               complexity: 0
               alpha: 0.
               node_risk: 0.
               tree_risk: 0.
               tree_error: 0.
            -
               depth: 1
               sample_count: 1
               value: -1.
               norm_class_idx: 0
               Tn: 0
               complexity: 0
               alpha: 0.
               node_risk: 0.
               tree_risk: 0.
               tree_error: 0.
      -
         best_tree_idx: -1
         nodes:
            -
               depth: 0
               sample_count: 46357
               value: -3.9975086022230621e-09
               norm_class_idx: 0
               Tn: 0
               complexity: 0
               alpha: 0.
               node_risk: 2.1489714574431715e+09
               tree_risk: 0.
               tree_error: 0.
               splits:
                  - { var:0, quality:17.1831111907958984,
                      le:0.9551804065704346 }
            -
               depth: 1
               sample_count: 46356
               value: -1.9990342123882034e-09
               norm_class_idx: 0
               Tn: 0
               complexity: 0
               alpha: 0.
               node_risk: 2.1488787487372856e+09
               tree_risk: 0.
               tree_error: 0.
               splits:
                  - { var:0, quality:4.2968883514404297,
                      le:0.9523359537124634 }
            -
               depth: 2
               sample_count: 46355
               value: -5.5981456554527969e-13
               norm_class_idx: 0
               Tn: 0
               complexity: 0
               alpha: 0.
               node_risk: 2.1487860420310302e+09
               tree_risk: 0.
               tree_error: 0.
            -
               depth: 2
               sample_count: 1
               value: -1.
               norm_class_idx: 0
               Tn: 0
               complexity: 0
               alpha: 0.
               node_risk: 0.
               tree_risk: 0.
               tree_error: 0.
            -
               depth: 1
               sample_count: 1
               value: -1.
               norm_class_idx: 0
               Tn: 0
               complexity: 0
               alpha: 0.
               node_risk: 0.
               tree_risk: 0.
               tree_error: 0.
      -
         best_tree_idx: -1
         nodes:
            -
               depth: 0
               sample_count: 46357
               value: -1.4707510165774804e-09
               norm_class_idx: 0
               Tn: 0
               complexity: 0
               alpha: 0.
               node_risk: 2.1489714521052060e+09
               tree_risk: 0.
               tree_error: 0.
               splits:
                  - { var:0, quality:6.3191628456115723,
                      le:0.9551804065704346 }
            -
               depth: 1
               sample_count: 46356
               value: -7.3555339105451209e-10
               norm_class_idx: 0
               Tn: 0
               complexity: 0
               alpha: 0.
               node_risk: 2.1488787406849222e+09
               tree_risk: 0.
               tree_error: 0.
               splits:
                  - { var:0, quality:1.5805209875106812,
                      le:0.9523359537124634 }
            -
               depth: 2
               sample_count: 46355
               value: -3.5576445051275372e-13
               norm_class_idx: 0
               Tn: 0
               complexity: 0
               alpha: 0.
               node_risk: 2.1487860312645030e+09
               tree_risk: 0.
               tree_error: 0.
            -
               depth: 2
               sample_count: 1
               value: -1.
               norm_class_idx: 0
               Tn: 0
               complexity: 0
               alpha: 0.
               node_risk: 0.
               tree_risk: 0.
               tree_error: 0.
            -
               depth: 1
               sample_count: 1
               value: -1.
               norm_class_idx: 0
               Tn: 0
               complexity: 0
               alpha: 0.
               node_risk: 0.
               tree_risk: 0.
               tree_error: 0.
      -
         best_tree_idx: -1
         nodes:
            -
               depth: 0
               sample_count: 46357
               value: -5.4094592740652775e-10
               norm_class_idx: 0
               Tn: 0
               complexity: 0
               alpha: 0.
               node_risk: 2.1489714501486411e+09
               tree_risk: 0.
               tree_error: 0.
               splits:
                  - { var:0, quality:2.3329901695251465,
                      le:0.9551804065704346 }
            -
               depth: 1
               sample_count: 46356
               value: -2.7048183177092490e-10
               norm_class_idx: 0
               Tn: 0
               complexity: 0
               alpha: 0.
               node_risk: 2.1488787377297859e+09
               tree_risk: 0.
               tree_error: 0.
               splits:
                  - { var:0, quality:0.5832732319831848,
                      le:0.9523359537124634 }
            -
               depth: 2
               sample_count: 46355
               value: -1.7735989020313817e-14
               norm_class_idx: 0
               Tn: 0
               complexity: 0
               alpha: 0.
               node_risk: 2.1487860273108807e+09
               tree_risk: 0.
               tree_error: 0.
            -
               depth: 2
               sample_count: 1
               value: -1.
               norm_class_idx: 0
               Tn: 0
               complexity: 0
               alpha: 0.
               node_risk: 0.
               tree_risk: 0.
               tree_error: 0.
            -
               depth: 1
               sample_count: 1
               value: -1.
               norm_class_idx: 0
               Tn: 0
               complexity: 0
               alpha: 0.
               node_risk: 0.
               tree_risk: 0.
               tree_error: 0.
      -
         best_tree_idx: -1
         nodes:
            -
               depth: 0
               sample_count: 46357
               value: -1.9859071166289868e-10
               norm_class_idx: 0
               Tn: 0
               complexity: 0
               alpha: 0.
               node_risk: 2.1489714494172807e+09
               tree_risk: 0.
               tree_error: 0.
               splits:
                  - { var:0, quality:0.8516997098922729,
                      le:0.9551804065704346 }
            -
               depth: 1
               sample_count: 46356
               value: -9.9092524186531413e-11
               norm_class_idx: 0
               Tn: 0
               complexity: 0
               alpha: 0.
               node_risk: 2.1488787366310720e+09
               tree_risk: 0.
               tree_error: 0.
               splits:
                  - { var:7, quality:0.3750853240489960,
                      le:0.1069799512624741 }
            -
               depth: 2
               sample_count: 33350
               value: -0.7166542278618651
               norm_class_idx: 0
               Tn: 0
               complexity: 0
               alpha: 0.
               node_risk: 1.2817480642459702e+09
               tree_risk: 0.
               tree_error: 0.
            -
               depth: 2
               sample_count: 13006
               value: 0.5233906779082661
               norm_class_idx: 0
               Tn: 0
               complexity: 0
               alpha: 0.
               node_risk: 2.1251474634086084e+08
               tree_risk: 0.
               tree_error: 0.
            -
               depth: 1
               sample_count: 1
               value: -1.
               norm_class_idx: 0
               Tn: 0
               complexity: 0
               alpha: 0.
               node_risk: 0.
               tree_risk: 0.
               tree_error: 0.
      -
         best_tree_idx: -1
         nodes:
            -
               depth: 0
               sample_count: 46357
               value: -0.0329390407797372
               norm_class_idx: 0
               Tn: 0
               complexity: 0
               alpha: 0.
               node_risk: 2.1466398572781205e+09
               tree_risk: 0.
               tree_error: 0.
               splits:
                  - { var:0, quality:5.0395522753626112e+16,
                      le:0.9551804065704346 }
            -
               depth: 1
               sample_count: 46356
               value: -0.0329390407350788
               norm_class_idx: 0
               Tn: 0
               complexity: 0
               alpha: 0.
               node_risk: 2.1465472449753489e+09
               tree_risk: 0.
               tree_error: 0.
               splits:
                  - { var:0, quality:3.7976354234302464e+16,
                      le:0.9523359537124634 }
            -
               depth: 2
               sample_count: 46355
               value: -0.0329390406757920
               norm_class_idx: 0
               Tn: 0
               complexity: 0
               alpha: 0.
               node_risk: 2.1464546347049379e+09
               tree_risk: 0.
               tree_error: 0.
            -
               depth: 2
               sample_count: 1
               value: -1.
               norm_class_idx: 0
               Tn: 0
               complexity: 0
               alpha: 0.
               node_risk: 0.
               tree_risk: 0.
               tree_error: 0.
            -
               depth: 1
               sample_count: 1
               value: -1.
               norm_class_idx: 0
               Tn: 0
               complexity: 0
               alpha: 0.
               node_risk: 0.
               tree_risk: 0.
               tree_error: 0.
      -
         best_tree_idx: -1
         nodes:
            -
               depth: 0
               sample_count: 46357
               value: -1.1920538443706323e-05
               norm_class_idx: 0
               Tn: 0
               complexity: 0
               alpha: 0.
               node_risk: 2.1489714487649965e+09
               tree_risk: 0.
               tree_error: 0.
               splits:
                  - { var:0, quality:1.7357725696000000e+10,
                      le:0.9551804065704346 }
            -
               depth: 1
               sample_count: 46356
               value: -1.1920521446172394e-05
               norm_class_idx: 0
               Tn: 0
               complexity: 0
               alpha: 0.
               node_risk: 2.1488787358015342e+09
               tree_risk: 0.
               tree_error: 0.
               splits:
                  - { var:0, quality:1.3184145408000000e+10,
                      le:0.9523359537124634 }
            -
               depth: 2
               sample_count: 46355
               value: -1.1920498880880853e-05
               norm_class_idx: 0
               Tn: 0
               complexity: 0
               alpha: 0.
               node_risk: 2.1487860248500314e+09
               tree_risk: 0.
               tree_error: 0.
            -
               depth: 2
               sample_count: 1
               value: -1.
               norm_class_idx: 0
               Tn: 0
               complexity: 0
               alpha: 0.
               node_risk: 0.
               tree_risk: 0.
               tree_error: 0.
            -
               depth: 1
               sample_count: 1
               value: -1.
               norm_class_idx: 0
               Tn: 0
               complexity: 0
               alpha: 0.
               node_risk: 0.
               tree_risk: 0.
               tree_error: 0.
      -
         best_tree_idx: -1
         nodes:
            -
               depth: 0
               sample_count: 46357
               value: -1.4171422424650430e-11
               norm_class_idx: 0
               Tn: 0
               complexity: 0
               alpha: 0.
               node_risk: 2.1489714490242910e+09
               tree_risk: 0.
               tree_error: 0.
               splits:
                  - { var:39, quality:0.3248257339000702,
                      le:0.0943795442581177 }
            -
               depth: 1
               sample_count: 34067
               value: -0.6276379167392692
               norm_class_idx: 0
               Tn: 0
               complexity: 0
               alpha: 0.
               node_risk: 1.5563993411361887e+09
               tree_risk: 0.
               tree_error: 0.
               splits:
                  - { var:1, quality:7.0451246137344000e+13,
                      le:0.8458933830261230 }
            -
               depth: 2
               sample_count: 34066
               value: -0.6276325700172155
               norm_class_idx: 0
               Tn: 0
               complexity: 0
               alpha: 0.
               node_risk: 1.5563475512434363e+09
               tree_risk: 0.
               tree_error: 0.
            -
               depth: 2
               sample_count: 1
               value: -1.
               norm_class_idx: 0
               Tn: 0
               complexity: 0
               alpha: 0.
               node_risk: 0.
               tree_risk: 0.
               tree_error: 0.
            -
               depth: 1
               sample_count: 12290
               value: 0.5175379033260750
               norm_class_idx: 0
               Tn: 0
               complexity: 0
               alpha: 0.
               node_risk: 2.0177600081646696e+08
               tree_risk: 0.
               tree_error: 0.
               splits:
                  - { var:0, quality:6.4054347855392932e+18,
                      le:0.9551804065704346 }
            -
               depth: 2
               sample_count: 12289
               value: 0.5175379033433891
               norm_class_idx: 0
               Tn: 0
               complexity: 0
               alpha: 0.
               node_risk: 2.0174316634810778e+08
               tree_risk: 0.
               tree_error: 0.
            -
               depth: 2
               sample_count: 1
               value: -1.
               norm_class_idx: 0
               Tn: 0
               complexity: 0
               alpha: 0.
               node_risk: 0.
               tree_risk: 0.
               tree_error: 0.
      -
         best_tree_idx: -1
         nodes:
            -
               depth: 0
               sample_count: 46357
               value: -0.0154499179634170
               norm_class_idx: 0
               Tn: 0
               complexity: 0
               alpha: 0.
               node_risk: 2.1484584895993867e+09
               tree_risk: 0.
               tree_error: 0.
               splits:
                  - { var:0, quality:1.8981209391706931e+17,
                      le:0.9551804065704346 }
            -
               depth: 1
               sample_count: 46356
               value: -0.0154499179606672
               norm_class_idx: 0
               Tn: 0
               complexity: 0
               alpha: 0.
               node_risk: 2.1483657987361588e+09
               tree_risk: 0.
               tree_error: 0.
               splits:
                  - { var:0, quality:3.0493013671149568e+16,
                      le:0.9523359537124634 }
            -
               depth: 2
               sample_count: 46355
               value: -0.0154499179440171
               norm_class_idx: 0
               Tn: 0
               complexity: 0
               alpha: 0.
               node_risk: 2.1482731099037066e+09
               tree_risk: 0.
               tree_error: 0.
            -
               depth: 2
               sample_count: 1
               value: -1.
               norm_class_idx: 0
               Tn: 0
               complexity: 0
               alpha: 0.
               node_risk: 0.
               tree_risk: 0.
               tree_error: 0.
            -
               depth: 1
               sample_count: 1
               value: -1.
               norm_class_idx: 0
               Tn: 0
               complexity: 0
               alpha: 0.
               node_risk: 0.
               tree_risk: 0.
               tree_error: 0.
      -
         best_tree_idx: -1
         nodes:
            -
               depth: 0
               sample_count: 46357
               value: -1.2294819583947076e-06
               norm_class_idx: 0
               Tn: 0
               complexity: 0
               alpha: 0.
               node_risk: 2.1489714489989438e+09
               tree_risk: 0.
               tree_error: 0.
               splits:
                  - { var:0, quality:3.2031257600000000e+09,
                      le:0.9551804065704346 }
            -
               depth: 1
               sample_count: 46356
               value: -1.2294809308012950e-06
               norm_class_idx: 0
               Tn: 0
               complexity: 0
               alpha: 0.
               node_risk: 2.1488787360011525e+09
               tree_risk: 0.
               tree_error: 0.
               splits:
                  - { var:0, quality:523172352., le:0.9523359537124634 }
            -
               depth: 2
               sample_count: 46355
               value: -1.2294747087027813e-06
               norm_class_idx: 0
               Tn: 0
               complexity: 0
               alpha: 0.
               node_risk: 2.1487860250145226e+09
               tree_risk: 0.
               tree_error: 0.
            -
               depth: 2
               sample_count: 1
               value: -1.
               norm_class_idx: 0
               Tn: 0
               complexity: 0
               alpha: 0.
               node_risk: 0.
               tree_risk: 0.
               tree_error: 0.
            -
               depth: 1
               sample_count: 1
               value: -1.
               norm_class_idx: 0
               Tn: 0
               complexity: 0
               alpha: 0.
               node_risk: 0.
               tree_risk: 0.
               tree_error: 0.
      -
         best_tree_idx: -1
         nodes:
            -
               depth: 0
               sample_count: 46357
               value: -2.1439734482090758e-12
               norm_class_idx: 0
               Tn: 0
               complexity: 0
               alpha: 0.
               node_risk: 2.1489714489968162e+09
               tree_risk: 0.
               tree_error: 0.
               splits:
                  - { var:33, quality:0.2178805321455002,
                      le:0.0396416857838631 }
            -
               depth: 1
               sample_count: 23873
               value: -0.8317132978273049
               norm_class_idx: 0
               Tn: 0
               complexity: 0
               alpha: 0.
               node_risk: 7.3344304777004838e+08
               tree_risk: 0.
               tree_error: 0.
               splits:
                  - { var:0, quality:1.0352179580206821e+21,
                      le:0.9535728693008423 }
            -
               depth: 2
               sample_count: 23872
               value: -0.8317132978270394
               norm_class_idx: 0
               Tn: 0
               complexity: 0
               alpha: 0.
               node_risk: 7.3338160365661001e+08
               tree_risk: 0.
               tree_error: 0.
            -
               depth: 2
               sample_count: 1
               value: -1.
               norm_class_idx: 0
               Tn: 0
               complexity: 0
               alpha: 0.
               node_risk: 0.
               tree_risk: 0.
               tree_error: 0.
            -
               depth: 1
               sample_count: 22484
               value: 0.2619659687365374
               norm_class_idx: 0
               Tn: 0
               complexity: 0
               alpha: 0.
               node_risk: 6.1913808342816508e+08
               tree_risk: 0.
               tree_error: 0.
               splits:
                  - { var:0, quality:1.3333806097341874e+19,
                      le:0.9523359537124634 }
            -
               depth: 2
               sample_count: 22483
               value: 0.2619659687403359
               norm_class_idx: 0
               Tn: 0
               complexity: 0
               alpha: 0.
               node_risk: 6.1908301099363947e+08
               tree_risk: 0.
               tree_error: 0.
            -
               depth: 2
               sample_count: 1
               value: -1.
               norm_class_idx: 0
               Tn: 0
               complexity: 0
               alpha: 0.
               node_risk: 0.
               tree_risk: 0.
               tree_error: 0.
      -
         best_tree_idx: -1
         nodes:
            -
               depth: 0
               sample_count: 46357
               value: -0.0509347673507584
               norm_class_idx: 0
               Tn: 0
               complexity: 0
               alpha: 0.
               node_risk: 2.1433962637932377e+09
               tree_risk: 0.
               tree_error: 0.
               splits:
                  - { var:0, quality:1.2358143459318563e+19,
                      le:0.9551804065704346 }
            -
               depth: 1
               sample_count: 46356
               value: -0.0509347673506076
               norm_class_idx: 0
               Tn: 0
               complexity: 0
               alpha: 0.
               node_risk: 2.1433037913236318e+09
               tree_risk: 0.
               tree_error: 0.
               splits:
                  - { var:0, quality:4.4458098459704033e+18,
                      le:0.9523359537124634 }
            -
               depth: 2
               sample_count: 46355
               value: -0.0509347673496950
               norm_class_idx: 0
               Tn: 0
               complexity: 0
               alpha: 0.
               node_risk: 2.1432113208507228e+09
               tree_risk: 0.
               tree_error: 0.
            -
               depth: 2
               sample_count: 1
               value: -1.
               norm_class_idx: 0
               Tn: 0
               complexity: 0
               alpha: 0.
               node_risk: 0.
               tree_risk: 0.
               tree_error: 0.
            -
               depth: 1
               sample_count: 1
               value: -1.
               norm_class_idx: 0
               Tn: 0
               complexity: 0
               alpha: 0.
               node_risk: 0.
               tree_risk: 0.
               tree_error: 0.
      -
         best_tree_idx: -1
         nodes:
            -
               depth: 0
               sample_count: 46357
               value: -4.4116239477467488e-05
               norm_class_idx: 0
               Tn: 0
               complexity: 0
               alpha: 0.
               node_risk: 2.1489714448161416e+09
               tree_risk: 0.
               tree_error: 0.
               splits:
                  - { var:0, quality:1.5467343249408000e+13,
                      le:0.9551804065704346 }
            -
               depth: 1
               sample_count: 46356
               value: -4.4116239418961310e-05
               norm_class_idx: 0
               Tn: 0
               complexity: 0
               alpha: 0.
               node_risk: 2.1488787318164473e+09
               tree_risk: 0.
               tree_error: 0.
               splits:
                  - { var:0, quality:7.3862458900480000e+12,
                      le:0.9523359537124634 }
            -
               depth: 2
               sample_count: 46355
               value: -4.4116239064788028e-05
               norm_class_idx: 0
               Tn: 0
               complexity: 0
               alpha: 0.
               node_risk: 2.1487860208173890e+09
               tree_risk: 0.
               tree_error: 0.
            -
               depth: 2
               sample_count: 1
               value: -1.
               norm_class_idx: 0
               Tn: 0
               complexity: 0
               alpha: 0.
               node_risk: 0.
               tree_risk: 0.
               tree_error: 0.
            -
               depth: 1
               sample_count: 1
               value: -1.
               norm_class_idx: 0
               Tn: 0
               complexity: 0
               alpha: 0.
               node_risk: 0.
               tree_risk: 0.
               tree_error: 0.
      -
         best_tree_idx: -1
         nodes:
            -
               depth: 0
               sample_count: 46357
               value: -4.2042302798894330e-13
               norm_class_idx: 0
               Tn: 0
               complexity: 0
               alpha: 0.
               node_risk: 2.1489714490016809e+09
               tree_risk: 0.
               tree_error: 0.
               splits:
                  - { var:51, quality:0.1997400969266891,
                      le:0.1748919785022736 }
            -
               depth: 1
               sample_count: 30010
               value: 0.2549391775905517
               norm_class_idx: 0
               Tn: 0
               complexity: 0
               alpha: 0.
               node_risk: 1.1160689115001056e+09
               tree_risk: 0.
               tree_error: 0.
               splits:
                  - { var:0, quality:2.0632294529501296e+21,
                      le:0.9523359537124634 }
            -
               depth: 2
               sample_count: 30008
               value: 0.2549391775908042
               norm_class_idx: 0
               Tn: 0
               complexity: 0
               alpha: 0.
               node_risk: 1.1159201568555117e+09
               tree_risk: 0.
               tree_error: 0.
            -
               depth: 2
               sample_count: 2
               value: -1.
               norm_class_idx: 0
               Tn: 0
               complexity: 0
               alpha: 0.
               node_risk: 0.
               tree_risk: 0.
               tree_error: 0.
            -
               depth: 1
               sample_count: 16347
               value: -0.7834812529993500
               norm_class_idx: 0
               Tn: 0
               complexity: 0
               alpha: 0.
               node_risk: 4.2031687128154528e+08
               tree_risk: 0.
               tree_error: 0.
               splits:
                  - { var:1, quality:1.2149947419852800e+14,
                      le:0.8458933830261230 }
            -
               depth: 2
               sample_count: 16346
               value: -0.7834800623594124
               norm_class_idx: 0
               Tn: 0
               complexity: 0
               alpha: 0.
               node_risk: 4.2026979004665339e+08
               tree_risk: 0.
               tree_error: 0.
            -
               depth: 2
               sample_count: 1
               value: -1.
               norm_class_idx: 0
               Tn: 0
               complexity: 0
               alpha: 0.
               node_risk: 0.
               tree_risk: 0.
               tree_error: 0.
      -
         best_tree_idx: -1
         nodes:
            -
               depth: 0
               sample_count: 46357
               value: -0.0423904077199646
               norm_class_idx: 0
               Tn: 0
               complexity: 0
               alpha: 0.
               node_risk: 2.1451098619209359e+09
               tree_risk: 0.
               tree_error: 0.
               splits:
                  - { var:1, quality:6.9023102402560000e+12,
                      le:0.8458933830261230 }
            -
               depth: 1
               sample_count: 46356
               value: -0.0423898719953844
               norm_class_idx: 0
               Tn: 0
               complexity: 0
               alpha: 0.
               node_risk: 2.1450186131282716e+09
               tree_risk: 0.
               tree_error: 0.
               splits:
                  - { var:1, quality:3.8301353902080000e+12,
                      le:0.8284014463424683 }
            -
               depth: 2
               sample_count: 46355
               value: -0.0423889066276303
               norm_class_idx: 0
               Tn: 0
               complexity: 0
               alpha: 0.
               node_risk: 2.1449284068339078e+09
               tree_risk: 0.
               tree_error: 0.
            -
               depth: 2
               sample_count: 1
               value: -1.
               norm_class_idx: 0
               Tn: 0
               complexity: 0
               alpha: 0.
               node_risk: 0.
               tree_risk: 0.
               tree_error: 0.
            -
               depth: 1
               sample_count: 1
               value: -1.
               norm_class_idx: 0
               Tn: 0
               complexity: 0
               alpha: 0.
               node_risk: 0.
               tree_risk: 0.
               tree_error: 0.
      -
         best_tree_idx: -1
         nodes:
            -
               depth: 0
               sample_count: 46357
               value: -2.5992979463130300e-05
               norm_class_idx: 0
               Tn: 0
               complexity: 0
               alpha: 0.
               node_risk: 2.1489714475462050e+09
               tree_risk: 0.
               tree_error: 0.
               splits:
                  - { var:0, quality:3.0012132556800000e+13,
                      le:0.9523359537124634 }
            -
               depth: 1
               sample_count: 46355
               value: -2.5992979402791247e-05
               norm_class_idx: 0
               Tn: 0
               complexity: 0
               alpha: 0.
               node_risk: 2.1487860235464602e+09
               tree_risk: 0.
               tree_error: 0.
               splits:
                  - { var:1, quality:7.0475375000000000e+06,
                      le:0.8458933830261230 }
            -
               depth: 2
               sample_count: 46354
               value: -2.5786993207202673e-05
               norm_class_idx: 0
               Tn: 0
               complexity: 0
               alpha: 0.
               node_risk: 2.1486937571821065e+09
               tree_risk: 0.
               tree_error: 0.
            -
               depth: 2
               sample_count: 1
               value: -1.
               norm_class_idx: 0
               Tn: 0
               complexity: 0
               alpha: 0.
               node_risk: 0.
               tree_risk: 0.
               tree_error: 0.
            -
               depth: 1
               sample_count: 2
               value: -1.
               norm_class_idx: 0
               Tn: 0
               complexity: 0
               alpha: 0.
               node_risk: 0.
               tree_risk: 0.
               tree_error: 0.
      -
         best_tree_idx: -1
         nodes:
            -
               depth: 0
               sample_count: 46357
               value: -7.5780069268985496e-08
               norm_class_idx: 0
               Tn: 0
               complexity: 0
               alpha: 0.
               node_risk: 2.1489714490008831e+09
               tree_risk: 0.
               tree_error: 0.
               splits:
                  - { var:1, quality:162.8494415283203125,
                      le:0.8458933830261230 }
            -
               depth: 1
               sample_count: 46356
               value: -1.8700991338294069e-14
               norm_class_idx: 0
               Tn: 0
               complexity: 0
               alpha: 0.
               node_risk: 2.1488788988430471e+09
               tree_risk: 0.
               tree_error: 0.
               splits:
                  - { var:5, quality:0.1775261610746384,
                      le:0.0646338984370232 }
            -
               depth: 2
               sample_count: 30318
               value: -0.6002314485937754
               norm_class_idx: 0
               Tn: 0
               complexity: 0
               alpha: 0.
               node_risk: 1.7813701240612664e+09
               tree_risk: 0.
               tree_error: 0.
            -
               depth: 2
               sample_count: 16038
               value: 0.2957628673856736
               norm_class_idx: 0
               Tn: 0
               complexity: 0
               alpha: 0.
               node_risk: 3.5037362821729666e+08
               tree_risk: 0.
               tree_error: 0.
            -
               depth: 1
               sample_count: 1
               value: -1.
               norm_class_idx: 0
               Tn: 0
               complexity: 0
               alpha: 0.
               node_risk: 0.
               tree_risk: 0.
               tree_error: 0.
      -
         best_tree_idx: -1
         nodes:
            -
               depth: 0
               sample_count: 46357
               value: -0.0208089001360620
               norm_class_idx: 0
               Tn: 0
               complexity: 0
               alpha: 0.
               node_risk: 2.1480409221732078e+09
               tree_risk: 0.
               tree_error: 0.
               splits:
                  - { var:0, quality:6.3046892838652477e+18,
                      le:0.9551804065704346 }
            -
               depth: 1
               sample_count: 46356
               value: -0.0208089001360601
               norm_class_idx: 0
               Tn: 0
               complexity: 0
               alpha: 0.
               node_risk: 2.1479482493188977e+09
               tree_risk: 0.
               tree_error: 0.
               splits:
                  - { var:0, quality:5.9127694636561203e+18,
                      le:0.9523359537124634 }
            -
               depth: 2
               sample_count: 46355
               value: -0.0208089001360488
               norm_class_idx: 0
               Tn: 0
               complexity: 0
               alpha: 0.
               node_risk: 2.1478555784637437e+09
               tree_risk: 0.
               tree_error: 0.
            -
               depth: 2
               sample_count: 1
               value: -1.
               norm_class_idx: 0
               Tn: 0
               complexity: 0
               alpha: 0.
               node_risk: 0.
               tree_risk: 0.
               tree_error: 0.
            -
               depth: 1
               sample_count: 1
               value: -1.
               norm_class_idx: 0
               Tn: 0
               complexity: 0
               alpha: 0.
               node_risk: 0.
               tree_risk: 0.
               tree_error: 0.
      -
         best_tree_idx: -1
         nodes:
            -
               depth: 0
               sample_count: 46357
               value: -3.0042701526420081e-06
               norm_class_idx: 0
               Tn: 0
               complexity: 0
               alpha: 0.
               node_risk: 2.1489714489776893e+09
               tree_risk: 0.
               tree_error: 0.
               splits:
                  - { var:0, quality:1.4474441523200000e+11,
                      le:0.9551804065704346 }
            -
               depth: 1
               sample_count: 46356
               value: -3.0042701519481204e-06
               norm_class_idx: 0
               Tn: 0
               complexity: 0
               alpha: 0.
               node_risk: 2.1488787359776917e+09
               tree_risk: 0.
               tree_error: 0.
               splits:
                  - { var:0, quality:1.4096706764800000e+11,
                      le:0.9523359537124634 }
            -
               depth: 2
               sample_count: 46355
               value: -3.0042701477015300e-06
               norm_class_idx: 0
               Tn: 0
               complexity: 0
               alpha: 0.
               node_risk: 2.1487860249777012e+09
               tree_risk: 0.
               tree_error: 0.
            -
               depth: 2
               sample_count: 1
               value: -1.
               norm_class_idx: 0
               Tn: 0
               complexity: 0
               alpha: 0.
               node_risk: 0.
               tree_risk: 0.
               tree_error: 0.
            -
               depth: 1
               sample_count: 1
               value: -0.9999999999999999
               norm_class_idx: 0
               Tn: 0
               complexity: 0
               alpha: 0.
               node_risk: 0.2000847181701864
               tree_risk: 0.
               tree_error: 0.
      -
         best_tree_idx: -1
         nodes:
            -
               depth: 0
               sample_count: 46357
               value: -4.9762812956706391e-14
               norm_class_idx: 0
               Tn: 0
               complexity: 0
               alpha: 0.
               node_risk: 2.1489714490005631e+09
               tree_risk: 0.
               tree_error: 0.
               splits:
                  - { var:44, quality:0.1439408808946609,
                      le:0.0486308112740517 }
            -
               depth: 1
               sample_count: 26423
               value: -0.6203514129628453
               norm_class_idx: 0
               Tn: 0
               complexity: 0
               alpha: 0.
               node_risk: 1.5777691021677206e+09
               tree_risk: 0.
               tree_error: 0.
               splits:
                  - { var:0, quality:1.4549451679272970e+22,
                      le:0.9551804065704346 }
            -
               depth: 2
               sample_count: 26422
               value: -0.6203514129628449
               norm_class_idx: 0
               Tn: 0
               complexity: 0
               alpha: 0.
               node_risk: 1.5776496805088515e+09
               tree_risk: 0.
               tree_error: 0.
            -
               depth: 2
               sample_count: 1
               value: -1.
               norm_class_idx: 0
               Tn: 0
               complexity: 0
               alpha: 0.
               node_risk: 0.
               tree_risk: 0.
               tree_error: 0.
            -
               depth: 1
               sample_count: 19934
               value: 0.2320311991949498
               norm_class_idx: 0
               Tn: 0
               complexity: 0
               alpha: 0.
               node_risk: 5.1659594955418634e+08
               tree_risk: 0.
               tree_error: 0.
               splits:
                  - { var:1, quality:7.0899883992678400e+14,
                      le:0.8442586660385132 }
            -
               depth: 2
               sample_count: 19933
               value: 0.2320312502717869
               norm_class_idx: 0
               Tn: 0
               complexity: 0
               alpha: 0.
               node_risk: 5.1654412869252801e+08
               tree_risk: 0.
               tree_error: 0.
            -
               depth: 2
               sample_count: 1
               value: -1.
               norm_class_idx: 0
               Tn: 0
               complexity: 0
               alpha: 0.
               node_risk: 0.
               tree_risk: 0.
               tree_error: 0.
      -
         best_tree_idx: -1
         nodes:
            -
               depth: 0
               sample_count: 46358
               value: -0.0210927856381213
               norm_class_idx: 0
               Tn: 0
               complexity: 0
               alpha: 0.
               node_risk: 2.1481080333049932e+09
               tree_risk: 0.
               tree_error: 0.
               splits:
                  - { var:0, quality:3.9242169229162578e+18,
                      le:0.9654753208160400 }
            -
               depth: 1
               sample_count: 46357
               value: -0.0210927856381210
               norm_class_idx: 0
               Tn: 0
               complexity: 0
               alpha: 0.
               node_risk: 2.1480153595544167e+09
               tree_risk: 0.
               tree_error: 0.
               splits:
                  - { var:0, quality:3.9220349420909363e+18,
                      le:0.9568397998809814 }
            -
               depth: 2
               sample_count: 46356
               value: -0.0210927856381206
               norm_class_idx: 0
               Tn: 0
               complexity: 0
               alpha: 0.
               node_risk: 2.1479226878029513e+09
               tree_risk: 0.
               tree_error: 0.
            -
               depth: 2
               sample_count: 1
               value: -1.
               norm_class_idx: 0
               Tn: 0
               complexity: 0
               alpha: 0.
               node_risk: 0.
               tree_risk: 0.
               tree_error: 0.
            -
               depth: 1
               sample_count: 1
               value: -1.
               norm_class_idx: 0
               Tn: 0
               complexity: 0
               alpha: 0.
               node_risk: 0.
               tree_risk: 0.
               tree_error: 0.
      -
         best_tree_idx: -1
         nodes:
            -
               depth: 0
               sample_count: 46358
               value: -3.1289351107894812e-06
               norm_class_idx: 0
               Tn: 0
               complexity: 0
               alpha: 0.
               node_risk: 2.1490641639795880e+09
               tree_risk: 0.
               tree_error: 0.
               splits:
                  - { var:0, quality:4.8090599915520000e+12,
                      le:0.9654753208160400 }
            -
               depth: 1
               sample_count: 46357
               value: -3.1289351106507033e-06
               norm_class_idx: 0
               Tn: 0
               complexity: 0
               alpha: 0.
               node_risk: 2.1489714489795885e+09
               tree_risk: 0.
               tree_error: 0.
               splits:
                  - { var:0, quality:4.7905735966720000e+12,
                      le:0.9568397998809814 }
            -
               depth: 2
               sample_count: 46356
               value: -3.1289351105119263e-06
               norm_class_idx: 0
               Tn: 0
               complexity: 0
               alpha: 0.
               node_risk: 2.1488787359795904e+09
               tree_risk: 0.
               tree_error: 0.
            -
               depth: 2
               sample_count: 1
               value: -1.
               norm_class_idx: 0
               Tn: 0
               complexity: 0
               alpha: 0.
               node_risk: 0.
               tree_risk: 0.
               tree_error: 0.
            -
               depth: 1
               sample_count: 1
               value: -1.
               norm_class_idx: 0
               Tn: 0
               complexity: 0
               alpha: 0.
               node_risk: 0.
               tree_risk: 0.
               tree_error: 0.
      -
         best_tree_idx: -1
         nodes:
            -
               depth: 0
               sample_count: 46358
               value: 1.1277223187392128e-13
               norm_class_idx: 0
               Tn: 0
               complexity: 0
               alpha: 0.
               node_risk: 2.1490641639992323e+09
               tree_risk: 0.
               tree_error: 0.
               splits:
                  - { var:53, quality:0.1541280597448349,
                      le:0.3754477202892303 }
            -
               depth: 1
               sample_count: 11389
               value: -0.8441324705006736
               norm_class_idx: 0
               Tn: 0
               complexity: 0
               alpha: 0.
               node_risk: 2.0965241138554537e+08
               tree_risk: 0.
               tree_error: 0.
               splits:
                  - { var:21, quality:2.8192843130470400e+14,
                      le:0.7967842817306519 }
            -
               depth: 2
               sample_count: 11388
               value: -0.8441321831730972
               norm_class_idx: 0
               Tn: 0
               complexity: 0
               alpha: 0.
               node_risk: 2.0961633650784844e+08
               tree_risk: 0.
               tree_error: 0.
            -
               depth: 2
               sample_count: 1
               value: -1.
               norm_class_idx: 0
               Tn: 0
               complexity: 0
               alpha: 0.
               node_risk: 0.
               tree_risk: 0.
               tree_error: 0.
            -
               depth: 1
               sample_count: 34969
               value: 0.1825875295439247
               norm_class_idx: 0
               Tn: 0
               complexity: 0
               alpha: 0.
               node_risk: 1.4377467546210935e+09
               tree_risk: 0.
               tree_error: 0.
               splits:
                  - { var:1, quality:3.4599032470896640e+15,
                      le:0.8458933830261230 }
            -
               depth: 2
               sample_count: 34968
               value: 0.1825875464911682
               norm_class_idx: 0
               Tn: 0
               complexity: 0
               alpha: 0.
               node_risk: 1.4376645374058621e+09
               tree_risk: 0.
               tree_error: 0.
            -
               depth: 2
               sample_count: 1
               value: -1.
               norm_class_idx: 0
               Tn: 0
               complexity: 0
               alpha: 0.
               node_risk: 0.
               tree_risk: 0.
               tree_error: 0.
      -
         best_tree_idx: -1
         nodes:
            -
               depth: 0
               sample_count: 46358
               value: -0.0401591515720169
               norm_class_idx: 0
               Tn: 0
               complexity: 0
               alpha: 0.
               node_risk: 2.1455982447483463e+09
               tree_risk: 0.
               tree_error: 0.
               splits:
                  - { var:1, quality:7.2851429890457600e+14,
                      le:0.8458933830261230 }
            -
               depth: 1
               sample_count: 46357
               value: -0.0401591470056304
               norm_class_idx: 0
               Tn: 0
               complexity: 0
               alpha: 0.
               node_risk: 2.1455056902704375e+09
               tree_risk: 0.
               tree_error: 0.
               splits:
                  - { var:1, quality:2.0906732683264000e+13,
                      le:0.8284014463424683 }
            -
               depth: 2
               sample_count: 46356
               value: -0.0401589878967714
               norm_class_idx: 0
               Tn: 0
               complexity: 0
               alpha: 0.
               node_risk: 2.1454135098910575e+09
               tree_risk: 0.
               tree_error: 0.
            -
               depth: 2
               sample_count: 1
               value: -1.
               norm_class_idx: 0
               Tn: 0
               complexity: 0
               alpha: 0.
               node_risk: 0.
               tree_risk: 0.
               tree_error: 0.
            -
               depth: 1
               sample_count: 1
               value: -1.
               norm_class_idx: 0
               Tn: 0
               complexity: 0
               alpha: 0.
               node_risk: 0.
               tree_risk: 0.
               tree_error: 0.
      -
         best_tree_idx: -1
         nodes:
            -
               depth: 0
               sample_count: 46358
               value: -2.1672421992688008e-05
               norm_class_idx: 0
               Tn: 0
               complexity: 0
               alpha: 0.
               node_risk: 2.1490641629910903e+09
               tree_risk: 0.
               tree_error: 0.
               splits:
                  - { var:1, quality:576314688., le:0.8458933830261230 }
            -
               depth: 1
               sample_count: 46357
               value: -2.1670670452652120e-05
               norm_class_idx: 0
               Tn: 0
               complexity: 0
               alpha: 0.
               node_risk: 2.1489714517553883e+09
               tree_risk: 0.
               tree_error: 0.
               splits:
                  - { var:1, quality:16535099., le:0.8284014463424683 }
            -
               depth: 2
               sample_count: 46356
               value: -2.1609640684082270e-05
               norm_class_idx: 0
               Tn: 0
               complexity: 0
               alpha: 0.
               node_risk: 2.1488788699093595e+09
               tree_risk: 0.
               tree_error: 0.
            -
               depth: 2
               sample_count: 1
               value: -1.
               norm_class_idx: 0
               Tn: 0
               complexity: 0
               alpha: 0.
               node_risk: 0.
               tree_risk: 0.
               tree_error: 0.
            -
               depth: 1
               sample_count: 1
               value: -1.
               norm_class_idx: 0
               Tn: 0
               complexity: 0
               alpha: 0.
               node_risk: 0.
               tree_risk: 0.
               tree_error: 0.
      -
         best_tree_idx: -1
         nodes:
            -
               depth: 0
               sample_count: 46358
               value: -2.3096391496796427e-08
               norm_class_idx: 0
               Tn: 0
               complexity: 0
               alpha: 0.
               node_risk: 2.1490641639992685e+09
               tree_risk: 0.
               tree_error: 0.
               splits:
                  - { var:0, quality:15356990., le:0.9654753208160400 }
            -
               depth: 1
               sample_count: 46357
               value: -2.3096391469040851e-08
               norm_class_idx: 0
               Tn: 0
               complexity: 0
               alpha: 0.
               node_risk: 2.1489714489992685e+09
               tree_risk: 0.
               tree_error: 0.
               splits:
                  - { var:0, quality:15351944., le:0.9568397998809814 }
            -
               depth: 2
               sample_count: 46356
               value: -2.3096391441285275e-08
               norm_class_idx: 0
               Tn: 0
               complexity: 0
               alpha: 0.
               node_risk: 2.1488787359992685e+09
               tree_risk: 0.
               tree_error: 0.
            -
               depth: 2
               sample_count: 1
               value: -1.
               norm_class_idx: 0
               Tn: 0
               complexity: 0
               alpha: 0.
               node_risk: 0.
               tree_risk: 0.
               tree_error: 0.
            -
               depth: 1
               sample_count: 1
               value: -1.
               norm_class_idx: 0
               Tn: 0
               complexity: 0
               alpha: 0.
               node_risk: 0.
               tree_risk: 0.
               tree_error: 0.
      -
         best_tree_idx: -1
         nodes:
            -
               depth: 0
               sample_count: 46358
               value: 3.8094446217284440e-14
               norm_class_idx: 0
               Tn: 0
               complexity: 0
               alpha: 0.
               node_risk: 2.1490641639998136e+09
               tree_risk: 0.
               tree_error: 0.
               splits:
                  - { var:37, quality:0.1196119934320450,
                      le:0.0198909267783165 }
            -
               depth: 1
               sample_count: 19737
               value: -0.8898909343193139
               norm_class_idx: 0
               Tn: 0
               complexity: 0
               alpha: 0.
               node_risk: 6.1774972133938599e+08
               tree_risk: 0.
               tree_error: 0.
               splits:
                  - { var:20, quality:6.9481518019379200e+14,
                      le:0.9619857668876648 }
            -
               depth: 2
               sample_count: 19736
               value: -0.8898905617768696
               norm_class_idx: 0
               Tn: 0
               complexity: 0
               alpha: 0.
               node_risk: 6.1769118279183066e+08
               tree_risk: 0.
               tree_error: 0.
            -
               depth: 2
               sample_count: 1
               value: -1.
               norm_class_idx: 0
               Tn: 0
               complexity: 0
               alpha: 0.
               node_risk: 0.
               tree_risk: 0.
               tree_error: 0.
            -
               depth: 1
               sample_count: 26621
               value: 0.1344119703832014
               norm_class_idx: 0
               Tn: 0
               complexity: 0
               alpha: 0.
               node_risk: 8.0098133337898648e+08
               tree_risk: 0.
               tree_error: 0.
               splits:
                  - { var:0, quality:9.9452709096245953e+19,
                      le:0.9654753208160400 }
            -
               depth: 2
               sample_count: 26620
               value: 0.1344119703832014
               norm_class_idx: 0
               Tn: 0
               complexity: 0
               alpha: 0.
               node_risk: 8.0092115785671341e+08
               tree_risk: 0.
               tree_error: 0.
            -
               depth: 2
               sample_count: 1
               value: -1.
               norm_class_idx: 0
               Tn: 0
               complexity: 0
               alpha: 0.
               node_risk: 0.
               tree_risk: 0.
               tree_error: 0.
      -
         best_tree_idx: -1
         nodes:
            -
               depth: 0
               sample_count: 46358
               value: -0.0351096427668209
               norm_class_idx: 0
               Tn: 0
               complexity: 0
               alpha: 0.
               node_risk: 2.1464150405105493e+09
               tree_risk: 0.
               tree_error: 0.
               splits:
                  - { var:1, quality:3.3403367262781440e+15,
                      le:0.8458933830261230 }
            -
               depth: 1
               sample_count: 46357
               value: -0.0351096420016124
               norm_class_idx: 0
               Tn: 0
               complexity: 0
               alpha: 0.
               node_risk: 2.1463224416167409e+09
               tree_risk: 0.
               tree_error: 0.
               splits:
                  - { var:1, quality:9.5860893417472000e+13,
                      le:0.8284014463424683 }
            -
               depth: 2
               sample_count: 46356
               value: -0.0351096153390767
               norm_class_idx: 0
               Tn: 0
               complexity: 0
               alpha: 0.
               node_risk: 2.1462299062321029e+09
               tree_risk: 0.
               tree_error: 0.
            -
               depth: 2
               sample_count: 1
               value: -1.
               norm_class_idx: 0
               Tn: 0
               complexity: 0
               alpha: 0.
               node_risk: 0.
               tree_risk: 0.
               tree_error: 0.
            -
               depth: 1
               sample_count: 1
               value: -1.
               norm_class_idx: 0
               Tn: 0
               complexity: 0
               alpha: 0.
               node_risk: 0.
               tree_risk: 0.
               tree_error: 0.
      -
         best_tree_idx: -1
         nodes:
            -
               depth: 0
               sample_count: 46358
               value: -1.4447509266960776e-05
               norm_class_idx: 0
               Tn: 0
               complexity: 0
               alpha: 0.
               node_risk: 2.1490641635510702e+09
               tree_risk: 0.
               tree_error: 0.
               splits:
                  - { var:0, quality:6.6054929776640000e+12,
                      le:0.9654753208160400 }
            -
               depth: 1
               sample_count: 46357
               value: -1.4447509266960776e-05
               norm_class_idx: 0
               Tn: 0
               complexity: 0
               alpha: 0.
               node_risk: 2.1489714485510898e+09
               tree_risk: 0.
               tree_error: 0.
               splits:
                  - { var:0, quality:6.6043012710400000e+12,
                      le:0.9568397998809814 }
            -
               depth: 2
               sample_count: 46356
               value: -1.4447509266960776e-05
               norm_class_idx: 0
               Tn: 0
               complexity: 0
               alpha: 0.
               node_risk: 2.1488787355511093e+09
               tree_risk: 0.
               tree_error: 0.
            -
               depth: 2
               sample_count: 1
               value: -1.
               norm_class_idx: 0
               Tn: 0
               complexity: 0
               alpha: 0.
               node_risk: 0.
               tree_risk: 0.
               tree_error: 0.
            -
               depth: 1
               sample_count: 1
               value: -1.
               norm_class_idx: 0
               Tn: 0
               complexity: 0
               alpha: 0.
               node_risk: 0.
               tree_risk: 0.
               tree_error: 0.
      -
         best_tree_idx: -1
         nodes:
            -
               depth: 0
               sample_count: 46358
               value: -6.4320212567530564e-14
               norm_class_idx: 0
               Tn: 0
               complexity: 0
               alpha: 0.
               node_risk: 2.1490641639996972e+09
               tree_risk: 0.
               tree_error: 0.
               splits:
                  - { var:49, quality:0.0933080837130547,
                      le:0.4825036227703094 }
            -
               depth: 1
               sample_count: 16046
               value: 0.2492161266355518
               norm_class_idx: 0
               Tn: 0
               complexity: 0
               alpha: 0.
               node_risk: 4.0222093901632315e+08
               tree_risk: 0.
               tree_error: 0.
               splits:
                  - { var:58, quality:9.0207198117888000e+13, le:87. }
            -
               depth: 2
               sample_count: 16045
               value: 0.2492164954674314
               norm_class_idx: 0
               Tn: 0
               complexity: 0
               alpha: 0.
               node_risk: 4.0217084700580668e+08
               tree_risk: 0.
               tree_error: 0.
            -
               depth: 2
               sample_count: 1
               value: -1.
               norm_class_idx: 0
               Tn: 0
               complexity: 0
               alpha: 0.
               node_risk: 0.
               tree_risk: 0.
               tree_error: 0.
            -
               depth: 1
               sample_count: 30312
               value: -0.3744062887063446
               norm_class_idx: 0
               Tn: 0
               complexity: 0
               alpha: 0.
               node_risk: 1.9768889217677712e+09
               tree_risk: 0.
               tree_error: 0.
               splits:
                  - { var:0, quality:4.4936216209210800e+21,
                      le:0.9501280784606934 }
            -
               depth: 2
               sample_count: 30311
               value: -0.3744062887063439
               norm_class_idx: 0
               Tn: 0
               complexity: 0
               alpha: 0.
               node_risk: 1.9767584878595703e+09
               tree_risk: 0.
               tree_error: 0.
            -
               depth: 2
               sample_count: 1
               value: -1.
               norm_class_idx: 0
               Tn: 0
               complexity: 0
               alpha: 0.
               node_risk: 0.
               tree_risk: 0.
               tree_error: 0.
      -
         best_tree_idx: -1
         nodes:
            -
               depth: 0
               sample_count: 46358
               value: -4.1730499538105755e-03
               norm_class_idx: 0
               Tn: 0
               complexity: 0
               alpha: 0.
               node_risk: 2.1490267394529343e+09
               tree_risk: 0.
               tree_error: 0.
               splits:
                  - { var:0, quality:6.6355155651107226e+17,
                      le:0.9654753208160400 }
            -
               depth: 1
               sample_count: 46357
               value: -4.1730499538105755e-03
               norm_class_idx: 0
               Tn: 0
               complexity: 0
               alpha: 0.
               node_risk: 2.1489340260675054e+09
               tree_risk: 0.
               tree_error: 0.
               splits:
                  - { var:0, quality:6.6346854338317517e+17,
                      le:0.9568397998809814 }
            -
               depth: 2
               sample_count: 46356
               value: -4.1730499538105755e-03
               norm_class_idx: 0
               Tn: 0
               complexity: 0
               alpha: 0.
               node_risk: 2.1488413146820416e+09
               tree_risk: 0.
               tree_error: 0.
            -
               depth: 2
               sample_count: 1
               value: -1.
               norm_class_idx: 0
               Tn: 0
               complexity: 0
               alpha: 0.
               node_risk: 0.
               tree_risk: 0.
               tree_error: 0.
            -
               depth: 1
               sample_count: 1
               value: -1.
               norm_class_idx: 0
               Tn: 0
               complexity: 0
               alpha: 0.
               node_risk: 0.
               tree_risk: 0.
               tree_error: 0.
      -
         best_tree_idx: -1
         nodes:
            -
               depth: 0
               sample_count: 46358
               value: -2.4223894355889772e-08
               norm_class_idx: 0
               Tn: 0
               complexity: 0
               alpha: 0.
               node_risk: 2.1490641640008445e+09
               tree_risk: 0.
               tree_error: 0.
               splits:
                  - { var:1, quality:6.0059458007812500e+03,
                      le:0.8458933830261230 }
            -
               depth: 1
               sample_count: 46357
               value: -2.4013908165833460e-08
               norm_class_idx: 0
               Tn: 0
               complexity: 0
               alpha: 0.
               node_risk: 2.1489714494520998e+09
               tree_risk: 0.
               tree_error: 0.
               splits:
                  - { var:1, quality:169.3684387207031250,
                      le:0.8284014463424683 }
            -
               depth: 2
               sample_count: 46356
               value: -1.6697256973867786e-08
               norm_class_idx: 0
               Tn: 0
               complexity: 0
               alpha: 0.
               node_risk: 2.1488787521746769e+09
               tree_risk: 0.
               tree_error: 0.
            -
               depth: 2
               sample_count: 1
               value: -1.
               norm_class_idx: 0
               Tn: 0
               complexity: 0
               alpha: 0.
               node_risk: 0.
               tree_risk: 0.
               tree_error: 0.
            -
               depth: 1
               sample_count: 1
               value: -0.9999999999999999
               norm_class_idx: 0
               Tn: 0
               complexity: 0
               alpha: 0.
               node_risk: 5.8623116620371129e-07
               tree_risk: 0.
               tree_error: 0.
      -
         best_tree_idx: -1
         nodes:
            -
               depth: 0
               sample_count: 46358
               value: -2.7689045626639003e-09
               norm_class_idx: 0
               Tn: 0
               complexity: 0
               alpha: 0.
               node_risk: 2.1490641639994798e+09
               tree_risk: 0.
               tree_error: 0.
               splits:
                  - { var:1, quality:213.3257904052734375,
                      le:0.8458933830261230 }
            -
               depth: 1
               sample_count: 46357
               value: -2.6916549672626736e-09
               norm_class_idx: 0
               Tn: 0
               complexity: 0
               alpha: 0.
               node_risk: 2.1489714491654868e+09
               tree_risk: 0.
               tree_error: 0.
               splits:
                  - { var:1, quality:5.7843451499938965,
                      le:0.8284014463424683 }
            -
               depth: 2
               sample_count: 46356
               value: -9.3662057535995506e-15
               norm_class_idx: 0
               Tn: 0
               complexity: 0
               alpha: 0.
               node_risk: 2.1488787419494996e+09
               tree_risk: 0.
               tree_error: 0.
            -
               depth: 2
               sample_count: 1
               value: -1.
               norm_class_idx: 0
               Tn: 0
               complexity: 0
               alpha: 0.
               node_risk: 0.
               tree_risk: 0.
               tree_error: 0.
            -
               depth: 1
               sample_count: 1
               value: -1.
               norm_class_idx: 0
               Tn: 0
               complexity: 0
               alpha: 0.
               node_risk: 0.
               tree_risk: 0.
               tree_error: 0.
      -
         best_tree_idx: -1
         nodes:
            -
               depth: 0
               sample_count: 46358
               value: -1.0186271901384859e-09
               norm_class_idx: 0
               Tn: 0
               complexity: 0
               alpha: 0.
               node_risk: 2.1490641640007463e+09
               tree_risk: 0.
               tree_error: 0.
               splits:
                  - { var:1, quality:78.5421752929687500,
                      le:0.8458933830261230 }
            -
               depth: 1
               sample_count: 46357
               value: -9.9020864487183219e-10
               norm_class_idx: 0
               Tn: 0
               complexity: 0
               alpha: 0.
               node_risk: 2.1489714490618162e+09
               tree_risk: 0.
               tree_error: 0.
               splits:
                  - { var:1, quality:2.1280086040496826,
                      le:0.8284014463424683 }
            -
               depth: 2
               sample_count: 46356
               value: -7.5570517802502224e-15
               norm_class_idx: 0
               Tn: 0
               complexity: 0
               alpha: 0.
               node_risk: 2.1488787381896358e+09
               tree_risk: 0.
               tree_error: 0.
            -
               depth: 2
               sample_count: 1
               value: -1.
               norm_class_idx: 0
               Tn: 0
               complexity: 0
               alpha: 0.
               node_risk: 0.
               tree_risk: 0.
               tree_error: 0.
            -
               depth: 1
               sample_count: 1
               value: -1.
               norm_class_idx: 0
               Tn: 0
               complexity: 0
               alpha: 0.
               node_risk: 0.
               tree_risk: 0.
               tree_error: 0.
      -
         best_tree_idx: -1
         nodes:
            -
               depth: 0
               sample_count: 46358
               value: -3.7468142740431448e-10
               norm_class_idx: 0
               Tn: 0
               complexity: 0
               alpha: 0.
               node_risk: 2.1490641639998674e+09
               tree_risk: 0.
               tree_error: 0.
               splits:
                  - { var:0, quality:6.2352651367187500e+03,
                      le:0.9654753208160400 }
            -
               depth: 1
               sample_count: 46357
               value: -3.7468142740431448e-10
               norm_class_idx: 0
               Tn: 0
               complexity: 0
               alpha: 0.
               node_risk: 2.1489714489998674e+09
               tree_risk: 0.
               tree_error: 0.
               splits:
                  - { var:0, quality:6.2347773437500000e+03,
                      le:0.9568397998809814 }
            -
               depth: 2
               sample_count: 46356
               value: -3.7468142740431448e-10
               norm_class_idx: 0
               Tn: 0
               complexity: 0
               alpha: 0.
               node_risk: 2.1488787359998674e+09
               tree_risk: 0.
               tree_error: 0.
            -
               depth: 2
               sample_count: 1
               value: -1.
               norm_class_idx: 0
               Tn: 0
               complexity: 0
               alpha: 0.
               node_risk: 0.
               tree_risk: 0.
               tree_error: 0.
            -
               depth: 1
               sample_count: 1
               value: -1.
               norm_class_idx: 0
               Tn: 0
               complexity: 0
               alpha: 0.
               node_risk: 0.
               tree_risk: 0.
               tree_error: 0.
      -
         best_tree_idx: -1
         nodes:
            -
               depth: 0
               sample_count: 46358
               value: -6.6515261180899644e-15
               norm_class_idx: 0
               Tn: 0
               complexity: 0
               alpha: 0.
               node_risk: 2.1490641640000062e+09
               tree_risk: 0.
               tree_error: 0.
               splits:
                  - { var:55, quality:0.1020962223410606,
                      le:0.6169384717941284 }
            -
               depth: 1
               sample_count: 33340
               value: 0.1319087456829614
               norm_class_idx: 0
               Tn: 0
               complexity: 0
               alpha: 0.
               node_risk: 1.2783571029509850e+09
               tree_risk: 0.
               tree_error: 0.
               splits:
                  - { var:56, quality:6.4831612780544000e+13,
                      le:0.9946762919425964 }
            -
               depth: 2
               sample_count: 33339
               value: 0.1319091408903283
               norm_class_idx: 0
               Tn: 0
               complexity: 0
               alpha: 0.
               node_risk: 1.2782807286881256e+09
               tree_risk: 0.
               tree_error: 0.
            -
               depth: 2
               sample_count: 1
               value: -1.
               norm_class_idx: 0
               Tn: 0
               complexity: 0
               alpha: 0.
               node_risk: 0.
               tree_risk: 0.
               tree_error: 0.
            -
               depth: 1
               sample_count: 13018
               value: -0.7739913126408468
               norm_class_idx: 0
               Tn: 0
               complexity: 0
               alpha: 0.
               node_risk: 4.6662913674952281e+08
               tree_risk: 0.
               tree_error: 0.
               splits:
                  - { var:1, quality:9.7151231148194529e+18,
                      le:0.8458933830261230 }
            -
               depth: 2
               sample_count: 13017
               value: -0.7739913126246197
               norm_class_idx: 0
               Tn: 0
               complexity: 0
               alpha: 0.
               node_risk: 4.6655744973062694e+08
               tree_risk: 0.
               tree_error: 0.
            -
               depth: 2
               sample_count: 1
               value: -1.
               norm_class_idx: 0
               Tn: 0
               complexity: 0
               alpha: 0.
               node_risk: 0.
               tree_risk: 0.
               tree_error: 0.
      -
         best_tree_idx: -1
         nodes:
            -
               depth: 0
               sample_count: 46358
               value: -0.0246535263392243
               norm_class_idx: 0
               Tn: 0
               complexity: 0
               alpha: 0.
               node_risk: 2.1477579706221952e+09
               tree_risk: 0.
               tree_error: 0.
               splits:
                  - { var:1, quality:3.2257671422174822e+17,
                      le:0.8458933830261230 }
            -
               depth: 1
               sample_count: 46357
               value: -0.0246535263352428
               norm_class_idx: 0
               Tn: 0
               complexity: 0
               alpha: 0.
               node_risk: 2.1476653119832230e+09
               tree_risk: 0.
               tree_error: 0.
               splits:
                  - { var:1, quality:7.3263777620951040e+15,
                      le:0.8284014463424683 }
            -
               depth: 2
               sample_count: 46356
               value: -0.0246535261613347
               norm_class_idx: 0
               Tn: 0
               complexity: 0
               alpha: 0.
               node_risk: 2.1475726557351937e+09
               tree_risk: 0.
               tree_error: 0.
            -
               depth: 2
               sample_count: 1
               value: -1.
               norm_class_idx: 0
               Tn: 0
               complexity: 0
               alpha: 0.
               node_risk: 0.
               tree_risk: 0.
               tree_error: 0.
            -
               depth: 1
               sample_count: 1
               value: -1.
               norm_class_idx: 0
               Tn: 0
               complexity: 0
               alpha: 0.
               node_risk: 0.
               tree_risk: 0.
               tree_error: 0.
      -
         best_tree_idx: -1
         nodes:
            -
               depth: 0
               sample_count: 46358
               value: -4.9966638159999957e-06
               norm_class_idx: 0
               Tn: 0
               complexity: 0
               alpha: 0.
               node_risk: 2.1490641639451704e+09
               tree_risk: 0.
               tree_error: 0.
               splits:
                  - { var:1, quality:3.4472292352000000e+10,
                      le:0.8458933830261230 }
            -
               depth: 1
               sample_count: 46357
               value: -4.9966623138202387e-06
               norm_class_idx: 0
               Tn: 0
               complexity: 0
               alpha: 0.
               node_risk: 2.1489714489484015e+09
               tree_risk: 0.
               tree_error: 0.
               splits:
                  - { var:1, quality:816984000., le:0.8284014463424683 }
            -
               depth: 2
               sample_count: 46356
               value: -4.9965966998285529e-06
               norm_class_idx: 0
               Tn: 0
               complexity: 0
               alpha: 0.
               node_risk: 2.1488787360894017e+09
               tree_risk: 0.
               tree_error: 0.
            -
               depth: 2
               sample_count: 1
               value: -1.
               norm_class_idx: 0
               Tn: 0
               complexity: 0
               alpha: 0.
               node_risk: 0.
               tree_risk: 0.
               tree_error: 0.
            -
               depth: 1
               sample_count: 1
               value: -0.9999999999999999
               norm_class_idx: 0
               Tn: 0
               complexity: 0
               alpha: 0.
               node_risk: 8.9494244349346997e-05
               tree_risk: 0.
               tree_error: 0.
      -
         best_tree_idx: -1
         nodes:
            -
               depth: 0
               sample_count: 46358
               value: -2.4678690284361591e-11
               norm_class_idx: 0
               Tn: 0
               complexity: 0
               alpha: 0.
               node_risk: 2.1490641639998145e+09
               tree_risk: 0.
               tree_error: 0.
               splits:
                  - { var:0, quality:38.9034500122070312,
                      le:0.9654753208160400 }
            -
               depth: 1
               sample_count: 46357
               value: -2.4678690284361591e-11
               norm_class_idx: 0
               Tn: 0
               complexity: 0
               alpha: 0.
               node_risk: 2.1489714489998145e+09
               tree_risk: 0.
               tree_error: 0.
               splits:
                  - { var:0, quality:38.9014244079589844,
                      le:0.9568397998809814 }
            -
               depth: 2
               sample_count: 46356
               value: -2.4678690284361591e-11
               norm_class_idx: 0
               Tn: 0
               complexity: 0
               alpha: 0.
               node_risk: 2.1488787359998145e+09
               tree_risk: 0.
               tree_error: 0.
            -
               depth: 2
               sample_count: 1
               value: -1.
               norm_class_idx: 0
               Tn: 0
               complexity: 0
               alpha: 0.
               node_risk: 0.
               tree_risk: 0.
               tree_error: 0.
            -
               depth: 1
               sample_count: 1
               value: -1.
               norm_class_idx: 0
               Tn: 0
