%YAML:1.0
cogntree: !!opencv-ml-boost-tree
   boosting_type: GentleAdaboost
   splitting_criteria: Misclassification
   ntrees: 1000
   weight_trimming_rate: 0.9500000000000000
   is_classifier: 1
   var_all: 60
   var_count: 60
   ord_var_count: 60
   cat_var_count: 0
   training_params:
      use_surrogates: 0
      max_categories: 10
      max_depth: 2
      min_sample_count: 10
      cross_validation_folds: 0
      priors: !!opencv-matrix
         rows: 1
         cols: 2
         dt: d
         data: [ 1., 1. ]
   var_type: [ 0, 0, 0, 0, 0, 0, 0, 0, 0, 0, 0, 0, 0, 0, 0, 0, 0, 0, 0,
       0, 0, 0, 0, 0, 0, 0, 0, 0, 0, 0, 0, 0, 0, 0, 0, 0, 0, 0, 0, 0, 0,
       0, 0, 0, 0, 0, 0, 0, 0, 0, 0, 0, 0, 0, 0, 0, 0, 0, 0, 0 ]
   cat_count: !!opencv-matrix
      rows: 1
      cols: 1
      dt: i
      data: [ 2 ]
   cat_map: !!opencv-matrix
      rows: 1
      cols: 2
      dt: i
      data: [ 0, 1 ]
   trees:
      -
         best_tree_idx: -1
         nodes:
            -
               depth: 0
               sample_count: 46359
               value: 0.9448219331736553
               norm_class_idx: 0
               Tn: 0
               complexity: 0
               alpha: 0.
               node_risk: 2.3062928000008026e+08
               tree_risk: 0.
               tree_error: 0.
               splits:
                  - { var:0, quality:8.8937188032512000e+13,
                      le:0.9654753208160400 }
            -
               depth: 1
               sample_count: 46358
               value: 0.9448207429137901
               norm_class_idx: 0
               Tn: 0
               complexity: 0
               alpha: 0.
               node_risk: 2.3062913885154071e+08
               tree_risk: 0.
               tree_error: 0.
               splits:
                  - { var:0, quality:8.8933119557632000e+13,
                      le:0.9592331647872925 }
            -
               depth: 2
               sample_count: 46357
               value: 0.9448195526025731
               norm_class_idx: 0
               Tn: 0
               complexity: 0
               alpha: 0.
               node_risk: 2.3062899769691151e+08
               tree_risk: 0.
               tree_error: 0.
            -
               depth: 2
               sample_count: 1
               value: 1.
               norm_class_idx: 0
               Tn: 0
               complexity: 0
               alpha: 0.
               node_risk: 0.
               tree_risk: 0.
               tree_error: 0.
            -
               depth: 1
               sample_count: 1
               value: 1.
               norm_class_idx: 0
               Tn: 0
               complexity: 0
               alpha: 0.
               node_risk: 0.
               tree_risk: 0.
               tree_error: 0.
      -
         best_tree_idx: -1
         nodes:
            -
               depth: 0
               sample_count: 46357
               value: 0.6838647357098149
               norm_class_idx: 0
               Tn: 0
               complexity: 0
               alpha: 0.
               node_risk: 1.1440003103601089e+09
               tree_risk: 0.
               tree_error: 0.
               splits:
                  - { var:0, quality:5.3809023811584000e+13,
                      le:0.9551804065704346 }
            -
               depth: 1
               sample_count: 46356
               value: 0.6838588310671302
               norm_class_idx: 0
               Tn: 0
               complexity: 0
               alpha: 0.
               node_risk: 1.1439896761419504e+09
               tree_risk: 0.
               tree_error: 0.
               splits:
                  - { var:0, quality:5.3805773225984000e+13,
                      le:0.9523359537124634 }
            -
               depth: 2
               sample_count: 46355
               value: 0.6838529262038726
               norm_class_idx: 0
               Tn: 0
               complexity: 0
               alpha: 0.
               node_risk: 1.1439790415921605e+09
               tree_risk: 0.
               tree_error: 0.
            -
               depth: 2
               sample_count: 1
               value: 1.
               norm_class_idx: 0
               Tn: 0
               complexity: 0
               alpha: 0.
               node_risk: 0.
               tree_risk: 0.
               tree_error: 0.
            -
               depth: 1
               sample_count: 1
               value: 1.
               norm_class_idx: 0
               Tn: 0
               complexity: 0
               alpha: 0.
               node_risk: 0.
               tree_risk: 0.
               tree_error: 0.
      -
         best_tree_idx: -1
         nodes:
            -
               depth: 0
               sample_count: 46357
               value: 0.1513085818849653
               norm_class_idx: 0
               Tn: 0
               complexity: 0
               alpha: 0.
               node_risk: 2.0998092746560078e+09
               tree_risk: 0.
               tree_error: 0.
               splits:
                  - { var:0, quality:5.2850033950720000e+12,
                      le:0.9551804065704346 }
            -
               depth: 1
               sample_count: 46356
               value: 0.1513006813726635
               norm_class_idx: 0
               Tn: 0
               complexity: 0
               alpha: 0.
               node_risk: 2.0997433666570833e+09
               tree_risk: 0.
               tree_error: 0.
               splits:
                  - { var:0, quality:5.2842237788160000e+12,
                      le:0.9523359537124634 }
            -
               depth: 2
               sample_count: 46355
               value: 0.1512927807132677
               norm_class_idx: 0
               Tn: 0
               complexity: 0
               alpha: 0.
               node_risk: 2.0996774587694159e+09
               tree_risk: 0.
               tree_error: 0.
            -
               depth: 2
               sample_count: 1
               value: 1.
               norm_class_idx: 0
               Tn: 0
               complexity: 0
               alpha: 0.
               node_risk: 0.
               tree_risk: 0.
               tree_error: 0.
            -
               depth: 1
               sample_count: 1
               value: 1.
               norm_class_idx: 0
               Tn: 0
               complexity: 0
               alpha: 0.
               node_risk: 0.
               tree_risk: 0.
               tree_error: 0.
      -
         best_tree_idx: -1
         nodes:
            -
               depth: 0
               sample_count: 46357
               value: 1.1773765713039928e-03
               norm_class_idx: 0
               Tn: 0
               complexity: 0
               alpha: 0.
               node_risk: 2.1489825608491273e+09
               tree_risk: 0.
               tree_error: 0.
               splits:
                  - { var:0, quality:859816384., le:0.9551804065704346 }
            -
               depth: 1
               sample_count: 46356
               value: 1.1739161439721579e-03
               norm_class_idx: 0
               Tn: 0
               complexity: 0
               alpha: 0.
               node_risk: 2.1488973096967516e+09
               tree_risk: 0.
               tree_error: 0.
               splits:
                  - { var:0, quality:854732736., le:0.9523359537124634 }
            -
               depth: 2
               sample_count: 46355
               value: 1.1704556926628940e-03
               norm_class_idx: 0
               Tn: 0
               complexity: 0
               alpha: 0.
               node_risk: 2.1488120599008422e+09
               tree_risk: 0.
               tree_error: 0.
            -
               depth: 2
               sample_count: 1
               value: 0.9999999999999999
               norm_class_idx: 0
               Tn: 0
               complexity: 0
               alpha: 0.
               node_risk: 3.5285500861673432e-11
               tree_risk: 0.
               tree_error: 0.
            -
               depth: 1
               sample_count: 1
               value: 0.9999999999999999
               norm_class_idx: 0
               Tn: 0
               complexity: 0
               alpha: 0.
               node_risk: 3.5285500861673432e-11
               tree_risk: 0.
               tree_error: 0.
      -
         best_tree_idx: -1
         nodes:
            -
               depth: 0
               sample_count: 46357
               value: 2.5495799857524488e-06
               norm_class_idx: 0
               Tn: 0
               complexity: 0
               alpha: 0.
               node_risk: 2.1489766327316098e+09
               tree_risk: 0.
               tree_error: 0.
               splits:
                  - { var:0, quality:1.0960043945312500e+04,
                      le:0.9551804065704346 }
            -
               depth: 1
               sample_count: 46356
               value: 1.2750589072256212e-06
               norm_class_idx: 0
               Tn: 0
               complexity: 0
               alpha: 0.
               node_risk: 2.1488866583232760e+09
               tree_risk: 0.
               tree_error: 0.
               splits:
                  - { var:0, quality:2.7411079101562500e+03,
                      le:0.9523359537124634 }
            -
               depth: 2
               sample_count: 46355
               value: 5.3457987841024635e-10
               norm_class_idx: 0
               Tn: 0
               complexity: 0
               alpha: 0.
               node_risk: 2.1487966856786213e+09
               tree_risk: 0.
               tree_error: 0.
            -
               depth: 2
               sample_count: 1
               value: 1.
               norm_class_idx: 0
               Tn: 0
               complexity: 0
               alpha: 0.
               node_risk: 0.
               tree_risk: 0.
               tree_error: 0.
            -
               depth: 1
               sample_count: 1
               value: 1.
               norm_class_idx: 0
               Tn: 0
               complexity: 0
               alpha: 0.
               node_risk: 0.
               tree_risk: 0.
               tree_error: 0.
      -
         best_tree_idx: -1
         nodes:
            -
               depth: 0
               sample_count: 46357
               value: 9.3774237817234381e-07
               norm_class_idx: 0
               Tn: 0
               complexity: 0
               alpha: 0.
               node_risk: 2.1489733559917483e+09
               tree_risk: 0.
               tree_error: 0.
               splits:
                  - { var:0, quality:4.0302705078125000e+03,
                      le:0.9551804065704346 }
            -
               depth: 1
               sample_count: 46356
               value: 4.6887114255429085e-07
               norm_class_idx: 0
               Tn: 0
               complexity: 0
               alpha: 0.
               node_risk: 2.1488816504601593e+09
               tree_risk: 0.
               tree_error: 0.
               splits:
                  - { var:0, quality:1.0075456542968750e+03,
                      le:0.9523359537124634 }
            -
               depth: 2
               sample_count: 46355
               value: -5.3274485172684392e-13
               norm_class_idx: 0
               Tn: 0
               complexity: 0
               alpha: 0.
               node_risk: 2.1487899468416333e+09
               tree_risk: 0.
               tree_error: 0.
            -
               depth: 2
               sample_count: 1
               value: 0.9999999999999999
               norm_class_idx: 0
               Tn: 0
               complexity: 0
               alpha: 0.
               node_risk: 2.4080943769543501e-10
               tree_risk: 0.
               tree_error: 0.
            -
               depth: 1
               sample_count: 1
               value: 0.9999999999999999
               norm_class_idx: 0
               Tn: 0
               complexity: 0
               alpha: 0.
               node_risk: 2.4080943769543501e-10
               tree_risk: 0.
               tree_error: 0.
      -
         best_tree_idx: -1
         nodes:
            -
               depth: 0
               sample_count: 46357
               value: 3.4497679239586801e-07
               norm_class_idx: 0
               Tn: 0
               complexity: 0
               alpha: 0.
               node_risk: 2.1489721505473719e+09
               tree_risk: 0.
               tree_error: 0.
               splits:
                  - { var:0, quality:1.4826601562500000e+03,
                      le:0.9551804065704346 }
            -
               depth: 1
               sample_count: 46356
               value: 1.7248855087687997e-07
               norm_class_idx: 0
               Tn: 0
               complexity: 0
               alpha: 0.
               node_risk: 2.1488798081738601e+09
               tree_risk: 0.
               tree_error: 0.
               splits:
                  - { var:0, quality:370.6577148437500000,
                      le:0.9523359537124634 }
            -
               depth: 2
               sample_count: 46355
               value: 2.4985347420715998e-13
               norm_class_idx: 0
               Tn: 0
               complexity: 0
               alpha: 0.
               node_risk: 2.1487874677683654e+09
               tree_risk: 0.
               tree_error: 0.
            -
               depth: 2
               sample_count: 1
               value: 0.9999999999999999
               norm_class_idx: 0
               Tn: 0
               complexity: 0
               alpha: 0.
               node_risk: 8.8967516928740692e-10
               tree_risk: 0.
               tree_error: 0.
            -
               depth: 1
               sample_count: 1
               value: 0.9999999999999999
               norm_class_idx: 0
               Tn: 0
               complexity: 0
               alpha: 0.
               node_risk: 8.8967516928740692e-10
               tree_risk: 0.
               tree_error: 0.
      -
         best_tree_idx: -1
         nodes:
            -
               depth: 0
               sample_count: 46357
               value: 1.2690970677496252e-07
               norm_class_idx: 0
               Tn: 0
               complexity: 0
               alpha: 0.
               node_risk: 2.1489717070847154e+09
               tree_risk: 0.
               tree_error: 0.
               splits:
                  - { var:0, quality:545.4387817382812500,
                      le:0.9551804065704346 }
            -
               depth: 1
               sample_count: 46356
               value: 6.3454808120091709e-08
               norm_class_idx: 0
               Tn: 0
               complexity: 0
               alpha: 0.
               node_risk: 2.1488791304305220e+09
               tree_risk: 0.
               tree_error: 0.
               splits:
                  - { var:0, quality:136.3565673828125000,
                      le:0.9523359537124634 }
            -
               depth: 2
               sample_count: 46355
               value: -9.8587828938563051e-14
               norm_class_idx: 0
               Tn: 0
               complexity: 0
               alpha: 0.
               node_risk: 2.1487865557645640e+09
               tree_risk: 0.
               tree_error: 0.
            -
               depth: 2
               sample_count: 1
               value: 1.
               norm_class_idx: 0
               Tn: 0
               complexity: 0
               alpha: 0.
               node_risk: 0.
               tree_risk: 0.
               tree_error: 0.
            -
               depth: 1
               sample_count: 1
               value: 1.
               norm_class_idx: 0
               Tn: 0
               complexity: 0
               alpha: 0.
               node_risk: 0.
               tree_risk: 0.
               tree_error: 0.
      -
         best_tree_idx: -1
         nodes:
            -
               depth: 0
               sample_count: 46357
               value: 4.6687623802810710e-08
               norm_class_idx: 0
               Tn: 0
               complexity: 0
               alpha: 0.
               node_risk: 2.1489715439433861e+09
               tree_risk: 0.
               tree_error: 0.
               splits:
                  - { var:0, quality:200.6567687988281250,
                      le:0.9551804065704346 }
            -
               depth: 1
               sample_count: 46356
               value: 2.3343868331813422e-08
               norm_class_idx: 0
               Tn: 0
               complexity: 0
               alpha: 0.
               node_risk: 2.1488788811021981e+09
               tree_risk: 0.
               tree_error: 0.
               splits:
                  - { var:0, quality:50.1633491516113281,
                      le:0.9523359537124634 }
            -
               depth: 2
               sample_count: 46355
               value: 1.1177095421906027e-13
               norm_class_idx: 0
               Tn: 0
               complexity: 0
               alpha: 0.
               node_risk: 2.1487862202566805e+09
               tree_risk: 0.
               tree_error: 0.
            -
               depth: 2
               sample_count: 1
               value: 1.
               norm_class_idx: 0
               Tn: 0
               complexity: 0
               alpha: 0.
               node_risk: 0.
               tree_risk: 0.
               tree_error: 0.
            -
               depth: 1
               sample_count: 1
               value: 1.
               norm_class_idx: 0
               Tn: 0
               complexity: 0
               alpha: 0.
               node_risk: 0.
               tree_risk: 0.
               tree_error: 0.
      -
         best_tree_idx: -1
         nodes:
            -
               depth: 0
               sample_count: 46357
               value: 1.7175486115129766e-08
               norm_class_idx: 0
               Tn: 0
               complexity: 0
               alpha: 0.
               node_risk: 2.1489714839264426e+09
               tree_risk: 0.
               tree_error: 0.
               splits:
                  - { var:0, quality:73.8148345947265625,
                      le:0.9551804065704346 }
            -
               depth: 1
               sample_count: 46356
               value: 8.5877980163937923e-09
               norm_class_idx: 0
               Tn: 0
               complexity: 0
               alpha: 0.
               node_risk: 2.1488787893788371e+09
               tree_risk: 0.
               tree_error: 0.
               splits:
                  - { var:0, quality:18.4535465240478516,
                      le:0.9523359537124634 }
            -
               depth: 2
               sample_count: 46355
               value: 1.0977016104291001e-13
               norm_class_idx: 0
               Tn: 0
               complexity: 0
               alpha: 0.
               node_risk: 2.1487860968296399e+09
               tree_risk: 0.
               tree_error: 0.
            -
               depth: 2
               sample_count: 1
               value: 1.
               norm_class_idx: 0
               Tn: 0
               complexity: 0
               alpha: 0.
               node_risk: 0.
               tree_risk: 0.
               tree_error: 0.
            -
               depth: 1
               sample_count: 1
               value: 1.
               norm_class_idx: 0
               Tn: 0
               complexity: 0
               alpha: 0.
               node_risk: 0.
               tree_risk: 0.
               tree_error: 0.
      -
         best_tree_idx: -1
         nodes:
            -
               depth: 0
               sample_count: 46357
               value: 6.3184120976182051e-09
               norm_class_idx: 0
               Tn: 0
               complexity: 0
               alpha: 0.
               node_risk: 2.1489714618508430e+09
               tree_risk: 0.
               tree_error: 0.
               splits:
                  - { var:0, quality:27.1552200317382812,
                      le:0.9551804065704346 }
            -
               depth: 1
               sample_count: 46356
               value: 3.1591781586897537e-09
               norm_class_idx: 0
               Tn: 0
               complexity: 0
               alpha: 0.
               node_risk: 2.1488787556390991e+09
               tree_risk: 0.
               tree_error: 0.
               splits:
                  - { var:0, quality:6.7885384559631348,
                      le:0.9523359537124634 }
            -
               depth: 2
               sample_count: 46355
               value: -5.5800200216699284e-14
               norm_class_idx: 0
               Tn: 0
               complexity: 0
               alpha: 0.
               node_risk: 2.1487860514267707e+09
               tree_risk: 0.
               tree_error: 0.
            -
               depth: 2
               sample_count: 1
               value: 1.
               norm_class_idx: 0
               Tn: 0
               complexity: 0
               alpha: 0.
               node_risk: 0.
               tree_risk: 0.
               tree_error: 0.
            -
               depth: 1
               sample_count: 1
               value: 1.
               norm_class_idx: 0
               Tn: 0
               complexity: 0
               alpha: 0.
               node_risk: 0.
               tree_risk: 0.
               tree_error: 0.
      -
         best_tree_idx: -1
         nodes:
            -
               depth: 0
               sample_count: 46357
               value: 2.3240522195660607e-09
               norm_class_idx: 0
               Tn: 0
               complexity: 0
               alpha: 0.
               node_risk: 2.1489714537254877e+09
               tree_risk: 0.
               tree_error: 0.
               splits:
                  - { var:0, quality:9.9828195571899414,
                      le:0.9551804065704346 }
            -
               depth: 1
               sample_count: 46356
               value: 1.1618349792461214e-09
               norm_class_idx: 0
               Tn: 0
               complexity: 0
               alpha: 0.
               node_risk: 2.1488787432227478e+09
               tree_risk: 0.
               tree_error: 0.
               splits:
                  - { var:0, quality:2.4948301315307617,
                      le:0.9523359537124634 }
            -
               depth: 2
               sample_count: 46355
               value: -3.8226377531559367e-13
               norm_class_idx: 0
               Tn: 0
               complexity: 0
               alpha: 0.
               node_risk: 2.1487860347197924e+09
               tree_risk: 0.
               tree_error: 0.
            -
               depth: 2
               sample_count: 1
               value: 1.
               norm_class_idx: 0
               Tn: 0
               complexity: 0
               alpha: 0.
               node_risk: 0.
               tree_risk: 0.
               tree_error: 0.
            -
               depth: 1
               sample_count: 1
               value: 1.
               norm_class_idx: 0
               Tn: 0
               complexity: 0
               alpha: 0.
               node_risk: 0.
               tree_risk: 0.
               tree_error: 0.
      -
         best_tree_idx: -1
         nodes:
            -
               depth: 0
               sample_count: 46357
               value: 8.5566273569698952e-10
               norm_class_idx: 0
               Tn: 0
               complexity: 0
               alpha: 0.
               node_risk: 2.1489714507443910e+09
               tree_risk: 0.
               tree_error: 0.
               splits:
                  - { var:0, quality:3.6868662834167480,
                      le:0.9551804065704346 }
            -
               depth: 1
               sample_count: 46356
               value: 4.2810691145447207e-10
               norm_class_idx: 0
               Tn: 0
               complexity: 0
               alpha: 0.
               node_risk: 2.1488787386630807e+09
               tree_risk: 0.
               tree_error: 0.
               splits:
                  - { var:0, quality:0.9228844046592712,
                      le:0.9523359537124634 }
            -
               depth: 2
               sample_count: 46355
               value: 5.5108684634667092e-13
               norm_class_idx: 0
               Tn: 0
               complexity: 0
               alpha: 0.
               node_risk: 2.1487860285816927e+09
               tree_risk: 0.
               tree_error: 0.
            -
               depth: 2
               sample_count: 1
               value: 0.9999999999999999
               norm_class_idx: 0
               Tn: 0
               complexity: 0
               alpha: 0.
               node_risk: 2.8280996610289085e-07
               tree_risk: 0.
               tree_error: 0.
            -
               depth: 1
               sample_count: 1
               value: 0.9999999999999999
               norm_class_idx: 0
               Tn: 0
               complexity: 0
               alpha: 0.
               node_risk: 2.8280996610289085e-07
               tree_risk: 0.
               tree_error: 0.
      -
         best_tree_idx: -1
         nodes:
            -
               depth: 0
               sample_count: 46357
               value: 3.1413090508318560e-10
               norm_class_idx: 0
               Tn: 0
               complexity: 0
               alpha: 0.
               node_risk: 2.1489714496349993e+09
               tree_risk: 0.
               tree_error: 0.
               splits:
                  - { var:0, quality:1.3434016704559326,
                      le:0.9551804065704346 }
            -
               depth: 1
               sample_count: 46356
               value: 1.5684191767117501e-10
               norm_class_idx: 0
               Tn: 0
               complexity: 0
               alpha: 0.
               node_risk: 2.1488787369729662e+09
               tree_risk: 0.
               tree_error: 0.
               splits:
                  - { var:0, quality:0.3348878622055054,
                      le:0.9523359537124634 }
            -
               depth: 2
               sample_count: 46355
               value: -4.4706979031518528e-13
               norm_class_idx: 0
               Tn: 0
               complexity: 0
               alpha: 0.
               node_risk: 2.1487860263109045e+09
               tree_risk: 0.
               tree_error: 0.
            -
               depth: 2
               sample_count: 1
               value: 1.
               norm_class_idx: 0
               Tn: 0
               complexity: 0
               alpha: 0.
               node_risk: 0.
               tree_risk: 0.
               tree_error: 0.
            -
               depth: 1
               sample_count: 1
               value: 1.
               norm_class_idx: 0
               Tn: 0
               complexity: 0
               alpha: 0.
               node_risk: 0.
               tree_risk: 0.
               tree_error: 0.
      -
         best_tree_idx: -1
         nodes:
            -
               depth: 0
               sample_count: 46357
               value: 1.1580417518137029e-10
               norm_class_idx: 0
               Tn: 0
               complexity: 0
               alpha: 0.
               node_risk: 2.1489714492391858e+09
               tree_risk: 0.
               tree_error: 0.
               splits:
                  - { var:0, quality:0.5021750926971436,
                      le:0.9551804065704346 }
            -
               depth: 1
               sample_count: 46356
               value: 5.7940794424751469e-11
               norm_class_idx: 0
               Tn: 0
               complexity: 0
               alpha: 0.
               node_risk: 2.1488787363635173e+09
               tree_risk: 0.
               tree_error: 0.
               splits:
                  - { var:39, quality:0.1824778467416763,
                      le:0.0322429984807968 }
            -
               depth: 2
               sample_count: 23237
               value: 0.6314439289526173
               norm_class_idx: 0
               Tn: 0
               complexity: 0
               alpha: 0.
               node_risk: 1.0340659464935017e+09
               tree_risk: 0.
               tree_error: 0.
            -
               depth: 2
               sample_count: 23119
               value: -0.2889874834331825
               norm_class_idx: 0
               Tn: 0
               complexity: 0
               alpha: 0.
               node_risk: 7.1403693329852641e+08
               tree_risk: 0.
               tree_error: 0.
            -
               depth: 1
               sample_count: 1
               value: 1.
               norm_class_idx: 0
               Tn: 0
               complexity: 0
               alpha: 0.
               node_risk: 0.
               tree_risk: 0.
               tree_error: 0.
      -
         best_tree_idx: -1
         nodes:
            -
               depth: 0
               sample_count: 46357
               value: 0.0242296922998624
               norm_class_idx: 0
               Tn: 0
               complexity: 0
               alpha: 0.
               node_risk: 2.1477098352625170e+09
               tree_risk: 0.
               tree_error: 0.
               splits:
                  - { var:0, quality:5.4756727035265024e+16,
                      le:0.9551804065704346 }
            -
               depth: 1
               sample_count: 46356
               value: 0.0242296922768290
               norm_class_idx: 0
               Tn: 0
               complexity: 0
               alpha: 0.
               node_risk: 2.1476171767453675e+09
               tree_risk: 0.
               tree_error: 0.
               splits:
                  - { var:0, quality:1.4823767163273216e+16,
                      le:0.9523359537124634 }
            -
               depth: 2
               sample_count: 46355
               value: 0.0242296921932387
               norm_class_idx: 0
               Tn: 0
               complexity: 0
               alpha: 0.
               node_risk: 2.1475245203666229e+09
               tree_risk: 0.
               tree_error: 0.
            -
               depth: 2
               sample_count: 1
               value: 1.
               norm_class_idx: 0
               Tn: 0
               complexity: 0
               alpha: 0.
               node_risk: 0.
               tree_risk: 0.
               tree_error: 0.
            -
               depth: 1
               sample_count: 1
               value: 1.
               norm_class_idx: 0
               Tn: 0
               complexity: 0
               alpha: 0.
               node_risk: 0.
               tree_risk: 0.
               tree_error: 0.
      -
         best_tree_idx: -1
         nodes:
            -
               depth: 0
               sample_count: 46357
               value: 4.7432838561073825e-06
               norm_class_idx: 0
               Tn: 0
               complexity: 0
               alpha: 0.
               node_risk: 2.1489714489849796e+09
               tree_risk: 0.
               tree_error: 0.
               splits:
                  - { var:0, quality:5.5076802560000000e+09,
                      le:0.9551804065704346 }
            -
               depth: 1
               sample_count: 46356
               value: 4.7432751697081280e-06
               norm_class_idx: 0
               Tn: 0
               complexity: 0
               alpha: 0.
               node_risk: 2.1488787360036473e+09
               tree_risk: 0.
               tree_error: 0.
               splits:
                  - { var:0, quality:1529136128., le:0.9523359537124634 }
            -
               depth: 2
               sample_count: 46355
               value: 4.7432436458242694e-06
               norm_class_idx: 0
               Tn: 0
               complexity: 0
               alpha: 0.
               node_risk: 2.1487860250713854e+09
               tree_risk: 0.
               tree_error: 0.
            -
               depth: 2
               sample_count: 1
               value: 1.
               norm_class_idx: 0
               Tn: 0
               complexity: 0
               alpha: 0.
               node_risk: 0.
               tree_risk: 0.
               tree_error: 0.
            -
               depth: 1
               sample_count: 1
               value: 1.
               norm_class_idx: 0
               Tn: 0
               complexity: 0
               alpha: 0.
               node_risk: 0.
               tree_risk: 0.
               tree_error: 0.
      -
         best_tree_idx: -1
         nodes:
            -
               depth: 0
               sample_count: 46357
               value: 1.4764739778088088e-11
               norm_class_idx: 0
               Tn: 0
               complexity: 0
               alpha: 0.
               node_risk: 2.1489714490103369e+09
               tree_risk: 0.
               tree_error: 0.
               splits:
                  - { var:50, quality:0.1290431022644043,
                      le:0.1459760963916779 }
            -
               depth: 1
               sample_count: 25458
               value: -0.2541192060038309
               norm_class_idx: 0
               Tn: 0
               complexity: 0
               alpha: 0.
               node_risk: 9.0964570441425252e+08
               tree_risk: 0.
               tree_error: 0.
               splits:
                  - { var:3, quality:6.5524995194880000e+12,
                      le:0.9726996421813965 }
            -
               depth: 2
               sample_count: 25457
               value: -0.2541312245587928
               norm_class_idx: 0
               Tn: 0
               complexity: 0
               alpha: 0.
               node_risk: 9.0957702034939718e+08
               tree_risk: 0.
               tree_error: 0.
            -
               depth: 2
               sample_count: 1
               value: 0.9999999999999999
               norm_class_idx: 0
               Tn: 0
               complexity: 0
               alpha: 0.
               node_risk: 2.0764079745046228e-11
               tree_risk: 0.
               tree_error: 0.
            -
               depth: 1
               sample_count: 20899
               value: 0.5078026616152037
               norm_class_idx: 0
               Tn: 0
               complexity: 0
               alpha: 0.
               node_risk: 9.7186899426341558e+08
               tree_risk: 0.
               tree_error: 0.
               splits:
                  - { var:0, quality:3.5200457943946363e+19,
                      le:0.9551804065704346 }
            -
               depth: 2
               sample_count: 20898
               value: 0.5078026616104879
               norm_class_idx: 0
               Tn: 0
               complexity: 0
               alpha: 0.
               node_risk: 9.7177599023644114e+08
               tree_risk: 0.
               tree_error: 0.
            -
               depth: 2
               sample_count: 1
               value: 1.
               norm_class_idx: 0
               Tn: 0
               complexity: 0
               alpha: 0.
               node_risk: 0.
               tree_risk: 0.
               tree_error: 0.
      -
         best_tree_idx: -1
         nodes:
            -
               depth: 0
               sample_count: 46357
               value: 0.0120872634975788
               norm_class_idx: 0
               Tn: 0
               complexity: 0
               alpha: 0.
               node_risk: 2.1486574801117883e+09
               tree_risk: 0.
               tree_error: 0.
               splits:
                  - { var:0, quality:2.0100637641827942e+17,
                      le:0.9551804065704346 }
            -
               depth: 1
               sample_count: 46356
               value: 0.0120872634963331
               norm_class_idx: 0
               Tn: 0
               complexity: 0
               alpha: 0.
               node_risk: 2.1485647806601110e+09
               tree_risk: 0.
               tree_error: 0.
               splits:
                  - { var:0, quality:4.0315930294616064e+16,
                      le:0.9523359537124634 }
            -
               depth: 2
               sample_count: 46355
               value: 0.0120872634889376
               norm_class_idx: 0
               Tn: 0
               complexity: 0
               alpha: 0.
               node_risk: 2.1484720832218351e+09
               tree_risk: 0.
               tree_error: 0.
            -
               depth: 2
               sample_count: 1
               value: 1.
               norm_class_idx: 0
               Tn: 0
               complexity: 0
               alpha: 0.
               node_risk: 0.
               tree_risk: 0.
               tree_error: 0.
            -
               depth: 1
               sample_count: 1
               value: 1.
               norm_class_idx: 0
               Tn: 0
               complexity: 0
               alpha: 0.
               node_risk: 0.
               tree_risk: 0.
               tree_error: 0.
      -
         best_tree_idx: -1
         nodes:
            -
               depth: 0
               sample_count: 46357
               value: 5.8871227445078535e-07
               norm_class_idx: 0
               Tn: 0
               complexity: 0
               alpha: 0.
               node_risk: 2.1489714489998679e+09
               tree_risk: 0.
               tree_error: 0.
               splits:
                  - { var:0, quality:820391040., le:0.9551804065704346 }
            -
               depth: 1
               sample_count: 46356
               value: 5.8871181054436757e-07
               norm_class_idx: 0
               Tn: 0
               complexity: 0
               alpha: 0.
               node_risk: 2.1488787360008645e+09
               tree_risk: 0.
               tree_error: 0.
               splits:
                  - { var:0, quality:232865456., le:0.9523359537124634 }
            -
               depth: 2
               sample_count: 46355
               value: 5.8870905638797624e-07
               norm_class_idx: 0
               Tn: 0
               complexity: 0
               alpha: 0.
               node_risk: 2.1487860250067835e+09
               tree_risk: 0.
               tree_error: 0.
            -
               depth: 2
               sample_count: 1
               value: 1.
               norm_class_idx: 0
               Tn: 0
               complexity: 0
               alpha: 0.
               node_risk: 0.
               tree_risk: 0.
               tree_error: 0.
            -
               depth: 1
               sample_count: 1
               value: 1.
               norm_class_idx: 0
               Tn: 0
               complexity: 0
               alpha: 0.
               node_risk: 0.
               tree_risk: 0.
               tree_error: 0.
      -
         best_tree_idx: -1
         nodes:
            -
               depth: 0
               sample_count: 46357
               value: 1.3356105501074256e-12
               norm_class_idx: 0
               Tn: 0
               complexity: 0
               alpha: 0.
               node_risk: 2.1489714489980903e+09
               tree_risk: 0.
               tree_error: 0.
               splits:
                  - { var:8, quality:0.1649868786334991,
                      le:0.0300045181065798 }
            -
               depth: 1
               sample_count: 23188
               value: 0.5646306593047551
               norm_class_idx: 0
               Tn: 0
               complexity: 0
               alpha: 0.
               node_risk: 1.0740088401747913e+09
               tree_risk: 0.
               tree_error: 0.
               splits:
                  - { var:2, quality:4.2078872535040000e+13,
                      le:0.7495243549346924 }
            -
               depth: 2
               sample_count: 23187
               value: 0.5646254587069881
               norm_class_idx: 0
               Tn: 0
               complexity: 0
               alpha: 0.
               node_risk: 1.0739382942259166e+09
               tree_risk: 0.
               tree_error: 0.
            -
               depth: 2
               sample_count: 1
               value: 1.
               norm_class_idx: 0
               Tn: 0
               complexity: 0
               alpha: 0.
               node_risk: 0.
               tree_risk: 0.
               tree_error: 0.
            -
               depth: 1
               sample_count: 23169
               value: -0.2922032591912869
               norm_class_idx: 0
               Tn: 0
               complexity: 0
               alpha: 0.
               node_risk: 7.4505127671268761e+08
               tree_risk: 0.
               tree_error: 0.
               splits:
                  - { var:0, quality:1.9258595312161679e+20,
                      le:0.9551804065704346 }
            -
               depth: 2
               sample_count: 23168
               value: -0.2922032591916215
               norm_class_idx: 0
               Tn: 0
               complexity: 0
               alpha: 0.
               node_risk: 7.4498696360485375e+08
               tree_risk: 0.
               tree_error: 0.
            -
               depth: 2
               sample_count: 1
               value: 0.9999999999999999
               norm_class_idx: 0
               Tn: 0
               complexity: 0
               alpha: 0.
               node_risk: 8.6672694681904174e-04
               tree_risk: 0.
               tree_error: 0.
      -
         best_tree_idx: -1
         nodes:
            -
               depth: 0
               sample_count: 46357
               value: 0.0170915054185481
               norm_class_idx: 0
               Tn: 0
               complexity: 0
               alpha: 0.
               node_risk: 2.1483436924130569e+09
               tree_risk: 0.
               tree_error: 0.
               splits:
                  - { var:0, quality:4.6757453525680128e+17,
                      le:0.9523359537124634 }
            -
               depth: 1
               sample_count: 46355
               value: 0.0170915054170187
               norm_class_idx: 0
               Tn: 0
               complexity: 0
               alpha: 0.
               node_risk: 2.1481583225824885e+09
               tree_risk: 0.
               tree_error: 0.
               splits:
                  - { var:3, quality:3.8219081318400000e+11,
                      le:0.9825143218040466 }
            -
               depth: 2
               sample_count: 46354
               value: 0.0170898911748634
               norm_class_idx: 0
               Tn: 0
               complexity: 0
               alpha: 0.
               node_risk: 2.1480692870167656e+09
               tree_risk: 0.
               tree_error: 0.
            -
               depth: 2
               sample_count: 1
               value: 1.
               norm_class_idx: 0
               Tn: 0
               complexity: 0
               alpha: 0.
               node_risk: 0.
               tree_risk: 0.
               tree_error: 0.
            -
               depth: 1
               sample_count: 2
               value: 1.
               norm_class_idx: 0
               Tn: 0
               complexity: 0
               alpha: 0.
               node_risk: 0.
               tree_risk: 0.
               tree_error: 0.
      -
         best_tree_idx: -1
         nodes:
            -
               depth: 0
               sample_count: 46357
               value: 2.2683345957040963e-06
               norm_class_idx: 0
               Tn: 0
               complexity: 0
               alpha: 0.
               node_risk: 2.1489714489901700e+09
               tree_risk: 0.
               tree_error: 0.
               splits:
                  - { var:0, quality:2.6001747968000000e+10,
                      le:0.9551804065704346 }
            -
               depth: 1
               sample_count: 46356
               value: 2.2683345703910685e-06
               norm_class_idx: 0
               Tn: 0
               complexity: 0
               alpha: 0.
               node_risk: 2.1488787359902244e+09
               tree_risk: 0.
               tree_error: 0.
               splits:
                  - { var:0, quality:1.1673745408000000e+10,
                      le:0.9523359537124634 }
            -
               depth: 2
               sample_count: 46355
               value: 2.2683340232188926e-06
               norm_class_idx: 0
               Tn: 0
               complexity: 0
               alpha: 0.
               node_risk: 2.1487860249914012e+09
               tree_risk: 0.
               tree_error: 0.
            -
               depth: 2
               sample_count: 1
               value: 1.
               norm_class_idx: 0
               Tn: 0
               complexity: 0
               alpha: 0.
               node_risk: 0.
               tree_risk: 0.
               tree_error: 0.
            -
               depth: 1
               sample_count: 1
               value: 1.
               norm_class_idx: 0
               Tn: 0
               complexity: 0
               alpha: 0.
               node_risk: 0.
               tree_risk: 0.
               tree_error: 0.
      -
         best_tree_idx: -1
         nodes:
            -
               depth: 0
               sample_count: 46357
               value: 3.7617245473078391e-13
               norm_class_idx: 0
               Tn: 0
               complexity: 0
               alpha: 0.
               node_risk: 2.1489714489993382e+09
               tree_risk: 0.
               tree_error: 0.
               splits:
                  - { var:58, quality:0.0942216515541077,
                      le:19.5000000000000000 }
            -
               depth: 1
               sample_count: 11344
               value: 0.8707134921175423
               norm_class_idx: 0
               Tn: 0
               complexity: 0
               alpha: 0.
               node_risk: 2.8155751137559497e+08
               tree_risk: 0.
               tree_error: 0.
               splits:
                  - { var:0, quality:4.8455734282004568e+20,
                      le:0.9515439867973328 }
            -
               depth: 2
               sample_count: 11343
               value: 0.8707134921173070
               norm_class_idx: 0
               Tn: 0
               complexity: 0
               alpha: 0.
               node_risk: 2.8150787366477221e+08
               tree_risk: 0.
               tree_error: 0.
            -
               depth: 2
               sample_count: 1
               value: 1.
               norm_class_idx: 0
               Tn: 0
               complexity: 0
               alpha: 0.
               node_risk: 0.
               tree_risk: 0.
               tree_error: 0.
            -
               depth: 1
               sample_count: 35013
               value: -0.1082120043492867
               norm_class_idx: 0
               Tn: 0
               complexity: 0
               alpha: 0.
               node_risk: 1.3621266365089948e+09
               tree_risk: 0.
               tree_error: 0.
               splits:
                  - { var:0, quality:1.5083445316677639e+20,
                      le:0.9547293186187744 }
            -
               depth: 2
               sample_count: 35012
               value: -0.1082120043492983
               norm_class_idx: 0
               Tn: 0
               complexity: 0
               alpha: 0.
               node_risk: 1.3620488307120283e+09
               tree_risk: 0.
               tree_error: 0.
            -
               depth: 2
               sample_count: 1
               value: 1.
               norm_class_idx: 0
               Tn: 0
               complexity: 0
               alpha: 0.
               node_risk: 0.
               tree_risk: 0.
               tree_error: 0.
      -
         best_tree_idx: -1
         nodes:
            -
               depth: 0
               sample_count: 46357
               value: 0.0273582290361054
               norm_class_idx: 0
               Tn: 0
               complexity: 0
               alpha: 0.
               node_risk: 2.1473630025468287e+09
               tree_risk: 0.
               tree_error: 0.
               splits:
                  - { var:0, quality:7.1413791496958116e+18,
                      le:0.9551804065704346 }
            -
               depth: 1
               sample_count: 46356
               value: 0.0273582290361019
               norm_class_idx: 0
               Tn: 0
               complexity: 0
               alpha: 0.
               node_risk: 2.1472703589399855e+09
               tree_risk: 0.
               tree_error: 0.
               splits:
                  - { var:0, quality:5.3618619113380250e+18,
                      le:0.9523359537124634 }
            -
               depth: 2
               sample_count: 46355
               value: 0.0273582290360256
               norm_class_idx: 0
               Tn: 0
               complexity: 0
               alpha: 0.
               node_risk: 2.1471777173318148e+09
               tree_risk: 0.
               tree_error: 0.
            -
               depth: 2
               sample_count: 1
               value: 1.
               norm_class_idx: 0
               Tn: 0
               complexity: 0
               alpha: 0.
               node_risk: 0.
               tree_risk: 0.
               tree_error: 0.
            -
               depth: 1
               sample_count: 1
               value: 1.
               norm_class_idx: 0
               Tn: 0
               complexity: 0
               alpha: 0.
               node_risk: 0.
               tree_risk: 0.
               tree_error: 0.
      -
         best_tree_idx: -1
         nodes:
            -
               depth: 0
               sample_count: 46357
               value: 6.8286960695120716e-06
               norm_class_idx: 0
               Tn: 0
               complexity: 0
               alpha: 0.
               node_risk: 2.1489714489005165e+09
               tree_risk: 0.
               tree_error: 0.
               splits:
                  - { var:3, quality:3.8439150000000000e+05,
                      le:0.9825143218040466 }
            -
               depth: 1
               sample_count: 46356
               value: 6.5680136762756191e-06
               norm_class_idx: 0
               Tn: 0
               complexity: 0
               alpha: 0.
               node_risk: 2.1488792960867023e+09
               tree_risk: 0.
               tree_error: 0.
               splits:
                  - { var:3, quality:5.9791652343750000e+04,
                      le:0.9788210391998291 }
            -
               depth: 2
               sample_count: 46355
               value: 5.0176875020416486e-06
               norm_class_idx: 0
               Tn: 0
               complexity: 0
               alpha: 0.
               node_risk: 2.1487899164430995e+09
               tree_risk: 0.
               tree_error: 0.
            -
               depth: 2
               sample_count: 1
               value: 1.
               norm_class_idx: 0
               Tn: 0
               complexity: 0
               alpha: 0.
               node_risk: 0.
               tree_risk: 0.
               tree_error: 0.
            -
               depth: 1
               sample_count: 1
               value: 1.
               norm_class_idx: 0
               Tn: 0
               complexity: 0
               alpha: 0.
               node_risk: 0.
               tree_risk: 0.
               tree_error: 0.
      -
         best_tree_idx: -1
         nodes:
            -
               depth: 0
               sample_count: 46357
               value: 6.6623685305898794e-07
               norm_class_idx: 0
               Tn: 0
               complexity: 0
               alpha: 0.
               node_risk: 2.1489714489977846e+09
               tree_risk: 0.
               tree_error: 0.
               splits:
                  - { var:3, quality:9.9460742187500000e+03,
                      le:0.9825143218040466 }
            -
               depth: 1
               sample_count: 46356
               value: 5.7033647493740578e-07
               norm_class_idx: 0
               Tn: 0
               complexity: 0
               alpha: 0.
               node_risk: 2.1488789420764599e+09
               tree_risk: 0.
               tree_error: 0.
               splits:
                  - { var:3, quality:1.2255841064453125e+03,
                      le:0.9788210391998291 }
            -
               depth: 2
               sample_count: 46355
               value: -7.2374663200293474e-14
               norm_class_idx: 0
               Tn: 0
               complexity: 0
               alpha: 0.
               node_risk: 2.1487874566002874e+09
               tree_risk: 0.
               tree_error: 0.
            -
               depth: 2
               sample_count: 1
               value: 1.
               norm_class_idx: 0
               Tn: 0
               complexity: 0
               alpha: 0.
               node_risk: 0.
               tree_risk: 0.
               tree_error: 0.
            -
               depth: 1
               sample_count: 1
               value: 1.
               norm_class_idx: 0
               Tn: 0
               complexity: 0
               alpha: 0.
               node_risk: 0.
               tree_risk: 0.
               tree_error: 0.
      -
         best_tree_idx: -1
         nodes:
            -
               depth: 0
               sample_count: 46357
               value: 2.4509504156608281e-07
               norm_class_idx: 0
               Tn: 0
               complexity: 0
               alpha: 0.
               node_risk: 2.1489714490006957e+09
               tree_risk: 0.
               tree_error: 0.
               splits:
                  - { var:3, quality:3.6589672851562500e+03,
                      le:0.9825143218040466 }
            -
               depth: 1
               sample_count: 46356
               value: 2.0981523649411329e-07
               norm_class_idx: 0
               Tn: 0
               complexity: 0
               alpha: 0.
               node_risk: 2.1488788118127713e+09
               tree_risk: 0.
               tree_error: 0.
               splits:
                  - { var:3, quality:450.8678588867187500,
                      le:0.9788210391998291 }
            -
               depth: 2
               sample_count: 46355
               value: 7.0539023782323344e-14
               norm_class_idx: 0
               Tn: 0
               complexity: 0
               alpha: 0.
               node_risk: 2.1487865516576028e+09
               tree_risk: 0.
               tree_error: 0.
            -
               depth: 2
               sample_count: 1
               value: 1.
               norm_class_idx: 0
               Tn: 0
               complexity: 0
               alpha: 0.
               node_risk: 0.
               tree_risk: 0.
               tree_error: 0.
            -
               depth: 1
               sample_count: 1
               value: 1.
               norm_class_idx: 0
               Tn: 0
               complexity: 0
               alpha: 0.
               node_risk: 0.
               tree_risk: 0.
               tree_error: 0.
      -
         best_tree_idx: -1
         nodes:
            -
               depth: 0
               sample_count: 46357
               value: 9.0165375063383645e-08
               norm_class_idx: 0
               Tn: 0
               complexity: 0
               alpha: 0.
               node_risk: 2.1489714489990411e+09
               tree_risk: 0.
               tree_error: 0.
               splits:
                  - { var:3, quality:1.3460610351562500e+03,
                      le:0.9825143218040466 }
            -
               depth: 1
               sample_count: 46356
               value: 7.7186656355107166e-08
               norm_class_idx: 0
               Tn: 0
               complexity: 0
               alpha: 0.
               node_risk: 2.1488787638887410e+09
               tree_risk: 0.
               tree_error: 0.
               splits:
                  - { var:3, quality:165.8648376464843750,
                      le:0.9788210391998291 }
            -
               depth: 2
               sample_count: 46355
               value: -3.9876471608500374e-14
               norm_class_idx: 0
               Tn: 0
               complexity: 0
               alpha: 0.
               node_risk: 2.1487862187452602e+09
               tree_risk: 0.
               tree_error: 0.
            -
               depth: 2
               sample_count: 1
               value: 1.
               norm_class_idx: 0
               Tn: 0
               complexity: 0
               alpha: 0.
               node_risk: 0.
               tree_risk: 0.
               tree_error: 0.
            -
               depth: 1
               sample_count: 1
               value: 0.9999999999999999
               norm_class_idx: 0
               Tn: 0
               complexity: 0
               alpha: 0.
               node_risk: 9.8212470442326263e-09
               tree_risk: 0.
               tree_error: 0.
      -
         best_tree_idx: -1
         nodes:
            -
               depth: 0
               sample_count: 46357
               value: 3.3169985184596329e-08
               norm_class_idx: 0
               Tn: 0
               complexity: 0
               alpha: 0.
               node_risk: 2.1489714489999485e+09
               tree_risk: 0.
               tree_error: 0.
               splits:
                  - { var:0, quality:9344133., le:0.9551804065704346 }
            -
               depth: 1
               sample_count: 46356
               value: 3.3169983852328746e-08
               norm_class_idx: 0
               Tn: 0
               complexity: 0
               alpha: 0.
               node_risk: 2.1488787359999514e+09
               tree_risk: 0.
               tree_error: 0.
               splits:
                  - { var:0, quality:8427180., le:0.9523359537124634 }
            -
               depth: 2
               sample_count: 46355
               value: 3.3169955014286641e-08
               norm_class_idx: 0
               Tn: 0
               complexity: 0
               alpha: 0.
               node_risk: 2.1487860250000134e+09
               tree_risk: 0.
               tree_error: 0.
            -
               depth: 2
               sample_count: 1
               value: 1.
               norm_class_idx: 0
               Tn: 0
               complexity: 0
               alpha: 0.
               node_risk: 0.
               tree_risk: 0.
               tree_error: 0.
            -
               depth: 1
               sample_count: 1
               value: 0.9999999999999999
               norm_class_idx: 0
               Tn: 0
               complexity: 0
               alpha: 0.
               node_risk: 0.1106911901494248
               tree_risk: 0.
               tree_error: 0.
      -
         best_tree_idx: -1
         nodes:
            -
               depth: 0
               sample_count: 46357
               value: 4.8011128492976782e-14
               norm_class_idx: 0
               Tn: 0
               complexity: 0
               alpha: 0.
               node_risk: 2.1489714489998236e+09
               tree_risk: 0.
               tree_error: 0.
               splits:
                  - { var:0, quality:0.0845236256718636,
                      le:0.1843881756067276 }
            -
               depth: 1
               sample_count: 29019
               value: -0.1697459001876434
               norm_class_idx: 0
               Tn: 0
               complexity: 0
               alpha: 0.
               node_risk: 1.0966351816778297e+09
               tree_risk: 0.
               tree_error: 0.
               splits:
                  - { var:19, quality:2.2535894728704000e+13,
                      le:0.9624077677726746 }
            -
               depth: 2
               sample_count: 29018
               value: -0.1697475888904124
               norm_class_idx: 0
               Tn: 0
               complexity: 0
               alpha: 0.
               node_risk: 1.0965605382192793e+09
               tree_risk: 0.
               tree_error: 0.
            -
               depth: 2
               sample_count: 1
               value: 1.
               norm_class_idx: 0
               Tn: 0
               complexity: 0
               alpha: 0.
               node_risk: 0.
               tree_risk: 0.
               tree_error: 0.
            -
               depth: 1
               sample_count: 17338
               value: 0.4979420796567093
               norm_class_idx: 0
               Tn: 0
               complexity: 0
               alpha: 0.
               node_risk: 8.8924433087633169e+08
               tree_risk: 0.
               tree_error: 0.
               splits:
                  - { var:0, quality:2.6829209617641243e+21,
                      le:0.9551804065704346 }
            -
               depth: 2
               sample_count: 17337
               value: 0.4979420796567083
               norm_class_idx: 0
               Tn: 0
               complexity: 0
               alpha: 0.
               node_risk: 8.8914175633642197e+08
               tree_risk: 0.
               tree_error: 0.
            -
               depth: 2
               sample_count: 1
               value: 1.
               norm_class_idx: 0
               Tn: 0
               complexity: 0
               alpha: 0.
               node_risk: 0.
               tree_risk: 0.
               tree_error: 0.
      -
         best_tree_idx: -1
         nodes:
            -
               depth: 0
               sample_count: 46357
               value: 9.9461807275088351e-03
               norm_class_idx: 0
               Tn: 0
               complexity: 0
               alpha: 0.
               node_risk: 2.1487588587509460e+09
               tree_risk: 0.
               tree_error: 0.
               splits:
                  - { var:3, quality:7.0008419909632000e+13,
                      le:0.9825143218040466 }
            -
               depth: 1
               sample_count: 46356
               value: 9.9461777212205213e-03
               norm_class_idx: 0
               Tn: 0
               complexity: 0
               alpha: 0.
               node_risk: 2.1486661615756311e+09
               tree_risk: 0.
               tree_error: 0.
               splits:
                  - { var:3, quality:1.1771255455744000e+13,
                      le:0.9788210391998291 }
            -
               depth: 2
               sample_count: 46355
               value: 9.9461598423025536e-03
               norm_class_idx: 0
               Tn: 0
               complexity: 0
               alpha: 0.
               node_risk: 2.1485734993112245e+09
               tree_risk: 0.
               tree_error: 0.
            -
               depth: 2
               sample_count: 1
               value: 1.
               norm_class_idx: 0
               Tn: 0
               complexity: 0
               alpha: 0.
               node_risk: 0.
               tree_risk: 0.
               tree_error: 0.
            -
               depth: 1
               sample_count: 1
               value: 1.
               norm_class_idx: 0
               Tn: 0
               complexity: 0
               alpha: 0.
               node_risk: 0.
               tree_risk: 0.
               tree_error: 0.
      -
         best_tree_idx: -1
         nodes:
            -
               depth: 0
               sample_count: 46357
               value: 3.3575860504632858e-07
               norm_class_idx: 0
               Tn: 0
               complexity: 0
               alpha: 0.
               node_risk: 2.1489714490002255e+09
               tree_risk: 0.
               tree_error: 0.
               splits:
                  - { var:0, quality:5.8700769280000000e+09,
                      le:0.9551804065704346 }
            -
               depth: 1
               sample_count: 46356
               value: 3.3575860485203966e-07
               norm_class_idx: 0
               Tn: 0
               complexity: 0
               alpha: 0.
               node_risk: 2.1488787360002265e+09
               tree_risk: 0.
               tree_error: 0.
               splits:
                  - { var:0, quality:5.0751892480000000e+09,
                      le:0.9523359537124634 }
            -
               depth: 2
               sample_count: 46355
               value: 3.3575859816294816e-07
               norm_class_idx: 0
               Tn: 0
               complexity: 0
               alpha: 0.
               node_risk: 2.1487860250002403e+09
               tree_risk: 0.
               tree_error: 0.
            -
               depth: 2
               sample_count: 1
               value: 0.9999999999999999
               norm_class_idx: 0
               Tn: 0
               complexity: 0
               alpha: 0.
               node_risk: 0.0176594960824055
               tree_risk: 0.
               tree_error: 0.
            -
               depth: 1
               sample_count: 1
               value: 1.
               norm_class_idx: 0
               Tn: 0
               complexity: 0
               alpha: 0.
               node_risk: 0.
               tree_risk: 0.
               tree_error: 0.
      -
         best_tree_idx: -1
         nodes:
            -
               depth: 0
               sample_count: 46357
               value: -1.2425227947224955e-13
               norm_class_idx: 0
               Tn: 0
               complexity: 0
               alpha: 0.
               node_risk: 2.1489714489996457e+09
               tree_risk: 0.
               tree_error: 0.
               splits:
                  - { var:48, quality:0.0832521840929985,
                      le:0.4970148801803589 }
            -
               depth: 1
               sample_count: 18013
               value: -0.2596056658522041
               norm_class_idx: 0
               Tn: 0
               complexity: 0
               alpha: 0.
               node_risk: 5.4756472820159459e+08
               tree_risk: 0.
               tree_error: 0.
               splits:
                  - { var:55, quality:3.2253086269440000e+13,
                      le:0.9887934923171997 }
            -
               depth: 2
               sample_count: 18012
               value: -0.2596072111186107
               norm_class_idx: 0
               Tn: 0
               complexity: 0
               alpha: 0.
               node_risk: 5.4750413392304385e+08
               tree_risk: 0.
               tree_error: 0.
            -
               depth: 2
               sample_count: 1
               value: 0.9999999999999999
               norm_class_idx: 0
               Tn: 0
               complexity: 0
               alpha: 0.
               node_risk: 2.3035901661774357e-10
               tree_risk: 0.
               tree_error: 0.
            -
               depth: 1
               sample_count: 28344
               value: 0.3206870858852524
               norm_class_idx: 0
               Tn: 0
               complexity: 0
               alpha: 0.
               node_risk: 1.6111095055680959e+09
               tree_risk: 0.
               tree_error: 0.
               splits:
                  - { var:3, quality:7.3954646732832768e+16,
                      le:0.9825143218040466 }
            -
               depth: 2
               sample_count: 28343
               value: 0.3206870841889569
               norm_class_idx: 0
               Tn: 0
               complexity: 0
               alpha: 0.
               node_risk: 1.6109958309711750e+09
               tree_risk: 0.
               tree_error: 0.
            -
               depth: 2
               sample_count: 1
               value: 1.
               norm_class_idx: 0
               Tn: 0
               complexity: 0
               alpha: 0.
               node_risk: 0.
               tree_risk: 0.
               tree_error: 0.
      -
         best_tree_idx: -1
         nodes:
            -
               depth: 0
               sample_count: 46357
               value: 1.8008403757038827e-03
               norm_class_idx: 0
               Tn: 0
               complexity: 0
               alpha: 0.
               node_risk: 2.1489644798295503e+09
               tree_risk: 0.
               tree_error: 0.
               splits:
                  - { var:3, quality:1.6238882324480000e+13,
                      le:0.9825143218040466 }
            -
               depth: 1
               sample_count: 46356
               value: 1.8008399472548516e-03
               norm_class_idx: 0
               Tn: 0
               complexity: 0
               alpha: 0.
               node_risk: 2.1488717680558801e+09
               tree_risk: 0.
               tree_error: 0.
               splits:
                  - { var:3, quality:1.3839978987520000e+12,
                      le:0.9788210391998291 }
            -
               depth: 2
               sample_count: 46355
               value: 1.8008349211491700e-03
               norm_class_idx: 0
               Tn: 0
               complexity: 0
               alpha: 0.
               node_risk: 2.1487790682148771e+09
               tree_risk: 0.
               tree_error: 0.
            -
               depth: 2
               sample_count: 1
               value: 1.
               norm_class_idx: 0
               Tn: 0
               complexity: 0
               alpha: 0.
               node_risk: 0.
               tree_risk: 0.
               tree_error: 0.
            -
               depth: 1
               sample_count: 1
               value: 1.
               norm_class_idx: 0
               Tn: 0
               complexity: 0
               alpha: 0.
               node_risk: 0.
               tree_risk: 0.
               tree_error: 0.
      -
         best_tree_idx: -1
         nodes:
            -
               depth: 0
               sample_count: 46357
               value: 3.9569769829463618e-09
               norm_class_idx: 0
               Tn: 0
               complexity: 0
               alpha: 0.
               node_risk: 2.1489714489991436e+09
               tree_risk: 0.
               tree_error: 0.
               splits:
                  - { var:0, quality:4.6954440625000000e+05,
                      le:0.9551804065704346 }
            -
               depth: 1
               sample_count: 46356
               value: 3.9569768858018480e-09
               norm_class_idx: 0
               Tn: 0
               complexity: 0
               alpha: 0.
               node_risk: 2.1488787359991441e+09
               tree_risk: 0.
               tree_error: 0.
               splits:
                  - { var:0, quality:4.5903081250000000e+05,
                      le:0.9523359537124634 }
            -
               depth: 2
               sample_count: 46355
               value: 3.9569750261782892e-09
               norm_class_idx: 0
               Tn: 0
               complexity: 0
               alpha: 0.
               node_risk: 2.1487860249991479e+09
               tree_risk: 0.
               tree_error: 0.
            -
               depth: 2
               sample_count: 1
               value: 1.
               norm_class_idx: 0
               Tn: 0
               complexity: 0
               alpha: 0.
               node_risk: 0.
               tree_risk: 0.
               tree_error: 0.
            -
               depth: 1
               sample_count: 1
               value: 1.
               norm_class_idx: 0
               Tn: 0
               complexity: 0
               alpha: 0.
               node_risk: 0.
               tree_risk: 0.
               tree_error: 0.
      -
         best_tree_idx: -1
         nodes:
            -
               depth: 0
               sample_count: 46357
               value: -6.2691388538760884e-14
               norm_class_idx: 0
               Tn: 0
               complexity: 0
               alpha: 0.
               node_risk: 2.1489714490000191e+09
               tree_risk: 0.
               tree_error: 0.
               splits:
                  - { var:51, quality:0.0884766429662704,
                      le:0.1916303038597107 }
            -
               depth: 1
               sample_count: 31455
               value: -0.1639264116411506
               norm_class_idx: 0
               Tn: 0
               complexity: 0
               alpha: 0.
               node_risk: 1.2552573194672613e+09
               tree_risk: 0.
               tree_error: 0.
               splits:
                  - { var:0, quality:1.2792968730130021e+21,
                      le:0.9551804065704346 }
            -
               depth: 2
               sample_count: 31454
               value: -0.1639264116411507
               norm_class_idx: 0
               Tn: 0
               complexity: 0
               alpha: 0.
               node_risk: 1.2551775078400960e+09
               tree_risk: 0.
               tree_error: 0.
            -
               depth: 2
               sample_count: 1
               value: 1.
               norm_class_idx: 0
               Tn: 0
               complexity: 0
               alpha: 0.
               node_risk: 0.
               tree_risk: 0.
               tree_error: 0.
            -
               depth: 1
               sample_count: 14902
               value: 0.5397339213800120
               norm_class_idx: 0
               Tn: 0
               complexity: 0
               alpha: 0.
               node_risk: 6.7555062771489394e+08
               tree_risk: 0.
               tree_error: 0.
               splits:
                  - { var:45, quality:3.4923330419032064e+16,
                      le:0.9742404222488403 }
            -
               depth: 2
               sample_count: 14901
               value: 0.5397339177203266
               norm_class_idx: 0
               Tn: 0
               complexity: 0
               alpha: 0.
               node_risk: 6.7545997412628973e+08
               tree_risk: 0.
               tree_error: 0.
            -
               depth: 2
               sample_count: 1
               value: 0.9999999999999999
               norm_class_idx: 0
               Tn: 0
               complexity: 0
               alpha: 0.
               node_risk: 6.0269707774518581e-08
               tree_risk: 0.
               tree_error: 0.
      -
         best_tree_idx: -1
         nodes:
            -
               depth: 0
               sample_count: 46357
               value: 0.0120016792753265
               norm_class_idx: 0
               Tn: 0
               complexity: 0
               alpha: 0.
               node_risk: 2.1486619104965749e+09
               tree_risk: 0.
               tree_error: 0.
               splits:
                  - { var:3, quality:1.5870312180613120e+15,
                      le:0.9825143218040466 }
            -
               depth: 1
               sample_count: 46356
               value: 0.0120016790825023
               norm_class_idx: 0
               Tn: 0
               complexity: 0
               alpha: 0.
               node_risk: 2.1485692112802577e+09
               tree_risk: 0.
               tree_error: 0.
               splits:
                  - { var:3, quality:4.3301880410931200e+14,
                      le:0.9788210391998291 }
            -
               depth: 2
               sample_count: 46355
               value: 0.0120016783761732
               norm_class_idx: 0
               Tn: 0
               complexity: 0
               alpha: 0.
               node_risk: 2.1484765152067566e+09
               tree_risk: 0.
               tree_error: 0.
            -
               depth: 2
               sample_count: 1
               value: 1.
               norm_class_idx: 0
               Tn: 0
               complexity: 0
               alpha: 0.
               node_risk: 0.
               tree_risk: 0.
               tree_error: 0.
            -
               depth: 1
               sample_count: 1
               value: 0.9999999999999999
               norm_class_idx: 0
               Tn: 0
               complexity: 0
               alpha: 0.
               node_risk: 6.7864069480853029e-07
               tree_risk: 0.
               tree_error: 0.
      -
         best_tree_idx: -1
         nodes:
            -
               depth: 0
               sample_count: 46357
               value: 5.7662633232073911e-07
               norm_class_idx: 0
               Tn: 0
               complexity: 0
               alpha: 0.
               node_risk: 2.1489714489989762e+09
               tree_risk: 0.
               tree_error: 0.
               splits:
                  - { var:0, quality:8.0662003712000000e+10,
                      le:0.9551804065704346 }
            -
               depth: 1
               sample_count: 46356
               value: 5.7662633232073911e-07
               norm_class_idx: 0
               Tn: 0
               complexity: 0
               alpha: 0.
               node_risk: 2.1488787359989762e+09
               tree_risk: 0.
               tree_error: 0.
               splits:
                  - { var:0, quality:7.3704382464000000e+10,
                      le:0.9523359537124634 }
            -
               depth: 2
               sample_count: 46355
               value: 5.7662633148807238e-07
               norm_class_idx: 0
               Tn: 0
               complexity: 0
               alpha: 0.
               node_risk: 2.1487860249989786e+09
               tree_risk: 0.
               tree_error: 0.
            -
               depth: 2
               sample_count: 1
               value: 1.
               norm_class_idx: 0
               Tn: 0
               complexity: 0
               alpha: 0.
               node_risk: 0.
               tree_risk: 0.
               tree_error: 0.
            -
               depth: 1
               sample_count: 1
               value: 1.
               norm_class_idx: 0
               Tn: 0
               complexity: 0
               alpha: 0.
               node_risk: 0.
               tree_risk: 0.
               tree_error: 0.
      -
         best_tree_idx: -1
         nodes:
            -
               depth: 0
               sample_count: 46357
               value: -1.4267450068605425e-14
               norm_class_idx: 0
               Tn: 0
               complexity: 0
               alpha: 0.
               node_risk: 2.1489714489999514e+09
               tree_risk: 0.
               tree_error: 0.
               splits:
                  - { var:2, quality:0.0647218748927116,
                      le:0.0980298221111298 }
            -
               depth: 1
               sample_count: 37445
               value: 0.1803495322721080
               norm_class_idx: 0
               Tn: 0
               complexity: 0
               alpha: 0.
               node_risk: 2.0382423707109582e+09
               tree_risk: 0.
               tree_error: 0.
               splits:
                  - { var:55, quality:6.2462602772480000e+13,
                      le:0.9916425943374634 }
            -
               depth: 2
               sample_count: 37444
               value: 0.1803486331052453
               norm_class_idx: 0
               Tn: 0
               complexity: 0
               alpha: 0.
               node_risk: 2.0381364253403344e+09
               tree_risk: 0.
               tree_error: 0.
            -
               depth: 2
               sample_count: 1
               value: 1.
               norm_class_idx: 0
               Tn: 0
               complexity: 0
               alpha: 0.
               node_risk: 0.
               tree_risk: 0.
               tree_error: 0.
            -
               depth: 1
               sample_count: 8912
               value: -0.3588690819998144
               norm_class_idx: 0
               Tn: 0
               complexity: 0
               alpha: 0.
               node_risk: 2.0688287818821532e+08
               tree_risk: 0.
               tree_error: 0.
               splits:
                  - { var:3, quality:1.4240476029989683e+17,
                      le:0.9825143218040466 }
            -
               depth: 2
               sample_count: 8911
               value: -0.3588690822915365
               norm_class_idx: 0
               Tn: 0
               complexity: 0
               alpha: 0.
               node_risk: 2.0683645285274699e+08
               tree_risk: 0.
               tree_error: 0.
            -
               depth: 2
               sample_count: 1
               value: 1.
               norm_class_idx: 0
               Tn: 0
               complexity: 0
               alpha: 0.
               node_risk: 0.
               tree_risk: 0.
               tree_error: 0.
      -
         best_tree_idx: -1
         nodes:
            -
               depth: 0
               sample_count: 46357
               value: -4.0477276701918500e-03
               norm_class_idx: 0
               Tn: 0
               complexity: 0
               alpha: 0.
               node_risk: 2.1489362400385547e+09
               tree_risk: 0.
               tree_error: 0.
               splits:
                  - { var:4, quality:1.2910325410037760e+15,
                      le:0.9804409146308899 }
            -
               depth: 1
               sample_count: 46356
               value: -4.0477276976228597e-03
               norm_class_idx: 0
               Tn: 0
               complexity: 0
               alpha: 0.
               node_risk: 2.1488435286158037e+09
               tree_risk: 0.
               tree_error: 0.
               splits:
                  - { var:3, quality:9.0403407659008000e+13,
                      le:0.9788210391998291 }
            -
               depth: 2
               sample_count: 46355
               value: -4.0477280886766975e-03
               norm_class_idx: 0
               Tn: 0
               complexity: 0
               alpha: 0.
               node_risk: 2.1487508199648752e+09
               tree_risk: 0.
               tree_error: 0.
            -
               depth: 2
               sample_count: 1
               value: 1.
               norm_class_idx: 0
               Tn: 0
               complexity: 0
               alpha: 0.
               node_risk: 0.
               tree_risk: 0.
               tree_error: 0.
            -
               depth: 1
               sample_count: 1
               value: 1.
               norm_class_idx: 0
               Tn: 0
               complexity: 0
               alpha: 0.
               node_risk: 0.
               tree_risk: 0.
               tree_error: 0.
      -
         best_tree_idx: -1
         nodes:
            -
               depth: 0
               sample_count: 46357
               value: -2.1953011810428638e-08
               norm_class_idx: 0
               Tn: 0
               complexity: 0
               alpha: 0.
               node_risk: 2.1489714490005312e+09
               tree_risk: 0.
               tree_error: 0.
               splits:
                  - { var:0, quality:8830457., le:0.9551804065704346 }
            -
               depth: 1
               sample_count: 46356
               value: -2.1953011810428638e-08
               norm_class_idx: 0
               Tn: 0
               complexity: 0
               alpha: 0.
               node_risk: 2.1488787360005312e+09
               tree_risk: 0.
               tree_error: 0.
               splits:
                  - { var:0, quality:8810048., le:0.9523359537124634 }
            -
               depth: 2
               sample_count: 46355
               value: -2.1953012087984398e-08
               norm_class_idx: 0
               Tn: 0
               complexity: 0
               alpha: 0.
               node_risk: 2.1487860250005322e+09
               tree_risk: 0.
               tree_error: 0.
            -
               depth: 2
               sample_count: 1
               value: 0.9999999999999999
               norm_class_idx: 0
               Tn: 0
               complexity: 0
               alpha: 0.
               node_risk: 0.6936679511677659
               tree_risk: 0.
               tree_error: 0.
            -
               depth: 1
               sample_count: 1
               value: 1.
               norm_class_idx: 0
               Tn: 0
               complexity: 0
               alpha: 0.
               node_risk: 0.
               tree_risk: 0.
               tree_error: 0.
      -
         best_tree_idx: -1
         nodes:
            -
               depth: 0
               sample_count: 46357
               value: -2.2324806933649073e-15
               norm_class_idx: 0
               Tn: 0
               complexity: 0
               alpha: 0.
               node_risk: 2.1489714490000048e+09
               tree_risk: 0.
               tree_error: 0.
               splits:
                  - { var:52, quality:0.0570447295904160,
                      le:0.0465387739241123 }
            -
               depth: 1
               sample_count: 23495
               value: -0.2125606681474178
               norm_class_idx: 0
               Tn: 0
               complexity: 0
               alpha: 0.
               node_risk: 9.4454049170426714e+08
               tree_risk: 0.
               tree_error: 0.
               splits:
                  - { var:30, quality:4.5915259797504000e+13,
                      le:0.8422137498855591 }
            -
               depth: 2
               sample_count: 23494
               value: -0.2125618484465873
               norm_class_idx: 0
               Tn: 0
               complexity: 0
               alpha: 0.
               node_risk: 9.4446051288607097e+08
               tree_risk: 0.
               tree_error: 0.
            -
               depth: 2
               sample_count: 1
               value: 0.9999999999999999
               norm_class_idx: 0
               Tn: 0
               complexity: 0
               alpha: 0.
               node_risk: 3.5886583585317660e-10
               tree_risk: 0.
               tree_error: 0.
            -
               depth: 1
               sample_count: 22862
               value: 0.2683691677147175
               norm_class_idx: 0
               Tn: 0
               complexity: 0
               alpha: 0.
               node_risk: 1.0973999358391018e+09
               tree_risk: 0.
               tree_error: 0.
               splits:
                  - { var:0, quality:1.0136032806380885e+23,
                      le:0.9551804065704346 }
            -
               depth: 2
               sample_count: 22861
               value: 0.2683691677147175
               norm_class_idx: 0
               Tn: 0
               complexity: 0
               alpha: 0.
               node_risk: 1.0973039358447604e+09
               tree_risk: 0.
               tree_error: 0.
            -
               depth: 2
               sample_count: 1
               value: 1.
               norm_class_idx: 0
               Tn: 0
               complexity: 0
               alpha: 0.
               node_risk: 0.
               tree_risk: 0.
               tree_error: 0.
      -
         best_tree_idx: -1
         nodes:
            -
               depth: 0
               sample_count: 46357
               value: 1.1058609242752312e-03
               norm_class_idx: 0
               Tn: 0
               complexity: 0
               alpha: 0.
               node_risk: 2.1489688209621372e+09
               tree_risk: 0.
               tree_error: 0.
               splits:
                  - { var:0, quality:1.2219152751342387e+17,
                      le:0.9551804065704346 }
            -
               depth: 1
               sample_count: 46356
               value: 1.1058609242752312e-03
               norm_class_idx: 0
               Tn: 0
               complexity: 0
               alpha: 0.
               node_risk: 2.1488761080755186e+09
               tree_risk: 0.
               tree_error: 0.
               splits:
                  - { var:0, quality:1.2174905998258995e+17,
                      le:0.9523359537124634 }
            -
               depth: 2
               sample_count: 46355
               value: 1.1058609242751481e-03
               norm_class_idx: 0
               Tn: 0
               complexity: 0
               alpha: 0.
               node_risk: 2.1487833971888976e+09
               tree_risk: 0.
               tree_error: 0.
            -
               depth: 2
               sample_count: 1
               value: 1.
               norm_class_idx: 0
               Tn: 0
               complexity: 0
               alpha: 0.
               node_risk: 0.
               tree_risk: 0.
               tree_error: 0.
            -
               depth: 1
               sample_count: 1
               value: 0.9999999999999999
               norm_class_idx: 0
               Tn: 0
               complexity: 0
               alpha: 0.
               node_risk: 285.8045688866554883
               tree_risk: 0.
               tree_error: 0.
      -
         best_tree_idx: -1
         nodes:
            -
               depth: 0
               sample_count: 46357
               value: 4.5081110968795382e-10
               norm_class_idx: 0
               Tn: 0
               complexity: 0
               alpha: 0.
               node_risk: 2.1489714489996614e+09
               tree_risk: 0.
               tree_error: 0.
               splits:
                  - { var:0, quality:3.6348876953125000e+03,
                      le:0.9551804065704346 }
            -
               depth: 1
               sample_count: 46356
               value: 4.5081110968795382e-10
               norm_class_idx: 0
               Tn: 0
               complexity: 0
               alpha: 0.
               node_risk: 2.1488787359996614e+09
               tree_risk: 0.
               tree_error: 0.
               splits:
                  - { var:0, quality:3.6338715820312500e+03,
                      le:0.9523359537124634 }
            -
               depth: 2
               sample_count: 46355
               value: 4.5081108193237820e-10
               norm_class_idx: 0
               Tn: 0
               complexity: 0
               alpha: 0.
               node_risk: 2.1487860249996614e+09
               tree_risk: 0.
               tree_error: 0.
            -
               depth: 2
               sample_count: 1
               value: 1.
               norm_class_idx: 0
               Tn: 0
               complexity: 0
               alpha: 0.
               node_risk: 0.
               tree_risk: 0.
               tree_error: 0.
            -
               depth: 1
               sample_count: 1
               value: 1.
               norm_class_idx: 0
               Tn: 0
               complexity: 0
               alpha: 0.
               node_risk: 0.
               tree_risk: 0.
               tree_error: 0.
      -
         best_tree_idx: -1
         nodes:
            -
               depth: 0
               sample_count: 46357
               value: 3.4944920221380300e-14
               norm_class_idx: 0
               Tn: 0
               complexity: 0
               alpha: 0.
               node_risk: 2.1489714490000005e+09
               tree_risk: 0.
               tree_error: 0.
               splits:
                  - { var:16, quality:0.0488984547555447,
                      le:0.0295703094452620 }
            -
               depth: 1
               sample_count: 19002
               value: 0.3391150192822621
               norm_class_idx: 0
               Tn: 0
               complexity: 0
               alpha: 0.
               node_risk: 1.0710739234177547e+09
               tree_risk: 0.
               tree_error: 0.
               splits:
                  - { var:4, quality:5.2695760521280881e+18,
                      le:0.9799059033393860 }
            -
               depth: 2
               sample_count: 19001
               value: 0.3391150192647504
               norm_class_idx: 0
               Tn: 0
               complexity: 0
               alpha: 0.
               node_risk: 1.0709611936699325e+09
               tree_risk: 0.
               tree_error: 0.
            -
               depth: 2
               sample_count: 1
               value: 1.
               norm_class_idx: 0
               Tn: 0
               complexity: 0
               alpha: 0.
               node_risk: 0.
               tree_risk: 0.
               tree_error: 0.
            -
               depth: 1
               sample_count: 27355
               value: -0.1441943099633951
               norm_class_idx: 0
               Tn: 0
               complexity: 0
               alpha: 0.
               node_risk: 1.0443030465918492e+09
               tree_risk: 0.
               tree_error: 0.
               splits:
                  - { var:0, quality:8.4954242668354444e+20,
                      le:0.9523359537124634 }
            -
               depth: 2
               sample_count: 27354
               value: -0.1441943099633951
               norm_class_idx: 0
               Tn: 0
               complexity: 0
               alpha: 0.
               node_risk: 1.0442266960922245e+09
               tree_risk: 0.
               tree_error: 0.
            -
               depth: 2
               sample_count: 1
               value: 1.
               norm_class_idx: 0
               Tn: 0
               complexity: 0
               alpha: 0.
               node_risk: 0.
               tree_risk: 0.
               tree_error: 0.
      -
         best_tree_idx: -1
         nodes:
            -
               depth: 0
               sample_count: 46357
               value: 3.3029514377533832e-03
               norm_class_idx: 0
               Tn: 0
               complexity: 0
               alpha: 0.
               node_risk: 2.1489480048217950e+09
               tree_risk: 0.
               tree_error: 0.
               splits:
                  - { var:3, quality:7.8653779041320960e+15,
                      le:0.9825143218040466 }
            -
               depth: 1
               sample_count: 46356
               value: 3.3029514347804822e-03
               norm_class_idx: 0
               Tn: 0
               complexity: 0
               alpha: 0.
               node_risk: 2.1488552928396974e+09
               tree_risk: 0.
               tree_error: 0.
               splits:
                  - { var:3, quality:2.8469301451161600e+14,
                      le:0.9788210391998291 }
            -
               depth: 2
               sample_count: 46355
               value: 3.3029513527084125e-03
               norm_class_idx: 0
               Tn: 0
               complexity: 0
               alpha: 0.
               node_risk: 2.1487625830292306e+09
               tree_risk: 0.
               tree_error: 0.
            -
               depth: 2
               sample_count: 1
               value: 1.
               norm_class_idx: 0
               Tn: 0
               complexity: 0
               alpha: 0.
               node_risk: 0.
               tree_risk: 0.
               tree_error: 0.
            -
               depth: 1
               sample_count: 1
               value: 1.
               norm_class_idx: 0
               Tn: 0
               complexity: 0
               alpha: 0.
               node_risk: 0.
               tree_risk: 0.
               tree_error: 0.
      -
         best_tree_idx: -1
         nodes:
            -
               depth: 0
               sample_count: 46357
               value: 1.2042660163892830e-08
               norm_class_idx: 0
               Tn: 0
               complexity: 0
               alpha: 0.
               node_risk: 2.1489714489998851e+09
               tree_risk: 0.
               tree_error: 0.
               splits:
                  - { var:0, quality:3972090., le:0.9551804065704346 }
            -
               depth: 1
               sample_count: 46356
               value: 1.2042660163892830e-08
               norm_class_idx: 0
               Tn: 0
               complexity: 0
               alpha: 0.
               node_risk: 2.1488787359998851e+09
               tree_risk: 0.
               tree_error: 0.
               splits:
                  - { var:0, quality:3.9717195000000000e+06,
                      le:0.9523359537124634 }
            -
               depth: 2
               sample_count: 46355
               value: 1.2042660163892830e-08
               norm_class_idx: 0
               Tn: 0
               complexity: 0
               alpha: 0.
               node_risk: 2.1487860249998851e+09
               tree_risk: 0.
               tree_error: 0.
            -
               depth: 2
               sample_count: 1
               value: 1.
               norm_class_idx: 0
               Tn: 0
               complexity: 0
               alpha: 0.
               node_risk: 0.
               tree_risk: 0.
               tree_error: 0.
            -
               depth: 1
               sample_count: 1
               value: 1.
               norm_class_idx: 0
               Tn: 0
               complexity: 0
               alpha: 0.
               node_risk: 0.
               tree_risk: 0.
               tree_error: 0.
      -
         best_tree_idx: -1
         nodes:
            -
               depth: 0
               sample_count: 46357
               value: -2.7329917842708549e-14
               norm_class_idx: 0
               Tn: 0
               complexity: 0
               alpha: 0.
               node_risk: 2.1489714489997988e+09
               tree_risk: 0.
               tree_error: 0.
               splits:
                  - { var:58, quality:0.0528263077139854,
                      le:59.5000000000000000 }
            -
               depth: 1
               sample_count: 43323
               value: 0.0860376934856713
               norm_class_idx: 0
               Tn: 0
               complexity: 0
               alpha: 0.
               node_risk: 2.1240470358300662e+09
               tree_risk: 0.
               tree_error: 0.
               splits:
                  - { var:0, quality:4.6254730146303967e+20,
